{"learner":{"attributes":{"scikit_learn":"{\"_estimator_type\": \"regressor\"}"},"feature_names":["day_of_week","is_weekend","day_of_month","month","is_public_holiday","is_ramadan","temperature","rainfall","humidity","is_rainy","weather_sunny","weather_cloudy","weather_rainy","weather_storm","lag_1","lag_7","rolling_7d_mean"],"feature_types":["int","int","int","int","int","int","float","float","float","int","int","int","int","int","float","float","float"],"gradient_booster":{"model":{"cats":{"enc":[],"feature_segments":[],"sorted_idx":[]},"gbtree_model_param":{"num_parallel_tree":"1","num_trees":"200"},"iteration_indptr":[0,1,2,3,4,5,6,7,8,9,10,11,12,13,14,15,16,17,18,19,20,21,22,23,24,25,26,27,28,29,30,31,32,33,34,35,36,37,38,39,40,41,42,43,44,45,46,47,48,49,50,51,52,53,54,55,56,57,58,59,60,61,62,63,64,65,66,67,68,69,70,71,72,73,74,75,76,77,78,79,80,81,82,83,84,85,86,87,88,89,90,91,92,93,94,95,96,97,98,99,100,101,102,103,104,105,106,107,108,109,110,111,112,113,114,115,116,117,118,119,120,121,122,123,124,125,126,127,128,129,130,131,132,133,134,135,136,137,138,139,140,141,142,143,144,145,146,147,148,149,150,151,152,153,154,155,156,157,158,159,160,161,162,163,164,165,166,167,168,169,170,171,172,173,174,175,176,177,178,179,180,181,182,183,184,185,186,187,188,189,190,191,192,193,194,195,196,197,198,199,200],"tree_info":[0,0,0,0,0,0,0,0,0,0,0,0,0,0,0,0,0,0,0,0,0,0,0,0,0,0,0,0,0,0,0,0,0,0,0,0,0,0,0,0,0,0,0,0,0,0,0,0,0,0,0,0,0,0,0,0,0,0,0,0,0,0,0,0,0,0,0,0,0,0,0,0,0,0,0,0,0,0,0,0,0,0,0,0,0,0,0,0,0,0,0,0,0,0,0,0,0,0,0,0,0,0,0,0,0,0,0,0,0,0,0,0,0,0,0,0,0,0,0,0,0,0,0,0,0,0,0,0,0,0,0,0,0,0,0,0,0,0,0,0,0,0,0,0,0,0,0,0,0,0,0,0,0,0,0,0,0,0,0,0,0,0,0,0,0,0,0,0,0,0,0,0,0,0,0,0,0,0,0,0,0,0,0,0,0,0,0,0,0,0,0,0,0,0,0,0,0,0,0,0],"trees":[{"base_weights":[-9.392251E-1,-5.6145153E0,4.842541E-1,-4.084243E-1,4.1908633E-2],"categories":[],"categories_nodes":[],"categories_segments":[],"categories_sizes":[],"default_left":[0,0,0,0,0],"id":0,"left_children":[1,3,-1,-1,-1],"loss_changes":[1.2957628E3,3.0421918E2,0E0,0E0,0E0],"parents":[2147483647,0,0,1,1],"right_children":[2,4,-1,-1,-1],"split_conditions":[1E0,2E1,4.842541E-1,-4.084243E-1,4.1908633E-2],"split_indices":[1,15,0,0,0],"split_type":[0,0,0,0,0],"sum_hessian":[2.4E1,1.7E1,7E0,1.2E1,5E0],"tree_param":{"num_deleted":"0","num_feature":"17","num_nodes":"5","size_leaf_vector":"1"}},{"base_weights":[-2.264477E-1,-5.3233366E0,4.9906898E-1,-3.4515214E-1,-4.9837545E-2],"categories":[],"categories_nodes":[],"categories_segments":[],"categories_sizes":[],"default_left":[0,0,0,0,0],"id":1,"left_children":[1,3,-1,-1,-1],"loss_changes":[1.4054006E3,1.15354614E2,0E0,0E0,0E0],"parents":[2147483647,0,0,1,1],"right_children":[2,4,-1,-1,-1],"split_conditions":[1E0,2.2E1,4.9906898E-1,-3.4515214E-1,-4.9837545E-2],"split_indices":[1,15,0,0,0],"split_type":[0,0,0,0,0],"sum_hessian":[2.5E1,1.7E1,8E0,1.2E1,5E0],"tree_param":{"num_deleted":"0","num_feature":"17","num_nodes":"5","size_leaf_vector":"1"}},{"base_weights":[1.466864E-2,-6.9103594E0,3.761947E-1,-4.12777E-1,-1.9741964E-1],"categories":[],"categories_nodes":[],"categories_segments":[],"categories_sizes":[],"default_left":[0,0,0,0,0],"id":2,"left_children":[1,3,-1,-1,-1],"loss_changes":[1.3000925E3,1.7980347E1,0E0,0E0,0E0],"parents":[2147483647,0,0,1,1],"right_children":[2,4,-1,-1,-1],"split_conditions":[4E0,2E0,3.761947E-1,-4.12777E-1,-1.9741964E-1],"split_indices":[0,0,0,0,0],"split_type":[0,0,0,0,0],"sum_hessian":[2.3E1,1.2E1,1.1E1,7E0,5E0],"tree_param":{"num_deleted":"0","num_feature":"17","num_nodes":"5","size_leaf_vector":"1"}},{"base_weights":[5.6400992E-2,-7.079546E0,3.8525864E-1,-2.3658417E-1,-4.5362887E-1],"categories":[],"categories_nodes":[],"categories_segments":[],"categories_sizes":[],"default_left":[0,0,0,0,0],"id":3,"left_children":[1,3,-1,-1,-1],"loss_changes":[1.5828861E3,2.588153E1,0E0,0E0,0E0],"parents":[2147483647,0,0,1,1],"right_children":[2,4,-1,-1,-1],"split_conditions":[4E0,2E1,3.8525864E-1,-2.3658417E-1,-4.5362887E-1],"split_indices":[0,14,0,0,0],"split_type":[0,0,0,0,0],"sum_hessian":[2.7E1,1.4E1,1.3E1,8E0,6E0],"tree_param":{"num_deleted":"0","num_feature":"17","num_nodes":"5","size_leaf_vector":"1"}},{"base_weights":[2.4320315E-1,-6.33256E0,3.9098033E-1,-4.232811E-1,-1.9793913E-1],"categories":[],"categories_nodes":[],"categories_segments":[],"categories_sizes":[],"default_left":[0,0,0,0,0],"id":4,"left_children":[1,3,-1,-1,-1],"loss_changes":[1.3948239E3,4.119525E1,0E0,0E0,0E0],"parents":[2147483647,0,0,1,1],"right_children":[2,4,-1,-1,-1],"split_conditions":[4E0,2E0,3.9098033E-1,-4.232811E-1,-1.9793913E-1],"split_indices":[0,0,0,0,0],"split_type":[0,0,0,0,0],"sum_hessian":[2.6E1,1.4E1,1.2E1,6E0,8E0],"tree_param":{"num_deleted":"0","num_feature":"17","num_nodes":"5","size_leaf_vector":"1"}},{"base_weights":[8.037535E-1,-5.71078E0,4.0993333E-1,-3.4786457E-1,-1.7910536E-1],"categories":[],"categories_nodes":[],"categories_segments":[],"categories_sizes":[],"default_left":[0,0,0,0,0],"id":5,"left_children":[1,3,-1,-1,-1],"loss_changes":[1.4441273E3,1.6478943E1,0E0,0E0,0E0],"parents":[2147483647,0,0,1,1],"right_children":[2,4,-1,-1,-1],"split_conditions":[4E0,2E0,4.0993333E-1,-3.4786457E-1,-1.7910536E-1],"split_indices":[0,0,0,0,0],"split_type":[0,0,0,0,0],"sum_hessian":[2.8E1,1.5E1,1.3E1,8E0,7E0],"tree_param":{"num_deleted":"0","num_feature":"17","num_nodes":"5","size_leaf_vector":"1"}},{"base_weights":[2.4033453E-1,-5.709533E0,6.67433E0,-3.7872726E-1,-1.7922916E-1,4.2735916E-1,2.0506333E-1],"categories":[],"categories_nodes":[],"categories_segments":[],"categories_sizes":[],"default_left":[0,0,0,0,0,0,0],"id":6,"left_children":[1,3,5,-1,-1,-1,-1],"loss_changes":[9.56958E2,2.3252258E1,2.1508484E1,0E0,0E0,0E0,0E0],"parents":[2147483647,0,0,1,1,2,2],"right_children":[2,4,6,-1,-1,-1,-1],"split_conditions":[4E0,1.5E1,1.2E1,-3.7872726E-1,-1.7922916E-1,4.2735916E-1,2.0506333E-1],"split_indices":[0,2,2,0,0,0,0],"split_type":[0,0,0,0,0,0,0],"sum_hessian":[2.3E1,1.2E1,1.1E1,5E0,7E0,5E0,6E0],"tree_param":{"num_deleted":"0","num_feature":"17","num_nodes":"7","size_leaf_vector":"1"}},{"base_weights":[6.987868E-1,-5.5534105E0,6.9049234E0,-1.7085944E-1,-3.441001E-1,4.0407392E-1,2.0843482E-1],"categories":[],"categories_nodes":[],"categories_segments":[],"categories_sizes":[],"default_left":[0,0,0,0,0,0,0],"id":7,"left_children":[1,3,5,-1,-1,-1,-1],"loss_changes":[1.0085308E3,1.2349152E1,6.9368896E0,0E0,0E0,0E0,0E0],"parents":[2147483647,0,0,1,1,2,2],"right_children":[2,4,6,-1,-1,-1,-1],"split_conditions":[4E0,2.5142857E1,1.2E1,-1.7085944E-1,-3.441001E-1,4.0407392E-1,2.0843482E-1],"split_indices":[0,16,2,0,0,0,0],"split_type":[0,0,0,0,0,0,0],"sum_hessian":[2.4E1,1.2E1,1.2E1,6E0,6E0,7E0,5E0],"tree_param":{"num_deleted":"0","num_feature":"17","num_nodes":"7","size_leaf_vector":"1"}},{"base_weights":[1.0134429E0,-3.2465909E0,4.4434127E-1,-3.0348927E-1,4.1637164E-2],"categories":[],"categories_nodes":[],"categories_segments":[],"categories_sizes":[],"default_left":[0,0,0,0,0],"id":8,"left_children":[1,3,-1,-1,-1],"loss_changes":[7.673152E2,1.7832957E2,0E0,0E0,0E0],"parents":[2147483647,0,0,1,1],"right_children":[2,4,-1,-1,-1],"split_conditions":[1E0,2.2E1,4.4434127E-1,-3.0348927E-1,4.1637164E-2],"split_indices":[1,15,0,0,0],"split_type":[0,0,0,0,0],"sum_hessian":[2.1E1,1.4E1,7E0,8E0,6E0],"tree_param":{"num_deleted":"0","num_feature":"17","num_nodes":"5","size_leaf_vector":"1"}},{"base_weights":[2.0343053E0,-1.8082096E-1,6.739619E0,4.1942874E-1,2.2209151E-1],"categories":[],"categories_nodes":[],"categories_segments":[],"categories_sizes":[],"default_left":[0,0,0,0,0],"id":9,"left_children":[1,-1,3,-1,-1],"loss_changes":[6.8939636E2,0E0,1.4501709E1,0E0,0E0],"parents":[2147483647,0,0,2,2],"right_children":[2,-1,4,-1,-1],"split_conditions":[4E0,-1.8082096E-1,1.2E1,4.1942874E-1,2.2209151E-1],"split_indices":[0,0,2,0,0],"split_type":[0,0,0,0,0],"sum_hessian":[2.4E1,1.1E1,1.3E1,6E0,7E0],"tree_param":{"num_deleted":"0","num_feature":"17","num_nodes":"5","size_leaf_vector":"1"}},{"base_weights":[1.4996287E-1,-5.451781E0,6.5483866E0,-3.6264595E-1,-1.3657638E-1,2.029016E-1,4.587927E-1],"categories":[],"categories_nodes":[],"categories_segments":[],"categories_sizes":[],"default_left":[0,0,0,0,0,0,0],"id":10,"left_children":[1,3,5,-1,-1,-1,-1],"loss_changes":[1.0752375E3,5.7582886E1,5.304724E1,0E0,0E0,0E0,0E0],"parents":[2147483647,0,0,1,1,2,2],"right_children":[2,4,6,-1,-1,-1,-1],"split_conditions":[4E0,2E0,3.6E1,-3.6264595E-1,-1.3657638E-1,2.029016E-1,4.587927E-1],"split_indices":[0,0,15,0,0,0,0],"split_type":[0,0,0,0,0,0,0],"sum_hessian":[2.8E1,1.5E1,1.3E1,8E0,7E0,8E0,5E0],"tree_param":{"num_deleted":"0","num_feature":"17","num_nodes":"7","size_leaf_vector":"1"}},{"base_weights":[7.136953E-1,-4.3659463E0,5.752424E0,-1.368504E-1,-2.9111516E-1,1.9388376E-1,3.6633775E-1],"categories":[],"categories_nodes":[],"categories_segments":[],"categories_sizes":[],"default_left":[0,0,0,0,0,0,0],"id":11,"left_children":[1,3,5,-1,-1,-1,-1],"loss_changes":[7.675065E2,1.8793121E1,1.4740936E1,0E0,0E0,0E0,0E0],"parents":[2147483647,0,0,1,1,2,2],"right_children":[2,4,6,-1,-1,-1,-1],"split_conditions":[4E0,2.5142857E1,3.6E1,-1.368504E-1,-2.9111516E-1,1.9388376E-1,3.6633775E-1],"split_indices":[0,16,15,0,0,0,0],"split_type":[0,0,0,0,0,0,0],"sum_hessian":[2.8E1,1.4E1,1.4E1,8E0,6E0,8E0,6E0],"tree_param":{"num_deleted":"0","num_feature":"17","num_nodes":"7","size_leaf_vector":"1"}},{"base_weights":[-1.4876595E-1,-4.541086E0,5.345698E0,-2.8912696E-1,-1.3597487E-1,1.2465928E-1,3.5063758E-1],"categories":[],"categories_nodes":[],"categories_segments":[],"categories_sizes":[],"default_left":[0,0,0,0,0,0,0],"id":12,"left_children":[1,3,5,-1,-1,-1,-1],"loss_changes":[6.516643E2,1.7345459E1,3.8628784E1,0E0,0E0,0E0,0E0],"parents":[2147483647,0,0,1,1,2,2],"right_children":[2,4,6,-1,-1,-1,-1],"split_conditions":[4E0,2E0,3.3E1,-2.8912696E-1,-1.3597487E-1,1.2465928E-1,3.5063758E-1],"split_indices":[0,0,15,0,0,0,0],"split_type":[0,0,0,0,0,0,0],"sum_hessian":[2.5E1,1.4E1,1.1E1,7E0,7E0,5E0,6E0],"tree_param":{"num_deleted":"0","num_feature":"17","num_nodes":"7","size_leaf_vector":"1"}},{"base_weights":[-1.6744271E-1,-4.423426E0,5.158157E0,-1.2275535E-1,-2.725869E-1,3.7504128E-1,7.74342E-2],"categories":[],"categories_nodes":[],"categories_segments":[],"categories_sizes":[],"default_left":[0,0,0,0,0,0,0],"id":13,"left_children":[1,3,5,-1,-1,-1,-1],"loss_changes":[6.120505E2,1.6185394E1,8.894824E1,0E0,0E0,0E0,0E0],"parents":[2147483647,0,0,1,1,2,2],"right_children":[2,4,6,-1,-1,-1,-1],"split_conditions":[4E0,2.5E1,1.2E1,-1.2275535E-1,-2.725869E-1,3.7504128E-1,7.74342E-2],"split_indices":[0,16,2,0,0,0,0],"split_type":[0,0,0,0,0,0,0],"sum_hessian":[2.5E1,1.4E1,1.1E1,6E0,8E0,6E0,5E0],"tree_param":{"num_deleted":"0","num_feature":"17","num_nodes":"7","size_leaf_vector":"1"}},{"base_weights":[7.7974063E-1,-3.4416053E0,5.2540584E0,-1.15145676E-1,-2.3745787E-1,1.7579012E-1,3.2378858E-1],"categories":[],"categories_nodes":[],"categories_segments":[],"categories_sizes":[],"default_left":[0,0,0,0,0,0,0],"id":14,"left_children":[1,3,5,-1,-1,-1,-1],"loss_changes":[5.471177E2,1.0691376E1,5.964386E0,0E0,0E0,0E0,0E0],"parents":[2147483647,0,0,1,1,2,2],"right_children":[2,4,6,-1,-1,-1,-1],"split_conditions":[4E0,2.2E1,3.6E1,-1.15145676E-1,-2.3745787E-1,1.7579012E-1,3.2378858E-1],"split_indices":[0,14,15,0,0,0,0],"split_type":[0,0,0,0,0,0,0],"sum_hessian":[2.7E1,1.4E1,1.3E1,9E0,5E0,7E0,6E0],"tree_param":{"num_deleted":"0","num_feature":"17","num_nodes":"7","size_leaf_vector":"1"}},{"base_weights":[8.4924E-1,-3.4867918E0,4.846254E0,-2.2718064E-1,-8.832989E-2,1.6225629E-1,3.0991197E-1],"categories":[],"categories_nodes":[],"categories_segments":[],"categories_sizes":[],"default_left":[0,0,0,0,0,0,0],"id":15,"left_children":[1,3,5,-1,-1,-1,-1],"loss_changes":[5.0230682E2,1.6793365E1,1.1412109E1,0E0,0E0,0E0,0E0],"parents":[2147483647,0,0,1,1,2,2],"right_children":[2,4,6,-1,-1,-1,-1],"split_conditions":[4E0,2E0,3.6E1,-2.2718064E-1,-8.832989E-2,1.6225629E-1,3.0991197E-1],"split_indices":[0,0,15,0,0,0,0],"split_type":[0,0,0,0,0,0,0],"sum_hessian":[2.7E1,1.3E1,1.4E1,7E0,6E0,8E0,6E0],"tree_param":{"num_deleted":"0","num_feature":"17","num_nodes":"7","size_leaf_vector":"1"}},{"base_weights":[1.7807539E-1,-3.7157924E0,4.3445E0,-2.4141085E-1,-8.702097E-2,1.458293E-1,2.6707366E-1],"categories":[],"categories_nodes":[],"categories_segments":[],"categories_sizes":[],"default_left":[0,0,0,0,0,0,0],"id":16,"left_children":[1,3,5,-1,-1,-1,-1],"loss_changes":[4.7046432E2,2.390181E1,3.5256042E0,0E0,0E0,0E0,0E0],"parents":[2147483647,0,0,1,1,2,2],"right_children":[2,4,6,-1,-1,-1,-1],"split_conditions":[4E0,2E0,5E0,-2.4141085E-1,-8.702097E-2,1.458293E-1,2.6707366E-1],"split_indices":[0,0,3,0,0,0,0],"split_type":[0,0,0,0,0,0,0],"sum_hessian":[2.7E1,1.4E1,1.3E1,8E0,6E0,7E0,6E0],"tree_param":{"num_deleted":"0","num_feature":"17","num_nodes":"7","size_leaf_vector":"1"}},{"base_weights":[4.108691E-1,-4.1035075E0,5.2485924E0,-1.3511068E-1,-2.5522426E-1,1.5310493E-1,3.6362427E-1],"categories":[],"categories_nodes":[],"categories_segments":[],"categories_sizes":[],"default_left":[0,0,0,0,0,0,0],"id":17,"left_children":[1,3,5,-1,-1,-1,-1],"loss_changes":[5.8947406E2,5.063217E0,3.4225433E1,0E0,0E0,0E0,0E0],"parents":[2147483647,0,0,1,1,2,2],"right_children":[2,4,6,-1,-1,-1,-1],"split_conditions":[4E0,2.5142857E1,3.6E1,-1.3511068E-1,-2.5522426E-1,1.5310493E-1,3.6362427E-1],"split_indices":[0,16,15,0,0,0,0],"split_type":[0,0,0,0,0,0,0],"sum_hessian":[2.5E1,1.3E1,1.2E1,7E0,6E0,7E0,5E0],"tree_param":{"num_deleted":"0","num_feature":"17","num_nodes":"7","size_leaf_vector":"1"}},{"base_weights":[5.5443394E-1,-2.3356676E0,2.4998274E-1,-1.850692E-1,-2.1344801E-2],"categories":[],"categories_nodes":[],"categories_segments":[],"categories_sizes":[],"default_left":[0,0,0,0,0],"id":18,"left_children":[1,3,-1,-1,-1],"loss_changes":[2.94581E2,3.450283E1,0E0,0E0,0E0],"parents":[2147483647,0,0,1,1],"right_children":[2,4,-1,-1,-1],"split_conditions":[5E0,3E0,2.4998274E-1,-1.850692E-1,-2.1344801E-2],"split_indices":[0,0,0,0,0],"split_type":[0,0,0,0,0],"sum_hessian":[2.1E1,1.3E1,8E0,7E0,6E0],"tree_param":{"num_deleted":"0","num_feature":"17","num_nodes":"5","size_leaf_vector":"1"}},{"base_weights":[1.757828E-1,1.678446E-1,-9.4139457E-1,3.2156106E-2,-2.305374E0,-1.8444027E-1,-2.6052335E-2],"categories":[],"categories_nodes":[],"categories_segments":[],"categories_sizes":[],"default_left":[0,0,0,0,0,0,0],"id":19,"left_children":[1,-1,3,-1,5,-1,-1],"loss_changes":[9.580215E1,0E0,4.4873825E1,0E0,2.481041E1,0E0,0E0],"parents":[2147483647,0,0,2,2,4,4],"right_children":[2,-1,4,-1,6,-1,-1],"split_conditions":[2.4714285E1,1.678446E-1,1.3E1,3.2156106E-2,2.3E1,-1.8444027E-1,-2.6052335E-2],"split_indices":[16,0,2,0,2,0,0],"split_type":[0,0,0,0,0,0,0],"sum_hessian":[2.5E1,6E0,1.9E1,9E0,1E1,5E0,5E0],"tree_param":{"num_deleted":"0","num_feature":"17","num_nodes":"7","size_leaf_vector":"1"}},{"base_weights":[3.093632E-1,1.9164146E0,-2.2525818E0,-5.7388484E-1,3.1408843E-1,1.6162507E-2,-2.4494778E-1,2.2814404E-2,-6.436395E-2],"categories":[],"categories_nodes":[],"categories_segments":[],"categories_sizes":[],"default_left":[0,0,0,0,0,0,0,0,0],"id":20,"left_children":[1,3,5,7,-1,-1,-1,-1,-1],"loss_changes":[1.2779857E2,2.1072552E2,8.3840515E1,1.0224421E1,0E0,0E0,0E0,0E0,0E0],"parents":[2147483647,0,0,1,1,2,2,3,3],"right_children":[2,4,6,8,-1,-1,-1,-1,-1],"split_conditions":[2.6428572E1,2.9E1,3E1,1.8E1,3.1408843E-1,1.6162507E-2,-2.4494778E-1,2.2814404E-2,-6.436395E-2],"split_indices":[16,14,14,2,0,0,0,0,0],"split_type":[0,0,0,0,0,0,0,0,0],"sum_hessian":[2.9E1,1.8E1,1.1E1,1.2E1,6E0,6E0,5E0,5E0,7E0],"tree_param":{"num_deleted":"0","num_feature":"17","num_nodes":"9","size_leaf_vector":"1"}},{"base_weights":[-1.1596314E-2,-3.2789874E0,3.7929928E0,-9.343749E-2,-2.4155895E-1,2.84439E-1,8.059454E-2],"categories":[],"categories_nodes":[],"categories_segments":[],"categories_sizes":[],"default_left":[0,0,0,0,0,0,0],"id":21,"left_children":[1,3,5,-1,-1,-1,-1],"loss_changes":[3.2316278E2,2.0947174E1,3.97191E1,0E0,0E0,0E0,0E0],"parents":[2147483647,0,0,1,1,2,2],"right_children":[2,4,6,-1,-1,-1,-1],"split_conditions":[4E0,2.6714285E1,2.4714285E1,-9.343749E-2,-2.4155895E-1,2.84439E-1,8.059454E-2],"split_indices":[0,16,16,0,0,0,0],"split_type":[0,0,0,0,0,0,0],"sum_hessian":[2.4E1,1.3E1,1.1E1,8E0,5E0,5E0,6E0],"tree_param":{"num_deleted":"0","num_feature":"17","num_nodes":"7","size_leaf_vector":"1"}},{"base_weights":[5.1857572E-2,-1.5553111E0,2.4401207E-1,4.19906E-2,-3.1015263E0,-9.627634E-2,-2.0679688E-1],"categories":[],"categories_nodes":[],"categories_segments":[],"categories_sizes":[],"default_left":[0,0,0,0,0,0,0],"id":22,"left_children":[1,3,-1,-1,5,-1,-1],"loss_changes":[2.1744353E2,8.0601776E1,0E0,0E0,7.2440643E0,0E0,0E0],"parents":[2147483647,0,0,1,1,4,4],"right_children":[2,4,-1,-1,6,-1,-1],"split_conditions":[3.6E1,1.3E1,2.4401207E-1,4.19906E-2,2.5142857E1,-9.627634E-2,-2.0679688E-1],"split_indices":[15,2,0,0,16,0,0],"split_type":[0,0,0,0,0,0,0],"sum_hessian":[2.6E1,2E1,6E0,8E0,1.2E1,7E0,5E0],"tree_param":{"num_deleted":"0","num_feature":"17","num_nodes":"7","size_leaf_vector":"1"}},{"base_weights":[4.2159483E-2,-3.4401839E0,4.0646973E0,-2.3157735E-1,-7.0134535E-2,1.2868902E-1,2.679235E-1],"categories":[],"categories_nodes":[],"categories_segments":[],"categories_sizes":[],"default_left":[0,0,0,0,0,0,0],"id":23,"left_children":[1,3,5,-1,-1,-1,-1],"loss_changes":[3.922579E2,2.9310852E1,1.0491058E1,0E0,0E0,0E0,0E0],"parents":[2147483647,0,0,1,1,2,2],"right_children":[2,4,6,-1,-1,-1,-1],"split_conditions":[4E0,2E0,3.6E1,-2.3157735E-1,-7.0134535E-2,1.2868902E-1,2.679235E-1],"split_indices":[0,0,15,0,0,0,0],"split_type":[0,0,0,0,0,0,0],"sum_hessian":[2.6E1,1.4E1,1.2E1,8E0,6E0,7E0,5E0],"tree_param":{"num_deleted":"0","num_feature":"17","num_nodes":"7","size_leaf_vector":"1"}},{"base_weights":[7.099191E-1,-3.1088583E0,4.4817796E0,-9.253432E-2,-2.1258056E-1,3.400238E-1,1.08501755E-1],"categories":[],"categories_nodes":[],"categories_segments":[],"categories_sizes":[],"default_left":[0,0,0,0,0,0,0],"id":24,"left_children":[1,3,5,-1,-1,-1,-1],"loss_changes":[3.7416788E2,1.0212494E1,5.4028687E1,0E0,0E0,0E0,0E0],"parents":[2147483647,0,0,1,1,2,2],"right_children":[2,4,6,-1,-1,-1,-1],"split_conditions":[4E0,2.2E1,1.2E1,-9.253432E-2,-2.1258056E-1,3.400238E-1,1.08501755E-1],"split_indices":[0,14,2,0,0,0,0],"split_type":[0,0,0,0,0,0,0],"sum_hessian":[2.4E1,1.2E1,1.2E1,7E0,5E0,5E0,7E0],"tree_param":{"num_deleted":"0","num_feature":"17","num_nodes":"7","size_leaf_vector":"1"}},{"base_weights":[5.754674E-1,-2.3492591E0,3.2735143E0,-5.694401E-2,-1.5510917E-1,2.2706187E-1,1.0877645E-1],"categories":[],"categories_nodes":[],"categories_segments":[],"categories_sizes":[],"default_left":[0,0,0,0,0,0,0],"id":25,"left_children":[1,3,5,-1,-1,-1,-1],"loss_changes":[2.2873215E2,8.8014145E0,1.0327835E1,0E0,0E0,0E0,0E0],"parents":[2147483647,0,0,1,1,2,2],"right_children":[2,4,6,-1,-1,-1,-1],"split_conditions":[4E0,1.9E1,1E1,-5.694401E-2,-1.5510917E-1,2.2706187E-1,1.0877645E-1],"split_indices":[0,14,2,0,0,0,0],"split_type":[0,0,0,0,0,0,0],"sum_hessian":[2.7E1,1.3E1,1.4E1,6E0,7E0,5E0,9E0],"tree_param":{"num_deleted":"0","num_feature":"17","num_nodes":"7","size_leaf_vector":"1"}},{"base_weights":[-4.1090035E-1,-2.9826775E0,3.044044E0,-2.4209192E-1,-8.4417306E-2,2.1760094E-1,7.368868E-2],"categories":[],"categories_nodes":[],"categories_segments":[],"categories_sizes":[],"default_left":[0,0,0,0,0,0,0],"id":26,"left_children":[1,3,5,-1,-1,-1,-1],"loss_changes":[2.4897763E2,2.967421E1,1.7650032E1,0E0,0E0,0E0,0E0],"parents":[2147483647,0,0,1,1,2,2],"right_children":[2,4,6,-1,-1,-1,-1],"split_conditions":[4E0,1E0,1E1,-2.4209192E-1,-8.4417306E-2,2.1760094E-1,7.368868E-2],"split_indices":[0,0,2,0,0,0,0],"split_type":[0,0,0,0,0,0,0],"sum_hessian":[2.6E1,1.5E1,1.1E1,5E0,1E1,5E0,6E0],"tree_param":{"num_deleted":"0","num_feature":"17","num_nodes":"7","size_leaf_vector":"1"}},{"base_weights":[4.1413847E-1,-1.6226287E0,2.3395379E-1,1.5334922E-2,-2.5443718E0,-6.4739995E-2,-1.8848696E-1],"categories":[],"categories_nodes":[],"categories_segments":[],"categories_sizes":[],"default_left":[0,0,0,0,0,0,0],"id":27,"left_children":[1,3,-1,-1,5,-1,-1],"loss_changes":[2.4243854E2,3.4792652E1,0E0,0E0,1.4517899E1,0E0,0E0],"parents":[2147483647,0,0,1,1,4,4],"right_children":[2,4,-1,-1,6,-1,-1],"split_conditions":[2.7E1,8E0,2.3395379E-1,1.5334922E-2,2.2E1,-6.4739995E-2,-1.8848696E-1],"split_indices":[15,15,0,0,14,0,0],"split_type":[0,0,0,0,0,0,0],"sum_hessian":[2.6E1,1.8E1,8E0,6E0,1.2E1,7E0,5E0],"tree_param":{"num_deleted":"0","num_feature":"17","num_nodes":"7","size_leaf_vector":"1"}},{"base_weights":[-2.8617236E-1,-1.948041E0,2.6422092E-1,-2.2584967E-1,-7.8392386E-1,2.7717201E-2,-1.01835065E-1],"categories":[],"categories_nodes":[],"categories_segments":[],"categories_sizes":[],"default_left":[0,0,0,0,0,0,0],"id":28,"left_children":[1,3,-1,-1,5,-1,-1],"loss_changes":[2.4140039E2,5.5740166E1,0E0,0E0,2.6425545E1,0E0,0E0],"parents":[2147483647,0,0,1,1,4,4],"right_children":[2,4,-1,-1,6,-1,-1],"split_conditions":[3.6E1,1E0,2.6422092E-1,-2.2584967E-1,1.6E1,2.7717201E-2,-1.01835065E-1],"split_indices":[15,0,0,0,15,0,0],"split_type":[0,0,0,0,0,0,0],"sum_hessian":[2.4E1,1.9E1,5E0,5E0,1.4E1,7E0,7E0],"tree_param":{"num_deleted":"0","num_feature":"17","num_nodes":"7","size_leaf_vector":"1"}},{"base_weights":[-3.0090627E-1,-2.6029267E0,2.547804E0,-1.936965E-1,-5.8641046E-2,1.9387783E-1,6.0975708E-2],"categories":[],"categories_nodes":[],"categories_segments":[],"categories_sizes":[],"default_left":[0,0,0,0,0,0,0],"id":29,"left_children":[1,3,5,-1,-1,-1,-1],"loss_changes":[1.9025537E2,2.4034607E1,1.772342E1,0E0,0E0,0E0,0E0],"parents":[2147483647,0,0,1,1,2,2],"right_children":[2,4,6,-1,-1,-1,-1],"split_conditions":[4E0,2E0,1E1,-1.936965E-1,-5.8641046E-2,1.9387783E-1,6.0975708E-2],"split_indices":[0,0,2,0,0,0,0],"split_type":[0,0,0,0,0,0,0],"sum_hessian":[2.7E1,1.5E1,1.2E1,7E0,8E0,5E0,7E0],"tree_param":{"num_deleted":"0","num_feature":"17","num_nodes":"7","size_leaf_vector":"1"}},{"base_weights":[-1.1600423E-1,-2.423126E0,2.3698196E0,-7.534629E-2,-1.6884527E-1,1.4563459E-1,7.37058E-2],"categories":[],"categories_nodes":[],"categories_segments":[],"categories_sizes":[],"default_left":[0,0,0,0,0,0,0],"id":30,"left_children":[1,3,5,-1,-1,-1,-1],"loss_changes":[1.5486024E2,6.6568146E0,1.5889587E0,0E0,0E0,0E0,0E0],"parents":[2147483647,0,0,1,1,2,2],"right_children":[2,4,6,-1,-1,-1,-1],"split_conditions":[4E0,1.8E1,3.3E1,-7.534629E-2,-1.6884527E-1,1.4563459E-1,7.37058E-2],"split_indices":[0,15,15,0,0,0,0],"split_type":[0,0,0,0,0,0,0],"sum_hessian":[2.5E1,1.3E1,1.2E1,8E0,5E0,6E0,6E0],"tree_param":{"num_deleted":"0","num_feature":"17","num_nodes":"7","size_leaf_vector":"1"}},{"base_weights":[1.06407315E-1,-2.7557266E0,3.1725218E0,-2.0445001E-1,-8.35095E-2,8.2606204E-2,2.4538492E-1],"categories":[],"categories_nodes":[],"categories_segments":[],"categories_sizes":[],"default_left":[0,0,0,0,0,0,0],"id":31,"left_children":[1,3,5,-1,-1,-1,-1],"loss_changes":[2.5450194E2,1.4304436E1,2.8170105E1,0E0,0E0,0E0,0E0],"parents":[2147483647,0,0,1,1,2,2],"right_children":[2,4,6,-1,-1,-1,-1],"split_conditions":[4E0,1E0,3.6E1,-2.0445001E-1,-8.35095E-2,8.2606204E-2,2.4538492E-1],"split_indices":[0,0,15,0,0,0,0],"split_type":[0,0,0,0,0,0,0],"sum_hessian":[2.7E1,1.4E1,1.3E1,5E0,9E0,8E0,5E0],"tree_param":{"num_deleted":"0","num_feature":"17","num_nodes":"7","size_leaf_vector":"1"}},{"base_weights":[-1.1112814E-1,-2.8202343E0,2.4181128E0,-4.586122E-2,-2.0601693E-1,1.875289E-1,6.834113E-2],"categories":[],"categories_nodes":[],"categories_segments":[],"categories_sizes":[],"default_left":[0,0,0,0,0,0,0],"id":32,"left_children":[1,3,5,-1,-1,-1,-1],"loss_changes":[1.9871535E2,3.0354523E1,1.5374001E1,0E0,0E0,0E0,0E0],"parents":[2147483647,0,0,1,1,2,2],"right_children":[2,4,6,-1,-1,-1,-1],"split_conditions":[4E0,2.5142857E1,3E1,-4.586122E-2,-2.0601693E-1,1.875289E-1,6.834113E-2],"split_indices":[0,16,15,0,0,0,0],"split_type":[0,0,0,0,0,0,0],"sum_hessian":[2.7E1,1.3E1,1.4E1,6E0,7E0,5E0,9E0],"tree_param":{"num_deleted":"0","num_feature":"17","num_nodes":"7","size_leaf_vector":"1"}},{"base_weights":[1.7089096E-1,-2.640024E0,2.150896E0,-8.414122E-2,-1.650043E-1,6.778114E-2,1.5395273E-1],"categories":[],"categories_nodes":[],"categories_segments":[],"categories_sizes":[],"default_left":[0,0,0,0,0,0,0],"id":33,"left_children":[1,3,5,-1,-1,-1,-1],"loss_changes":[1.6146703E2,1.5299759E0,7.93087E0,0E0,0E0,0E0,0E0],"parents":[2147483647,0,0,1,1,2,2],"right_children":[2,4,6,-1,-1,-1,-1],"split_conditions":[3E0,2E1,3.6E1,-8.414122E-2,-1.650043E-1,6.778114E-2,1.5395273E-1],"split_indices":[0,14,15,0,0,0,0],"split_type":[0,0,0,0,0,0,0],"sum_hessian":[2.7E1,1.1E1,1.6E1,6E0,5E0,1E1,6E0],"tree_param":{"num_deleted":"0","num_feature":"17","num_nodes":"7","size_leaf_vector":"1"}},{"base_weights":[-9.495533E-1,4.1767684E-1,-1.976643E-1,1.03597224E-1,-5.440404E-2],"categories":[],"categories_nodes":[],"categories_segments":[],"categories_sizes":[],"default_left":[0,0,0,0,0],"id":34,"left_children":[1,3,-1,-1,-1],"loss_changes":[9.235422E1,4.2207645E1,0E0,0E0,0E0],"parents":[2147483647,0,0,1,1],"right_children":[2,4,-1,-1,-1],"split_conditions":[3E1,1.2E1,-1.976643E-1,1.03597224E-1,-5.440404E-2],"split_indices":[14,2,0,0,0],"split_type":[0,0,0,0,0],"sum_hessian":[2.1E1,1.5E1,6E0,7E0,8E0],"tree_param":{"num_deleted":"0","num_feature":"17","num_nodes":"5","size_leaf_vector":"1"}},{"base_weights":[-1.575421E-1,-2.2701406E0,1.5363729E0,-6.680826E-2,-1.3660498E-1,1.4555597E-1,-8.960152E-4],"categories":[],"categories_nodes":[],"categories_segments":[],"categories_sizes":[],"default_left":[0,0,0,0,0,0,0],"id":35,"left_children":[1,3,5,-1,-1,-1,-1],"loss_changes":[9.6603775E1,1.1201363E0,3.2392883E1,0E0,0E0,0E0,0E0],"parents":[2147483647,0,0,1,1,2,2],"right_children":[2,4,6,-1,-1,-1,-1],"split_conditions":[3E0,2.5142857E1,3E1,-6.680826E-2,-1.3660498E-1,1.4555597E-1,-8.960152E-4],"split_indices":[0,16,15,0,0,0,0],"split_type":[0,0,0,0,0,0,0],"sum_hessian":[2.5E1,1.1E1,1.4E1,5E0,6E0,7E0,7E0],"tree_param":{"num_deleted":"0","num_feature":"17","num_nodes":"7","size_leaf_vector":"1"}},{"base_weights":[6.0535836E-1,-1.4408064E0,2.9504373E0,-4.9652397E-3,-1.2110098E-1,2.1385804E-1,6.8873465E-2],"categories":[],"categories_nodes":[],"categories_segments":[],"categories_sizes":[],"default_left":[0,0,0,0,0,0,0],"id":36,"left_children":[1,3,5,-1,-1,-1,-1],"loss_changes":[1.2436243E2,1.7935535E1,1.8585602E1,0E0,0E0,0E0,0E0],"parents":[2147483647,0,0,1,1,2,2],"right_children":[2,4,6,-1,-1,-1,-1],"split_conditions":[4E0,2E1,1.3E1,-4.9652397E-3,-1.2110098E-1,2.1385804E-1,6.8873465E-2],"split_indices":[0,14,2,0,0,0,0],"split_type":[0,0,0,0,0,0,0],"sum_hessian":[2.4E1,1.3E1,1.1E1,6E0,7E0,5E0,6E0],"tree_param":{"num_deleted":"0","num_feature":"17","num_nodes":"7","size_leaf_vector":"1"}},{"base_weights":[-7.715179E-2,-1.3130926E0,1.2454385E0,-2.6234297E-2,-8.224137E-2,1.6635291E-1,-1.3478949E-2],"categories":[],"categories_nodes":[],"categories_segments":[],"categories_sizes":[],"default_left":[0,0,0,0,0,0,0],"id":37,"left_children":[1,3,5,-1,-1,-1,-1],"loss_changes":[4.741215E1,2.8431587E0,4.5354317E1,0E0,0E0,0E0,0E0],"parents":[2147483647,0,0,1,1,2,2],"right_children":[2,4,6,-1,-1,-1,-1],"split_conditions":[4E0,1.6E1,3E1,-2.6234297E-2,-8.224137E-2,1.6635291E-1,-1.3478949E-2],"split_indices":[0,15,15,0,0,0,0],"split_type":[0,0,0,0,0,0,0],"sum_hessian":[2.7E1,1.4E1,1.3E1,5E0,9E0,5E0,8E0],"tree_param":{"num_deleted":"0","num_feature":"17","num_nodes":"7","size_leaf_vector":"1"}},{"base_weights":[2.494447E-1,-1.9575273E0,2.784455E0,-3.0031482E-2,-1.7040889E-1,1.9822066E-1,7.694649E-2],"categories":[],"categories_nodes":[],"categories_segments":[],"categories_sizes":[],"default_left":[0,0,0,0,0,0,0],"id":38,"left_children":[1,3,5,-1,-1,-1,-1],"loss_changes":[1.5659016E2,2.707782E1,1.24543915E1,0E0,0E0,0E0,0E0],"parents":[2147483647,0,0,1,1,2,2],"right_children":[2,4,6,-1,-1,-1,-1],"split_conditions":[4E0,2.5142857E1,2.4714285E1,-3.0031482E-2,-1.7040889E-1,1.9822066E-1,7.694649E-2],"split_indices":[0,16,16,0,0,0,0],"split_type":[0,0,0,0,0,0,0],"sum_hessian":[2.6E1,1.4E1,1.2E1,8E0,6E0,5E0,7E0],"tree_param":{"num_deleted":"0","num_feature":"17","num_nodes":"7","size_leaf_vector":"1"}},{"base_weights":[2.490433E-2,-1.8697395E0,1.9245546E0,-1.5610184E-1,-3.3843543E-2,1.5318365E-1,5.1931407E-2],"categories":[],"categories_nodes":[],"categories_segments":[],"categories_sizes":[],"default_left":[0,0,0,0,0,0,0],"id":39,"left_children":[1,3,5,-1,-1,-1,-1],"loss_changes":[1.0797955E2,1.9914288E1,1.1545387E1,0E0,0E0,0E0,0E0],"parents":[2147483647,0,0,1,1,2,2],"right_children":[2,4,6,-1,-1,-1,-1],"split_conditions":[4E0,2E0,3E1,-1.5610184E-1,-3.3843543E-2,1.5318365E-1,5.1931407E-2],"split_indices":[0,0,15,0,0,0,0],"split_type":[0,0,0,0,0,0,0],"sum_hessian":[2.8E1,1.4E1,1.4E1,6E0,8E0,5E0,9E0],"tree_param":{"num_deleted":"0","num_feature":"17","num_nodes":"7","size_leaf_vector":"1"}},{"base_weights":[-1.5000675E-2,-1.7515382E0,1.5511335E-1,-1.376814E-1,-8.5442406E-1,-6.556184E-2,-1.1927036E-2],"categories":[],"categories_nodes":[],"categories_segments":[],"categories_sizes":[],"default_left":[0,0,0,0,0,0,0],"id":40,"left_children":[1,3,-1,-1,5,-1,-1],"loss_changes":[1.5145648E2,1.3468224E1,0E0,0E0,2.627015E0,0E0,0E0],"parents":[2147483647,0,0,1,1,4,4],"right_children":[2,4,-1,-1,6,-1,-1],"split_conditions":[5E0,2E0,1.5511335E-1,-1.376814E-1,1.7E1,-6.556184E-2,-1.1927036E-2],"split_indices":[0,0,0,0,2,0,0],"split_type":[0,0,0,0,0,0,0],"sum_hessian":[2.6E1,1.7E1,9E0,7E0,1E1,5E0,5E0],"tree_param":{"num_deleted":"0","num_feature":"17","num_nodes":"7","size_leaf_vector":"1"}},{"base_weights":[-9.4282314E-2,-1.7087979E0,1.9233859E0,-1.7136816E-2,-1.42438E-1,1.583163E-1,6.8028956E-3],"categories":[],"categories_nodes":[],"categories_segments":[],"categories_sizes":[],"default_left":[0,0,0,0,0,0,0],"id":41,"left_children":[1,3,5,-1,-1,-1,-1],"loss_changes":[8.796169E1,2.2063347E1,2.5897457E1,0E0,0E0,0E0,0E0],"parents":[2147483647,0,0,1,1,2,2],"right_children":[2,4,6,-1,-1,-1,-1],"split_conditions":[4E0,2.5142857E1,1.2E1,-1.7136816E-2,-1.42438E-1,1.583163E-1,6.8028956E-3],"split_indices":[0,16,2,0,0,0,0],"split_type":[0,0,0,0,0,0,0],"sum_hessian":[2.5E1,1.4E1,1.1E1,7E0,7E0,6E0,5E0],"tree_param":{"num_deleted":"0","num_feature":"17","num_nodes":"7","size_leaf_vector":"1"}},{"base_weights":[2.7477834E-1,-1.1190517E0,1.8687531E-1,-1.4411657E-1,-3.3246985E-1,-5.8601167E-2,5.5276543E-2],"categories":[],"categories_nodes":[],"categories_segments":[],"categories_sizes":[],"default_left":[0,0,0,0,0,0,0],"id":42,"left_children":[1,3,-1,-1,5,-1,-1],"loss_changes":[1.3475856E2,2.6459503E1,0E0,0E0,1.9411531E1,0E0,0E0],"parents":[2147483647,0,0,1,1,4,4],"right_children":[2,4,-1,-1,6,-1,-1],"split_conditions":[5E0,1E0,1.8687531E-1,-1.4411657E-1,2.5714285E1,-5.8601167E-2,5.5276543E-2],"split_indices":[0,0,0,0,16,0,0],"split_type":[0,0,0,0,0,0,0],"sum_hessian":[2.6E1,1.9E1,7E0,5E0,1.4E1,9E0,5E0],"tree_param":{"num_deleted":"0","num_feature":"17","num_nodes":"7","size_leaf_vector":"1"}},{"base_weights":[-5.5321735E-1,4.118203E-1,-1.5539299E-1,-6.1593926E-1,1.1379854E-1,8.851293E-3,-5.7308532E-2],"categories":[],"categories_nodes":[],"categories_segments":[],"categories_sizes":[],"default_left":[0,0,0,0,0,0,0],"id":43,"left_children":[1,3,-1,5,-1,-1,-1],"loss_changes":[6.3182632E1,3.7969936E1,0E0,5.765732E0,0E0,0E0,0E0],"parents":[2147483647,0,0,1,1,3,3],"right_children":[2,4,-1,6,-1,-1,-1],"split_conditions":[2.6714285E1,5E0,-1.5539299E-1,1.6E1,1.1379854E-1,8.851293E-3,-5.7308532E-2],"split_indices":[16,0,0,15,0,0,0],"split_type":[0,0,0,0,0,0,0],"sum_hessian":[2.4E1,1.8E1,6E0,1.2E1,6E0,5E0,7E0],"tree_param":{"num_deleted":"0","num_feature":"17","num_nodes":"7","size_leaf_vector":"1"}},{"base_weights":[2.4674457E-1,-1.8191382E0,2.8168693E0,-2.3082092E-2,-1.4683712E-1,7.3582366E-2,1.950075E-1],"categories":[],"categories_nodes":[],"categories_segments":[],"categories_sizes":[],"default_left":[0,0,0,0,0,0,0],"id":44,"left_children":[1,3,5,-1,-1,-1,-1],"loss_changes":[1.4327303E2,2.106158E1,1.1210205E1,0E0,0E0,0E0,0E0],"parents":[2147483647,0,0,1,1,2,2],"right_children":[2,4,6,-1,-1,-1,-1],"split_conditions":[4E0,2.5142857E1,3.6E1,-2.3082092E-2,-1.4683712E-1,7.3582366E-2,1.950075E-1],"split_indices":[0,16,15,0,0,0,0],"split_type":[0,0,0,0,0,0,0],"sum_hessian":[2.5E1,1.4E1,1.1E1,7E0,7E0,6E0,5E0],"tree_param":{"num_deleted":"0","num_feature":"17","num_nodes":"7","size_leaf_vector":"1"}},{"base_weights":[-3.9606082E-1,-1.2725699E0,6.0563084E-2,-2.6497975E-2,-9.725924E-2],"categories":[],"categories_nodes":[],"categories_segments":[],"categories_sizes":[],"default_left":[0,0,0,0,0],"id":45,"left_children":[1,3,-1,-1,-1],"loss_changes":[3.958603E1,7.712452E0,0E0,0E0,0E0],"parents":[2147483647,0,0,1,1],"right_children":[2,4,-1,-1,-1],"split_conditions":[5E0,2E1,6.0563084E-2,-2.6497975E-2,-9.725924E-2],"split_indices":[0,14,0,0,0],"split_type":[0,0,0,0,0],"sum_hessian":[2.6E1,1.7E1,9E0,9E0,8E0],"tree_param":{"num_deleted":"0","num_feature":"17","num_nodes":"5","size_leaf_vector":"1"}},{"base_weights":[-5.278139E-1,5.092311E-1,-2.0430844E-1,-9.055398E-1,1.08301654E-1,-1.2021365E-3,-8.8318154E-2],"categories":[],"categories_nodes":[],"categories_segments":[],"categories_sizes":[],"default_left":[0,0,0,0,0,0,0],"id":46,"left_children":[1,3,-1,5,-1,-1,-1],"loss_changes":[9.8383026E1,5.131137E1,0E0,8.884248E0,0E0,0E0,0E0],"parents":[2147483647,0,0,1,1,3,3],"right_children":[2,4,-1,6,-1,-1,-1],"split_conditions":[3.8E1,4E0,-2.0430844E-1,2.5142857E1,1.08301654E-1,-1.2021365E-3,-8.8318154E-2],"split_indices":[14,0,0,16,0,0,0],"split_type":[0,0,0,0,0,0,0],"sum_hessian":[2.5E1,2E1,5E0,1.1E1,9E0,6E0,5E0],"tree_param":{"num_deleted":"0","num_feature":"17","num_nodes":"7","size_leaf_vector":"1"}},{"base_weights":[3.907538E-1,1.253264E-1,-5.154013E-1,5.1151108E-2,-1.5064002E0,-1.0306702E-1,-2.9561842E-2],"categories":[],"categories_nodes":[],"categories_segments":[],"categories_sizes":[],"default_left":[0,0,0,0,0,0,0],"id":47,"left_children":[1,-1,3,-1,5,-1,-1],"loss_changes":[5.1338688E1,0E0,3.0556362E1,0E0,4.6103344E0,0E0,0E0],"parents":[2147483647,0,0,2,2,4,4],"right_children":[2,-1,4,-1,6,-1,-1],"split_conditions":[9E0,1.253264E-1,2.4714285E1,5.1151108E-2,2.3E1,-1.0306702E-1,-2.9561842E-2],"split_indices":[2,0,16,0,2,0,0],"split_type":[0,0,0,0,0,0,0],"sum_hessian":[2.5E1,7E0,1.8E1,7E0,1.1E1,6E0,5E0],"tree_param":{"num_deleted":"0","num_feature":"17","num_nodes":"7","size_leaf_vector":"1"}},{"base_weights":[-2.5765592E-1,-1.4663177E0,8.459842E-2,-3.177486E-2,-1.2147222E-1],"categories":[],"categories_nodes":[],"categories_segments":[],"categories_sizes":[],"default_left":[0,0,0,0,0],"id":48,"left_children":[1,3,-1,-1,-1],"loss_changes":[6.1369305E1,1.0952568E1,0E0,0E0,0E0],"parents":[2147483647,0,0,1,1],"right_children":[2,4,-1,-1,-1],"split_conditions":[1E0,2.2E1,8.459842E-2,-3.177486E-2,-1.2147222E-1],"split_indices":[1,14,0,0,0],"split_type":[0,0,0,0,0],"sum_hessian":[2.4E1,1.5E1,9E0,9E0,6E0],"tree_param":{"num_deleted":"0","num_feature":"17","num_nodes":"5","size_leaf_vector":"1"}},{"base_weights":[2.6122913E-1,1.0553848E0,-6.724983E-2,-6.849578E-2,1.4227769E-1,-3.5226267E-2,3.34144E-2],"categories":[],"categories_nodes":[],"categories_segments":[],"categories_sizes":[],"default_left":[0,0,0,0,0,0,0],"id":49,"left_children":[1,3,-1,5,-1,-1,-1],"loss_changes":[3.4555946E1,3.6687466E1,0E0,6.097844E0,0E0,0E0,0E0],"parents":[2147483647,0,0,1,1,3,3],"right_children":[2,4,-1,6,-1,-1,-1],"split_conditions":[2.6714285E1,5E0,-6.724983E-2,2.4857143E1,1.4227769E-1,-3.5226267E-2,3.34144E-2],"split_indices":[16,0,0,16,0,0,0],"split_type":[0,0,0,0,0,0,0],"sum_hessian":[2.5E1,1.7E1,8E0,1.1E1,6E0,6E0,5E0],"tree_param":{"num_deleted":"0","num_feature":"17","num_nodes":"7","size_leaf_vector":"1"}},{"base_weights":[-4.3436006E-1,4.1161E-1,-1.9517544E-1,-2.5418296E-1,1.2894925E-1,-3.6585044E-2,3.6143955E-2],"categories":[],"categories_nodes":[],"categories_segments":[],"categories_sizes":[],"default_left":[0,0,0,0,0,0,0],"id":50,"left_children":[1,3,-1,5,-1,-1,-1],"loss_changes":[8.99998E1,3.696359E1,0E0,9.861106E0,0E0,0E0,0E0],"parents":[2147483647,0,0,1,1,3,3],"right_children":[2,4,-1,6,-1,-1,-1],"split_conditions":[3.8E1,5E0,-1.9517544E-1,2.5714285E1,1.2894925E-1,-3.6585044E-2,3.6143955E-2],"split_indices":[14,0,0,16,0,0,0],"split_type":[0,0,0,0,0,0,0],"sum_hessian":[2.9E1,2.4E1,5E0,1.9E1,5E0,1.3E1,6E0],"tree_param":{"num_deleted":"0","num_feature":"17","num_nodes":"7","size_leaf_vector":"1"}},{"base_weights":[-1.4406916E-1,-1.0770364E0,1.471426E0,-1.1366186E-1,-4.8030487E-1,9.55812E-2,3.8466185E-2,-1.4815345E-2,-3.038438E-2],"categories":[],"categories_nodes":[],"categories_segments":[],"categories_sizes":[],"default_left":[0,0,0,0,0,0,0,0,0],"id":51,"left_children":[1,3,5,-1,7,-1,-1,-1,-1],"loss_changes":[4.525426E1,1.2195202E1,1.6609497E0,0E0,5.767274E-2,0E0,0E0,0E0,0E0],"parents":[2147483647,0,0,1,1,2,2,4,4],"right_children":[2,4,6,-1,8,-1,-1,-1,-1],"split_conditions":[5E0,1E0,1.2E1,-1.1366186E-1,1.8E1,9.55812E-2,3.8466185E-2,-1.4815345E-2,-3.038438E-2],"split_indices":[0,0,2,0,2,0,0,0,0],"split_type":[0,0,0,0,0,0,0,0,0],"sum_hessian":[2.8E1,1.8E1,1E1,5E0,1.3E1,5E0,5E0,7E0,6E0],"tree_param":{"num_deleted":"0","num_feature":"17","num_nodes":"9","size_leaf_vector":"1"}},{"base_weights":[6.225117E-1,-6.2382185E-1,1.75862E-1,-1.0892594E-1,7.989273E-2,4.6961993E-2,-2.4538562E-2],"categories":[],"categories_nodes":[],"categories_segments":[],"categories_sizes":[],"default_left":[0,0,0,0,0,0,0],"id":52,"left_children":[1,3,-1,-1,5,-1,-1],"loss_changes":[9.6286194E1,2.1171104E1,0E0,0E0,7.3713775E0,0E0,0E0],"parents":[2147483647,0,0,1,1,4,4],"right_children":[2,4,-1,-1,6,-1,-1],"split_conditions":[5E0,1E0,1.75862E-1,-1.0892594E-1,9E0,4.6961993E-2,-2.4538562E-2],"split_indices":[0,0,0,0,2,0,0],"split_type":[0,0,0,0,0,0,0],"sum_hessian":[2.5E1,1.8E1,7E0,5E0,1.3E1,5E0,8E0],"tree_param":{"num_deleted":"0","num_feature":"17","num_nodes":"7","size_leaf_vector":"1"}},{"base_weights":[-1.41041E-1,-1.2855824E0,9.335183E-2,-1.11073755E-1,-2.5385022E-2],"categories":[],"categories_nodes":[],"categories_segments":[],"categories_sizes":[],"default_left":[0,0,0,0,0],"id":53,"left_children":[1,3,-1,-1,-1],"loss_changes":[5.0606976E1,8.791435E0,0E0,0E0,0E0],"parents":[2147483647,0,0,1,1],"right_children":[2,4,-1,-1,-1],"split_conditions":[5E0,1.2E1,9.335183E-2,-1.11073755E-1,-2.5385022E-2],"split_indices":[0,2,0,0,0],"split_type":[0,0,0,0,0],"sum_hessian":[2E1,1.3E1,7E0,5E0,8E0],"tree_param":{"num_deleted":"0","num_feature":"17","num_nodes":"5","size_leaf_vector":"1"}},{"base_weights":[-3.0377376E-1,1.0352695E-1,-1.1245946E0,-5.374817E-1,-1.061939E-1,-3.538143E-2,-1.25979725E-2],"categories":[],"categories_nodes":[],"categories_segments":[],"categories_sizes":[],"default_left":[0,0,0,0,0,0,0],"id":54,"left_children":[1,-1,3,5,-1,-1,-1],"loss_changes":[5.2904934E1,0E0,1.0326162E1,4.058771E-1,0E0,0E0,0E0],"parents":[2147483647,0,0,2,2,3,3],"right_children":[2,-1,4,6,-1,-1,-1],"split_conditions":[2.4714285E1,1.0352695E-1,2.7E1,2E1,-1.061939E-1,-3.538143E-2,-1.25979725E-2],"split_indices":[16,0,14,15,0,0,0],"split_type":[0,0,0,0,0,0,0],"sum_hessian":[2.5E1,6E0,1.9E1,1.3E1,6E0,7E0,6E0],"tree_param":{"num_deleted":"0","num_feature":"17","num_nodes":"7","size_leaf_vector":"1"}},{"base_weights":[6.796934E-1,-7.308482E-1,2.4222288E0,-9.371341E-2,1.7425016E-2,1.5425427E-1,6.6950046E-2],"categories":[],"categories_nodes":[],"categories_segments":[],"categories_sizes":[],"default_left":[0,0,0,0,0,0,0],"id":55,"left_children":[1,3,5,-1,-1,-1,-1],"loss_changes":[6.0929466E1,1.8083841E1,3.3249283E0,0E0,0E0,0E0,0E0],"parents":[2147483647,0,0,1,1,2,2],"right_children":[2,4,6,-1,-1,-1,-1],"split_conditions":[4E0,1.3E1,1.1E1,-9.371341E-2,1.7425016E-2,1.5425427E-1,6.6950046E-2],"split_indices":[0,15,2,0,0,0,0],"split_type":[0,0,0,0,0,0,0],"sum_hessian":[2.3E1,1.3E1,1E1,6E0,7E0,5E0,5E0],"tree_param":{"num_deleted":"0","num_feature":"17","num_nodes":"7","size_leaf_vector":"1"}},{"base_weights":[1.5447825E-1,1.5866822E-1,-8.548437E-1,1.5387142E-1,-1.4572929E-1,-3.8715515E-2,5.3717863E-2],"categories":[],"categories_nodes":[],"categories_segments":[],"categories_sizes":[],"default_left":[0,0,0,0,0,0,0],"id":56,"left_children":[1,-1,3,5,-1,-1,-1],"loss_changes":[7.302623E1,0E0,3.8123016E1,1.1968806E1,0E0,0E0,0E0],"parents":[2147483647,0,0,2,2,3,3],"right_children":[2,-1,4,6,-1,-1,-1],"split_conditions":[7E0,1.5866822E-1,3.3E1,3E0,-1.4572929E-1,-3.8715515E-2,5.3717863E-2],"split_indices":[2,0,14,0,0,0,0],"split_type":[0,0,0,0,0,0,0],"sum_hessian":[2.2E1,5E0,1.7E1,1.2E1,5E0,6E0,6E0],"tree_param":{"num_deleted":"0","num_feature":"17","num_nodes":"7","size_leaf_vector":"1"}},{"base_weights":[3.0165505E-1,-9.144169E-1,2.0521548E0,1.3702327E-2,-8.324499E-2,1.5378535E-1,3.349551E-2],"categories":[],"categories_nodes":[],"categories_segments":[],"categories_sizes":[],"default_left":[0,0,0,0,0,0,0],"id":57,"left_children":[1,3,5,-1,-1,-1,-1],"loss_changes":[5.733737E1,1.4866086E1,1.3127785E1,0E0,0E0,0E0,0E0],"parents":[2147483647,0,0,1,1,2,2],"right_children":[2,4,6,-1,-1,-1,-1],"split_conditions":[4E0,2.5E1,1.2E1,1.3702327E-2,-8.324499E-2,1.5378535E-1,3.349551E-2],"split_indices":[0,16,2,0,0,0,0],"split_type":[0,0,0,0,0,0,0],"sum_hessian":[2.5E1,1.5E1,1E1,6E0,9E0,5E0,5E0],"tree_param":{"num_deleted":"0","num_feature":"17","num_nodes":"7","size_leaf_vector":"1"}},{"base_weights":[4.8092294E-1,1.5393731E-1,-3.629718E-1,7.5181925E-1,-1.2101668E-1,-0E0,8.094483E-2],"categories":[],"categories_nodes":[],"categories_segments":[],"categories_sizes":[],"default_left":[0,0,0,0,0,0,0],"id":58,"left_children":[1,-1,3,5,-1,-1,-1],"loss_changes":[6.2773174E1,0E0,5.244413E1,9.867298E0,0E0,0E0,0E0],"parents":[2147483647,0,0,2,2,3,3],"right_children":[2,-1,4,6,-1,-1,-1],"split_conditions":[9E0,1.5393731E-1,2.5428572E1,1.9E1,-1.2101668E-1,-0E0,8.094483E-2],"split_indices":[2,0,16,15,0,0,0],"split_type":[0,0,0,0,0,0,0],"sum_hessian":[2.7E1,6E0,2.1E1,1.4E1,7E0,8E0,6E0],"tree_param":{"num_deleted":"0","num_feature":"17","num_nodes":"7","size_leaf_vector":"1"}},{"base_weights":[-7.3052955E-1,2.9633424E-1,-1.8530165E-1,6.56122E-2,-4.271346E-2],"categories":[],"categories_nodes":[],"categories_segments":[],"categories_sizes":[],"default_left":[0,0,0,0,0],"id":59,"left_children":[1,3,-1,-1,-1],"loss_changes":[7.171423E1,2.220717E1,0E0,0E0,0E0],"parents":[2147483647,0,0,1,1],"right_children":[2,4,-1,-1,-1],"split_conditions":[3.8E1,2.5E1,-1.8530165E-1,6.56122E-2,-4.271346E-2],"split_indices":[14,16,0,0,0],"split_type":[0,0,0,0,0],"sum_hessian":[2.2E1,1.7E1,5E0,9E0,8E0],"tree_param":{"num_deleted":"0","num_feature":"17","num_nodes":"5","size_leaf_vector":"1"}},{"base_weights":[4.099928E-1,9.991428E-1,-5.1399376E-2,1.4682855E-1,9.030631E-2,-1.220146E-2,2.9671257E-2],"categories":[],"categories_nodes":[],"categories_segments":[],"categories_sizes":[],"default_left":[0,0,0,0,0,0,0],"id":60,"left_children":[1,3,-1,-1,5,-1,-1],"loss_changes":[2.3051062E1,3.2887424E1,0E0,0E0,2.5346997E0,0E0,0E0],"parents":[2147483647,0,0,1,1,4,4],"right_children":[2,4,-1,-1,6,-1,-1],"split_conditions":[2.6714285E1,1.2E1,-5.1399376E-2,1.4682855E-1,2.7E1,-1.220146E-2,2.9671257E-2],"split_indices":[16,2,0,0,14,0,0],"split_type":[0,0,0,0,0,0,0],"sum_hessian":[2.5E1,1.8E1,7E0,5E0,1.3E1,8E0,5E0],"tree_param":{"num_deleted":"0","num_feature":"17","num_nodes":"7","size_leaf_vector":"1"}},{"base_weights":[4.3381965E-1,-8.658318E-1,1.8077658E0,-8.261373E-3,-7.642733E-2,1.1081795E-1,4.7250703E-2],"categories":[],"categories_nodes":[],"categories_segments":[],"categories_sizes":[],"default_left":[0,0,0,0,0,0,0],"id":61,"left_children":[1,3,5,-1,-1,-1,-1],"loss_changes":[4.808634E1,6.0782757E0,2.172062E0,0E0,0E0,0E0,0E0],"parents":[2147483647,0,0,1,1,2,2],"right_children":[2,4,6,-1,-1,-1,-1],"split_conditions":[4E0,2E1,3.8E1,-8.261373E-3,-7.642733E-2,1.1081795E-1,4.7250703E-2],"split_indices":[0,14,15,0,0,0,0],"split_type":[0,0,0,0,0,0,0],"sum_hessian":[2.5E1,1.3E1,1.2E1,7E0,6E0,7E0,5E0],"tree_param":{"num_deleted":"0","num_feature":"17","num_nodes":"7","size_leaf_vector":"1"}},{"base_weights":[5.3791214E-2,1.2140509E-1,-8.1852275E-1,-0E0,-1.1063881E-1,-5.8041275E-2,4.3140344E-2],"categories":[],"categories_nodes":[],"categories_segments":[],"categories_sizes":[],"default_left":[0,0,0,0,0,0,0],"id":62,"left_children":[1,-1,3,5,-1,-1,-1],"loss_changes":[5.3927017E1,0E0,2.154504E1,1.404058E1,0E0,0E0,0E0],"parents":[2147483647,0,0,2,2,3,3],"right_children":[2,-1,4,6,-1,-1,-1],"split_conditions":[9E0,1.2140509E-1,2.5428572E1,2E1,-1.1063881E-1,-5.8041275E-2,4.3140344E-2],"split_indices":[2,0,16,2,0,0,0],"split_type":[0,0,0,0,0,0,0],"sum_hessian":[2.4E1,6E0,1.8E1,1.2E1,6E0,5E0,7E0],"tree_param":{"num_deleted":"0","num_feature":"17","num_nodes":"7","size_leaf_vector":"1"}},{"base_weights":[-1.0614412E0,-1.2878813E-1,-1.7551923E-1,8.4945306E-2,-1.0402362E0,-6.550384E-2,-3.230267E-2],"categories":[],"categories_nodes":[],"categories_segments":[],"categories_sizes":[],"default_left":[0,0,0,0,0,0,0],"id":63,"left_children":[1,3,-1,-1,5,-1,-1],"loss_changes":[4.9432297E1,3.0020817E1,0E0,0E0,2.3440552E-1,0E0,0E0],"parents":[2147483647,0,0,1,1,4,4],"right_children":[2,4,-1,-1,6,-1,-1],"split_conditions":[3.8E1,2.4714285E1,-1.7551923E-1,8.4945306E-2,2E1,-6.550384E-2,-3.230267E-2],"split_indices":[14,16,0,0,15,0,0],"split_type":[0,0,0,0,0,0,0],"sum_hessian":[2.1E1,1.6E1,5E0,5E0,1.1E1,5E0,6E0],"tree_param":{"num_deleted":"0","num_feature":"17","num_nodes":"7","size_leaf_vector":"1"}},{"base_weights":[9.5564014E-1,1.6047907E-1,6.968068E-2,-4.6386942E-1,5.324454E-2,-3.9442796E-2,-7.4822926E-3],"categories":[],"categories_nodes":[],"categories_segments":[],"categories_sizes":[],"default_left":[0,0,0,0,0,0,0],"id":64,"left_children":[1,-1,3,5,-1,-1,-1],"loss_changes":[4.937094E1,0E0,1.0642967E1,1.1156402E0,0E0,0E0,0E0],"parents":[2147483647,0,0,2,2,3,3],"right_children":[2,-1,4,6,-1,-1,-1],"split_conditions":[9E0,1.6047907E-1,1E0,1.7E1,5.324454E-2,-3.9442796E-2,-7.4822926E-3],"split_indices":[2,0,1,2,0,0,0],"split_type":[0,0,0,0,0,0,0],"sum_hessian":[2.4E1,6E0,1.8E1,1.2E1,6E0,5E0,7E0],"tree_param":{"num_deleted":"0","num_feature":"17","num_nodes":"7","size_leaf_vector":"1"}},{"base_weights":[1.2333921E-1,-7.2910357E-1,1.019209E-1,-2.296178E-3,-6.98035E-2],"categories":[],"categories_nodes":[],"categories_segments":[],"categories_sizes":[],"default_left":[0,0,0,0,0],"id":65,"left_children":[1,3,-1,-1,-1],"loss_changes":[4.242953E1,7.993532E0,0E0,0E0,0E0],"parents":[2147483647,0,0,1,1],"right_children":[2,4,-1,-1,-1],"split_conditions":[5E0,1.8E1,1.019209E-1,-2.296178E-3,-6.98035E-2],"split_indices":[0,15,0,0,0],"split_type":[0,0,0,0,0],"sum_hessian":[2.4E1,1.7E1,7E0,9E0,8E0],"tree_param":{"num_deleted":"0","num_feature":"17","num_nodes":"5","size_leaf_vector":"1"}},{"base_weights":[-7.3670647E-3,8.257716E-2,-7.3892987E-1,1.2223299E-1,-1.1056202E-1,-4.2428415E-2,5.4466445E-2],"categories":[],"categories_nodes":[],"categories_segments":[],"categories_sizes":[],"default_left":[0,0,0,0,0,0,0],"id":66,"left_children":[1,-1,3,5,-1,-1,-1],"loss_changes":[2.782825E1,0E0,2.0765572E1,1.1275884E1,0E0,0E0,0E0],"parents":[2147483647,0,0,2,2,3,3],"right_children":[2,-1,4,6,-1,-1,-1],"split_conditions":[9E0,8.257716E-2,2.9E1,3E0,-1.1056202E-1,-4.2428415E-2,5.4466445E-2],"split_indices":[2,0,15,0,0,0,0],"split_type":[0,0,0,0,0,0,0],"sum_hessian":[2.1E1,6E0,1.5E1,1E1,5E0,5E0,5E0],"tree_param":{"num_deleted":"0","num_feature":"17","num_nodes":"7","size_leaf_vector":"1"}},{"base_weights":[-1.1792035E-1,6.406266E-2,-6.8949497E-1,4.5169856E-2,-9.966523E-2,-2.7289316E-2,5.196176E-2],"categories":[],"categories_nodes":[],"categories_segments":[],"categories_sizes":[],"default_left":[0,0,0,0,0,0,0],"id":67,"left_children":[1,-1,3,5,-1,-1,-1],"loss_changes":[2.4816204E1,0E0,2.1357841E1,9.428281E0,0E0,0E0,0E0],"parents":[2147483647,0,0,2,2,3,3],"right_children":[2,-1,4,6,-1,-1,-1],"split_conditions":[9E0,6.406266E-2,2.5428572E1,2.3E1,-9.966523E-2,-2.7289316E-2,5.196176E-2],"split_indices":[2,0,16,2,0,0,0],"split_type":[0,0,0,0,0,0,0],"sum_hessian":[2.9E1,8E0,2.1E1,1.4E1,7E0,9E0,5E0],"tree_param":{"num_deleted":"0","num_feature":"17","num_nodes":"7","size_leaf_vector":"1"}},{"base_weights":[-5.1099557E-1,1.9650038E-1,-1.6951981E-1,6.831642E-2,-4.2849684E-1,1.788848E-2,-6.8513386E-2],"categories":[],"categories_nodes":[],"categories_segments":[],"categories_sizes":[],"default_left":[0,0,0,0,0,0,0],"id":68,"left_children":[1,3,-1,-1,5,-1,-1],"loss_changes":[6.2100525E1,1.8957733E1,0E0,0E0,1.3179699E1,0E0,0E0],"parents":[2147483647,0,0,1,1,4,4],"right_children":[2,4,-1,-1,6,-1,-1],"split_conditions":[3.8E1,2.4714285E1,-1.6951981E-1,6.831642E-2,2E1,1.788848E-2,-6.8513386E-2],"split_indices":[14,16,0,0,14,0,0],"split_type":[0,0,0,0,0,0,0],"sum_hessian":[2.9E1,2.4E1,5E0,8E0,1.6E1,9E0,7E0],"tree_param":{"num_deleted":"0","num_feature":"17","num_nodes":"7","size_leaf_vector":"1"}},{"base_weights":[-2.6694927E-1,-7.982691E-1,7.2169416E-2,-3.2393914E-1,-7.754218E-2,-5.9851665E-2,2.9057315E-2],"categories":[],"categories_nodes":[],"categories_segments":[],"categories_sizes":[],"default_left":[0,0,0,0,0,0,0],"id":69,"left_children":[1,3,-1,5,-1,-1,-1],"loss_changes":[2.2897373E1,6.0925465E0,0E0,1.1030161E1,0E0,0E0,0E0],"parents":[2147483647,0,0,1,1,3,3],"right_children":[2,4,-1,6,-1,-1,-1],"split_conditions":[6E0,5E0,7.2169416E-2,3E0,-7.754218E-2,-5.9851665E-2,2.9057315E-2],"split_indices":[0,3,0,0,0,0,0],"split_type":[0,0,0,0,0,0,0],"sum_hessian":[2.3E1,1.8E1,5E0,1.2E1,6E0,6E0,6E0],"tree_param":{"num_deleted":"0","num_feature":"17","num_nodes":"7","size_leaf_vector":"1"}},{"base_weights":[-1.6242498E-1,8.2681455E-2,-7.041199E-1,4.169005E-2,-1.2790136E0,-1.0257224E-1,-4.4443025E-3],"categories":[],"categories_nodes":[],"categories_segments":[],"categories_sizes":[],"default_left":[0,0,0,0,0,0,0],"id":70,"left_children":[1,-1,3,-1,5,-1,-1],"loss_changes":[2.5663084E1,0E0,1.8793787E1,0E0,1.3392998E1,0E0,0E0],"parents":[2147483647,0,0,2,2,4,4],"right_children":[2,-1,4,-1,6,-1,-1],"split_conditions":[9E0,8.2681455E-2,2.4428572E1,4.169005E-2,2E1,-1.0257224E-1,-4.4443025E-3],"split_indices":[2,0,16,0,2,0,0],"split_type":[0,0,0,0,0,0,0],"sum_hessian":[2.4E1,5E0,1.9E1,5E0,1.4E1,8E0,6E0],"tree_param":{"num_deleted":"0","num_feature":"17","num_nodes":"7","size_leaf_vector":"1"}},{"base_weights":[3.098287E-1,-6.9629556E-1,1.633842E0,-1.3689773E-1,-7.945713E-2,1.5767264E-1,4.1813334E-3,1.857122E-2,-3.1953514E-2],"categories":[],"categories_nodes":[],"categories_segments":[],"categories_sizes":[],"default_left":[0,0,0,0,0,0,0,0,0],"id":71,"left_children":[1,3,5,7,-1,-1,-1,-1,-1],"loss_changes":[3.719868E1,7.601151E0,2.768127E1,3.0720506E0,0E0,0E0,0E0,0E0,0E0],"parents":[2147483647,0,0,1,1,2,2,3,3],"right_children":[2,4,6,8,-1,-1,-1,-1,-1],"split_conditions":[2E1,2.9E1,1.9E1,1.8E1,-7.945713E-2,1.5767264E-1,4.1813334E-3,1.857122E-2,-3.1953514E-2],"split_indices":[15,14,2,2,0,0,0,0,0],"split_type":[0,0,0,0,0,0,0,0,0],"sum_hessian":[2.6E1,1.5E1,1.1E1,1E1,5E0,5E0,6E0,5E0,5E0],"tree_param":{"num_deleted":"0","num_feature":"17","num_nodes":"9","size_leaf_vector":"1"}},{"base_weights":[-6.495343E-2,8.28177E-2,-7.5522876E-1,-7.759982E-2,-9.941556E-2,-3.0288368E-2,3.554591E-2],"categories":[],"categories_nodes":[],"categories_segments":[],"categories_sizes":[],"default_left":[0,0,0,0,0,0,0],"id":72,"left_children":[1,-1,3,5,-1,-1,-1],"loss_changes":[3.3241573E1,0E0,1.6350563E1,6.250711E0,0E0,0E0,0E0],"parents":[2147483647,0,0,2,2,3,3],"right_children":[2,-1,4,6,-1,-1,-1],"split_conditions":[9E0,8.28177E-2,2.5428572E1,2.2E1,-9.941556E-2,-3.0288368E-2,3.554591E-2],"split_indices":[2,0,16,2,0,0,0],"split_type":[0,0,0,0,0,0,0],"sum_hessian":[2.6E1,7E0,1.9E1,1.3E1,6E0,8E0,5E0],"tree_param":{"num_deleted":"0","num_feature":"17","num_nodes":"7","size_leaf_vector":"1"}},{"base_weights":[-4.4632727E-1,2.8021485E-1,-1.01887815E-1,-5.791329E-1,8.6381875E-2,-6.1273582E-2,2.1659606E-3],"categories":[],"categories_nodes":[],"categories_segments":[],"categories_sizes":[],"default_left":[0,0,0,0,0,0,0],"id":73,"left_children":[1,3,-1,5,-1,-1,-1],"loss_changes":[2.965277E1,2.350449E1,0E0,4.99908E0,0E0,0E0,0E0],"parents":[2147483647,0,0,1,1,3,3],"right_children":[2,4,-1,6,-1,-1,-1],"split_conditions":[2.6428572E1,1E0,-1.01887815E-1,1.8E1,8.6381875E-2,-6.1273582E-2,2.1659606E-3],"split_indices":[16,1,0,2,0,0,0],"split_type":[0,0,0,0,0,0,0],"sum_hessian":[2.4E1,1.7E1,7E0,1.1E1,6E0,5E0,6E0],"tree_param":{"num_deleted":"0","num_feature":"17","num_nodes":"7","size_leaf_vector":"1"}},{"base_weights":[1.3405524E-1,1.3713278E-1,-8.462983E-1,2.3045146E-3,-7.783053E-2],"categories":[],"categories_nodes":[],"categories_segments":[],"categories_sizes":[],"default_left":[0,0,0,0,0],"id":74,"left_children":[1,-1,3,-1,-1],"loss_changes":[5.62151E1,0E0,1.0364791E1,0E0,0E0],"parents":[2147483647,0,0,2,2],"right_children":[2,-1,4,-1,-1],"split_conditions":[9E0,1.3713278E-1,1.8E1,2.3045146E-3,-7.783053E-2],"split_indices":[2,0,15,0,0],"split_type":[0,0,0,0,0],"sum_hessian":[2E1,5E0,1.5E1,7E0,8E0],"tree_param":{"num_deleted":"0","num_feature":"17","num_nodes":"5","size_leaf_vector":"1"}},{"base_weights":[-4.6217188E-1,2.6328215E-2,-8.889946E-1,-3.0431068E-1,-9.585387E-2,-1.9227896E-3,-3.1785395E-2],"categories":[],"categories_nodes":[],"categories_segments":[],"categories_sizes":[],"default_left":[0,0,0,0,0,0,0],"id":75,"left_children":[1,-1,3,5,-1,-1,-1],"loss_changes":[1.2320777E1,0E0,1.1216545E1,1.141587E0,0E0,0E0,0E0],"parents":[2147483647,0,0,2,2,3,3],"right_children":[2,-1,4,6,-1,-1,-1],"split_conditions":[2.4714285E1,2.6328215E-2,5E0,2.5428572E1,-9.585387E-2,-1.9227896E-3,-3.1785395E-2],"split_indices":[16,0,3,16,0,0,0],"split_type":[0,0,0,0,0,0,0],"sum_hessian":[2.7E1,8E0,1.9E1,1.3E1,6E0,8E0,5E0],"tree_param":{"num_deleted":"0","num_feature":"17","num_nodes":"7","size_leaf_vector":"1"}},{"base_weights":[4.8013723E-1,1.3958701E0,-6.421895E-2,2.9711172E-3,1.6869858E-1],"categories":[],"categories_nodes":[],"categories_segments":[],"categories_sizes":[],"default_left":[0,0,0,0,0],"id":76,"left_children":[1,3,-1,-1,-1],"loss_changes":[3.7352135E1,3.911061E1,0E0,0E0,0E0],"parents":[2147483647,0,0,1,1],"right_children":[2,4,-1,-1,-1],"split_conditions":[2.6714285E1,2E1,-6.421895E-2,2.9711172E-3,1.6869858E-1],"split_indices":[16,15,0,0,0],"split_type":[0,0,0,0,0],"sum_hessian":[2.1E1,1.4E1,7E0,9E0,5E0],"tree_param":{"num_deleted":"0","num_feature":"17","num_nodes":"5","size_leaf_vector":"1"}},{"base_weights":[8.102701E-2,5.146386E-1,-7.167257E-2,6.281441E-2,4.693606E-2,-4.0895753E-2,6.765284E-2],"categories":[],"categories_nodes":[],"categories_segments":[],"categories_sizes":[],"default_left":[0,0,0,0,0,0,0],"id":77,"left_children":[1,3,-1,-1,5,-1,-1],"loss_changes":[1.7719908E1,7.0950117E0,0E0,0E0,1.6974596E1,0E0,0E0],"parents":[2147483647,0,0,1,1,4,4],"right_children":[2,4,-1,-1,6,-1,-1],"split_conditions":[4E1,1.9E1,-7.167257E-2,6.281441E-2,1.8E1,-4.0895753E-2,6.765284E-2],"split_indices":[14,14,0,0,2,0,0],"split_type":[0,0,0,0,0,0,0],"sum_hessian":[2.5E1,2E1,5E0,7E0,1.3E1,8E0,5E0],"tree_param":{"num_deleted":"0","num_feature":"17","num_nodes":"7","size_leaf_vector":"1"}},{"base_weights":[-3.7771145E-1,1.6277793E-1,-7.457687E-2,-2.6170048E-1,4.1042358E-2,-2.300286E-2,-1.5302021E-4],"categories":[],"categories_nodes":[],"categories_segments":[],"categories_sizes":[],"default_left":[0,0,0,0,0,0,0],"id":78,"left_children":[1,3,-1,5,-1,-1,-1],"loss_changes":[1.4823931E1,5.0194454E0,0E0,5.166131E-1,0E0,0E0,0E0],"parents":[2147483647,0,0,1,1,3,3],"right_children":[2,4,-1,6,-1,-1,-1],"split_conditions":[2.9E1,1.8E1,-7.457687E-2,2.2E1,4.1042358E-2,-2.300286E-2,-1.5302021E-4],"split_indices":[15,2,0,14,0,0,0],"split_type":[0,0,0,0,0,0,0],"sum_hessian":[2.3E1,1.6E1,7E0,1E1,6E0,5E0,5E0],"tree_param":{"num_deleted":"0","num_feature":"17","num_nodes":"7","size_leaf_vector":"1"}},{"base_weights":[3.7791133E-2,9.244016E-2,-6.17931E-1,-1.0317345E-1,-9.783779E-2,-4.758013E-2,4.7887985E-2],"categories":[],"categories_nodes":[],"categories_segments":[],"categories_sizes":[],"default_left":[0,0,0,0,0,0,0],"id":79,"left_children":[1,-1,3,5,-1,-1,-1],"loss_changes":[3.5703625E1,0E0,1.4753867E1,1.6212942E1,0E0,0E0,0E0],"parents":[2147483647,0,0,2,2,3,3],"right_children":[2,-1,4,6,-1,-1,-1],"split_conditions":[9E0,9.244016E-2,3.3E1,3E0,-9.783779E-2,-4.758013E-2,4.7887985E-2],"split_indices":[2,0,15,0,0,0,0],"split_type":[0,0,0,0,0,0,0],"sum_hessian":[2.8E1,7E0,2.1E1,1.6E1,5E0,9E0,7E0],"tree_param":{"num_deleted":"0","num_feature":"17","num_nodes":"7","size_leaf_vector":"1"}},{"base_weights":[7.4601226E-2,-5.946585E-1,1.21062174E-1,3.0807763E-2,-1.5624485E0,-3.9695267E-2,-1.09100364E-1],"categories":[],"categories_nodes":[],"categories_segments":[],"categories_sizes":[],"default_left":[0,0,0,0,0,0,0],"id":80,"left_children":[1,3,-1,-1,5,-1,-1],"loss_changes":[4.2455814E1,2.5665422E1,0E0,0E0,3.6839962E0,0E0,0E0],"parents":[2147483647,0,0,1,1,4,4],"right_children":[2,4,-1,-1,6,-1,-1],"split_conditions":[3.6E1,2E1,1.21062174E-1,3.0807763E-2,2.9E1,-3.9695267E-2,-1.09100364E-1],"split_indices":[15,14,0,0,14,0,0],"split_type":[0,0,0,0,0,0,0],"sum_hessian":[2.5E1,2E1,5E0,9E0,1.1E1,6E0,5E0],"tree_param":{"num_deleted":"0","num_feature":"17","num_nodes":"7","size_leaf_vector":"1"}},{"base_weights":[1.3836041E-1,-2.0374851E-1,7.216923E-2,1.9918422E-1,-6.976277E-2,-1.9729778E-2,4.2395957E-2],"categories":[],"categories_nodes":[],"categories_segments":[],"categories_sizes":[],"default_left":[0,0,0,0,0,0,0],"id":81,"left_children":[1,3,-1,5,-1,-1,-1],"loss_changes":[1.29189415E1,1.1439753E1,0E0,7.313619E0,0E0,0E0,0E0],"parents":[2147483647,0,0,1,1,3,3],"right_children":[2,4,-1,6,-1,-1,-1],"split_conditions":[6E0,2.7666666E1,7.216923E-2,2E1,-6.976277E-2,-1.9729778E-2,4.2395957E-2],"split_indices":[0,16,0,15,0,0,0],"split_type":[0,0,0,0,0,0,0],"sum_hessian":[2.7E1,2.2E1,5E0,1.7E1,5E0,9E0,8E0],"tree_param":{"num_deleted":"0","num_feature":"17","num_nodes":"7","size_leaf_vector":"1"}},{"base_weights":[-1.4318201E-1,7.81907E-2,-7.698025E-1,8.076069E-3,-8.170731E-2],"categories":[],"categories_nodes":[],"categories_segments":[],"categories_sizes":[],"default_left":[0,0,0,0,0],"id":82,"left_children":[1,-1,3,-1,-1],"loss_changes":[2.786539E1,0E0,1.5705905E1,0E0,0E0],"parents":[2147483647,0,0,2,2],"right_children":[2,-1,4,-1,-1],"split_conditions":[9E0,7.81907E-2,1.8E1,8.076069E-3,-8.170731E-2],"split_indices":[2,0,15,0,0],"split_type":[0,0,0,0,0],"sum_hessian":[2.4E1,6E0,1.8E1,9E0,9E0],"tree_param":{"num_deleted":"0","num_feature":"17","num_nodes":"5","size_leaf_vector":"1"}},{"base_weights":[4.857183E-2,-5.0961554E-1,1.1449464E-1,-9.393664E-1,3.2698736E-2,-1.166104E-1,7.4957605E-3],"categories":[],"categories_nodes":[],"categories_segments":[],"categories_sizes":[],"default_left":[0,0,0,0,0,0,0],"id":83,"left_children":[1,3,-1,5,-1,-1,-1],"loss_changes":[3.762622E1,1.26441555E1,0E0,2.78774E1,0E0,0E0,0E0],"parents":[2147483647,0,0,1,1,3,3],"right_children":[2,4,-1,6,-1,-1,-1],"split_conditions":[3.6E1,2.7285715E1,1.1449464E-1,2E1,3.2698736E-2,-1.166104E-1,7.4957605E-3],"split_indices":[15,16,0,2,0,0,0],"split_type":[0,0,0,0,0,0,0],"sum_hessian":[2.8E1,2.3E1,5E0,1.7E1,6E0,7E0,1E1],"tree_param":{"num_deleted":"0","num_feature":"17","num_nodes":"7","size_leaf_vector":"1"}},{"base_weights":[9.03649E-3,-3.8033912E-1,8.232977E-2,-8.616143E-2,3.6544677E-2,5.1303394E-2,-1.7751712E-2],"categories":[],"categories_nodes":[],"categories_segments":[],"categories_sizes":[],"default_left":[0,0,0,0,0,0,0],"id":84,"left_children":[1,3,-1,-1,5,-1,-1],"loss_changes":[1.9881655E1,1.4227364E1,0E0,0E0,8.18092E0,0E0,0E0],"parents":[2147483647,0,0,1,1,4,4],"right_children":[2,4,-1,-1,6,-1,-1],"split_conditions":[3.6E1,8E0,8.232977E-2,-8.616143E-2,1.4E1,5.1303394E-2,-1.7751712E-2],"split_indices":[15,2,0,0,2,0,0],"split_type":[0,0,0,0,0,0,0],"sum_hessian":[2.9E1,2.4E1,5E0,5E0,1.9E1,5E0,1.4E1],"tree_param":{"num_deleted":"0","num_feature":"17","num_nodes":"7","size_leaf_vector":"1"}},{"base_weights":[6.556884E-1,1.2719671E-1,-6.9227844E-2,8.2833934E-1,-5.848368E-2,1.6803458E-2,5.8294315E-2],"categories":[],"categories_nodes":[],"categories_segments":[],"categories_sizes":[],"default_left":[0,0,0,0,0,0,0],"id":85,"left_children":[1,-1,3,5,-1,-1,-1],"loss_changes":[3.464408E1,0E0,1.9769775E1,1.2857938E0,0E0,0E0,0E0],"parents":[2147483647,0,0,2,2,3,3],"right_children":[2,-1,4,6,-1,-1,-1],"split_conditions":[9E0,1.2719671E-1,2.5E1,2E1,-5.848368E-2,1.6803458E-2,5.8294315E-2],"split_indices":[2,0,16,14,0,0,0],"split_type":[0,0,0,0,0,0,0],"sum_hessian":[2.4E1,6E0,1.8E1,1E1,8E0,5E0,5E0],"tree_param":{"num_deleted":"0","num_feature":"17","num_nodes":"7","size_leaf_vector":"1"}},{"base_weights":[7.3201224E-2,6.8535976E-2,-3.2053044E-1,-8.594813E-1,6.665386E-2,-1.204337E-1,5.3752284E-3],"categories":[],"categories_nodes":[],"categories_segments":[],"categories_sizes":[],"default_left":[0,0,0,0,0,0,0],"id":86,"left_children":[1,-1,3,5,-1,-1,-1],"loss_changes":[1.5359721E1,0E0,2.15963E1,2.7453915E1,0E0,0E0,0E0],"parents":[2147483647,0,0,2,2,3,3],"right_children":[2,-1,4,6,-1,-1,-1],"split_conditions":[1.9E1,6.8535976E-2,6E0,1E1,6.665386E-2,-1.204337E-1,5.3752284E-3],"split_indices":[14,0,0,2,0,0,0],"split_type":[0,0,0,0,0,0,0],"sum_hessian":[2.8E1,6E0,2.2E1,1.7E1,5E0,6E0,1.1E1],"tree_param":{"num_deleted":"0","num_feature":"17","num_nodes":"7","size_leaf_vector":"1"}},{"base_weights":[-1.8042623E-1,-5.2711916E-1,6.38766E-2,5.427887E-2,-1.1969631E-1,3.554219E-2,-1.0264951E-2],"categories":[],"categories_nodes":[],"categories_segments":[],"categories_sizes":[],"default_left":[0,0,0,0,0,0,0],"id":87,"left_children":[1,3,-1,5,-1,-1,-1],"loss_changes":[1.5762285E1,2.7497852E1,0E0,3.6050847E0,0E0,0E0,0E0],"parents":[2147483647,0,0,1,1,3,3],"right_children":[2,4,-1,6,-1,-1,-1],"split_conditions":[6E0,3.3E1,6.38766E-2,2.4428572E1,-1.1969631E-1,3.554219E-2,-1.0264951E-2],"split_indices":[0,14,0,16,0,0,0],"split_type":[0,0,0,0,0,0,0],"sum_hessian":[2.9E1,2.4E1,5E0,1.9E1,5E0,5E0,1.4E1],"tree_param":{"num_deleted":"0","num_feature":"17","num_nodes":"7","size_leaf_vector":"1"}},{"base_weights":[-7.016444E-1,2.5168914E-2,-1.0505124E0,-4.2881826E-1,-1.15469E-1,-6.666206E-2,4.9130954E-2],"categories":[],"categories_nodes":[],"categories_segments":[],"categories_sizes":[],"default_left":[0,0,0,0,0,0,0],"id":88,"left_children":[1,-1,3,5,-1,-1,-1],"loss_changes":[1.0672971E1,0E0,1.3605858E1,1.9216637E1,0E0,0E0,0E0],"parents":[2147483647,0,0,2,2,3,3],"right_children":[2,-1,4,6,-1,-1,-1],"split_conditions":[2.4571428E1,2.5168914E-2,3E1,3E0,-1.15469E-1,-6.666206E-2,4.9130954E-2],"split_indices":[16,0,15,0,0,0,0],"split_type":[0,0,0,0,0,0,0],"sum_hessian":[2.3E1,5E0,1.8E1,1.3E1,5E0,8E0,5E0],"tree_param":{"num_deleted":"0","num_feature":"17","num_nodes":"7","size_leaf_vector":"1"}},{"base_weights":[-5.950347E-1,2.7052063E-2,-9.111058E-1,-1.491908E-2,-8.078632E-2],"categories":[],"categories_nodes":[],"categories_segments":[],"categories_sizes":[],"default_left":[0,0,0,0,0],"id":89,"left_children":[1,-1,3,-1,-1],"loss_changes":[9.506971E0,0E0,7.9612446E0,0E0,0E0],"parents":[2147483647,0,0,2,2],"right_children":[2,-1,4,-1,-1],"split_conditions":[7E0,2.7052063E-2,2.7E1,-1.491908E-2,-8.078632E-2],"split_indices":[2,0,14,0,0],"split_type":[0,0,0,0,0],"sum_hessian":[2.4E1,5E0,1.9E1,1.1E1,8E0],"tree_param":{"num_deleted":"0","num_feature":"17","num_nodes":"5","size_leaf_vector":"1"}},{"base_weights":[-3.6888975E-1,7.3064744E-2,-9.326907E-1,-2.9808196E-1,-1.1206646E-1,-3.6190715E-2,1.8676506E-2],"categories":[],"categories_nodes":[],"categories_segments":[],"categories_sizes":[],"default_left":[0,0,0,0,0,0,0],"id":90,"left_children":[1,-1,3,5,-1,-1,-1],"loss_changes":[2.607471E1,0E0,1.48569565E1,4.3083725E0,0E0,0E0,0E0],"parents":[2147483647,0,0,2,2,3,3],"right_children":[2,-1,4,6,-1,-1,-1],"split_conditions":[9E0,7.3064744E-2,2.7E1,3E0,-1.1206646E-1,-3.6190715E-2,1.8676506E-2],"split_indices":[2,0,15,0,0,0,0],"split_type":[0,0,0,0,0,0,0],"sum_hessian":[2.3E1,5E0,1.8E1,1.3E1,5E0,8E0,5E0],"tree_param":{"num_deleted":"0","num_feature":"17","num_nodes":"7","size_leaf_vector":"1"}},{"base_weights":[-5.954535E-2,5.49036E-1,-7.549915E-2,-3.1812018E-1,8.968204E-2,-9.4720564E-4,-2.9873613E-2],"categories":[],"categories_nodes":[],"categories_segments":[],"categories_sizes":[],"default_left":[0,0,0,0,0,0,0],"id":91,"left_children":[1,3,-1,5,-1,-1,-1],"loss_changes":[2.3875574E1,2.1224215E1,0E0,9.2994535E-1,0E0,0E0,0E0],"parents":[2147483647,0,0,1,1,3,3],"right_children":[2,4,-1,6,-1,-1,-1],"split_conditions":[2.6714285E1,1E0,-7.549915E-2,2E1,8.968204E-2,-9.4720564E-4,-2.9873613E-2],"split_indices":[16,1,0,14,0,0,0],"split_type":[0,0,0,0,0,0,0],"sum_hessian":[2.5E1,1.8E1,7E0,1.1E1,7E0,6E0,5E0],"tree_param":{"num_deleted":"0","num_feature":"17","num_nodes":"7","size_leaf_vector":"1"}},{"base_weights":[2.0256594E-1,8.044841E-2,-4.281999E-1,2.2598548E-1,-8.954508E-2,-2.4092272E-2,5.7438124E-2],"categories":[],"categories_nodes":[],"categories_segments":[],"categories_sizes":[],"default_left":[0,0,0,0,0,0,0],"id":92,"left_children":[1,-1,3,5,-1,-1,-1],"loss_changes":[2.29848E1,0E0,1.6607481E1,9.111429E0,0E0,0E0,0E0],"parents":[2147483647,0,0,2,2,3,3],"right_children":[2,-1,4,6,-1,-1,-1],"split_conditions":[9E0,8.044841E-2,3.3E1,2.4E1,-8.954508E-2,-2.4092272E-2,5.7438124E-2],"split_indices":[2,0,15,14,0,0,0],"split_type":[0,0,0,0,0,0,0],"sum_hessian":[2.4E1,7E0,1.7E1,1.2E1,5E0,7E0,5E0],"tree_param":{"num_deleted":"0","num_feature":"17","num_nodes":"7","size_leaf_vector":"1"}},{"base_weights":[2.7840756E-2,7.3450476E-1,-6.882337E-2,-2.3463184E-1,1.2027522E-1,-5.0560813E-2,2.821956E-2],"categories":[],"categories_nodes":[],"categories_segments":[],"categories_sizes":[],"default_left":[0,0,0,0,0,0,0],"id":93,"left_children":[1,3,-1,5,-1,-1,-1],"loss_changes":[2.377143E1,2.6692324E1,0E0,7.4410005E0,0E0,0E0,0E0],"parents":[2147483647,0,0,1,1,3,3],"right_children":[2,4,-1,6,-1,-1,-1],"split_conditions":[2.6714285E1,2.4857143E1,-6.882337E-2,5E0,1.2027522E-1,-5.0560813E-2,2.821956E-2],"split_indices":[16,16,0,0,0,0,0],"split_type":[0,0,0,0,0,0,0],"sum_hessian":[2.2E1,1.5E1,7E0,1E1,5E0,5E0,5E0],"tree_param":{"num_deleted":"0","num_feature":"17","num_nodes":"7","size_leaf_vector":"1"}},{"base_weights":[-2.1886025E-1,4.1738965E-2,-7.1169686E-1,1.797451E-2,-1.5325139E0,-2.7712E-2,-1.119351E-1],"categories":[],"categories_nodes":[],"categories_segments":[],"categories_sizes":[],"default_left":[0,0,0,0,0,0,0],"id":94,"left_children":[1,-1,3,-1,5,-1,-1],"loss_changes":[1.4602149E1,0E0,1.7373947E1,0E0,6.0792313E0,0E0,0E0],"parents":[2147483647,0,0,2,2,4,4],"right_children":[2,-1,4,-1,6,-1,-1],"split_conditions":[9E0,4.1738965E-2,1.8E1,1.797451E-2,2.7E1,-2.7712E-2,-1.119351E-1],"split_indices":[2,0,15,0,14,0,0],"split_type":[0,0,0,0,0,0,0],"sum_hessian":[2.6E1,8E0,1.8E1,8E0,1E1,5E0,5E0],"tree_param":{"num_deleted":"0","num_feature":"17","num_nodes":"7","size_leaf_vector":"1"}},{"base_weights":[-6.0940243E-2,-4.366775E-1,6.86438E-2,7.098974E-1,-1.380958E0,-0E0,6.5854914E-2,-1.3693662E-1,-8.875378E-3],"categories":[],"categories_nodes":[],"categories_segments":[],"categories_sizes":[],"default_left":[0,0,0,0,0,0,0,0,0],"id":95,"left_children":[1,3,-1,5,7,-1,-1,-1,-1],"loss_changes":[1.5590552E1,2.5949276E1,0E0,4.8649883E0,2.046441E1,0E0,0E0,0E0,0E0],"parents":[2147483647,0,0,1,1,3,3,4,4],"right_children":[2,4,-1,6,8,-1,-1,-1,-1],"split_conditions":[6E0,2E1,6.86438E-2,2.4857143E1,1E1,-0E0,6.5854914E-2,-1.3693662E-1,-8.875378E-3],"split_indices":[0,14,0,16,2,0,0,0,0],"split_type":[0,0,0,0,0,0,0,0,0],"sum_hessian":[2.7E1,2.2E1,5E0,1E1,1.2E1,5E0,5E0,5E0,7E0],"tree_param":{"num_deleted":"0","num_feature":"17","num_nodes":"9","size_leaf_vector":"1"}},{"base_weights":[-1.2999757E-1,-5.0582445E-1,6.578358E-2,3.28159E-2,-1.0270541E-1,1.981015E-2,-2.9026782E-2],"categories":[],"categories_nodes":[],"categories_segments":[],"categories_sizes":[],"default_left":[0,0,0,0,0,0,0],"id":96,"left_children":[1,3,-1,5,-1,-1,-1],"loss_changes":[1.579751E1,1.9450802E1,0E0,4.2234893E0,0E0,0E0,0E0],"parents":[2147483647,0,0,1,1,3,3],"right_children":[2,4,-1,6,-1,-1,-1],"split_conditions":[6E0,3.3E1,6.578358E-2,2.2E1,-1.0270541E-1,1.981015E-2,-2.9026782E-2],"split_indices":[0,14,0,2,0,0,0],"split_type":[0,0,0,0,0,0,0],"sum_hessian":[2.7E1,2.2E1,5E0,1.7E1,5E0,1.1E1,6E0],"tree_param":{"num_deleted":"0","num_feature":"17","num_nodes":"7","size_leaf_vector":"1"}},{"base_weights":[1.6347067E-1,8.4761135E-2,-4.5240366E-1,4.2083003E-2,-8.1494324E-2,-3.345227E-2,4.8233237E-2],"categories":[],"categories_nodes":[],"categories_segments":[],"categories_sizes":[],"default_left":[0,0,0,0,0,0,0],"id":97,"left_children":[1,-1,3,5,-1,-1,-1],"loss_changes":[2.6362108E1,0E0,1.187236E1,1.0516078E1,0E0,0E0,0E0],"parents":[2147483647,0,0,2,2,3,3],"right_children":[2,-1,4,6,-1,-1,-1],"split_conditions":[9E0,8.4761135E-2,2.9E1,3E0,-8.1494324E-2,-3.345227E-2,4.8233237E-2],"split_indices":[2,0,15,0,0,0,0],"split_type":[0,0,0,0,0,0,0],"sum_hessian":[2.6E1,7E0,1.9E1,1.4E1,5E0,8E0,6E0],"tree_param":{"num_deleted":"0","num_feature":"17","num_nodes":"7","size_leaf_vector":"1"}},{"base_weights":[3.8706675E-2,7.6585285E-2,-5.384988E-1,-6.4609526E-3,-7.924156E-2,-1.918852E-2,1.3241437E-2],"categories":[],"categories_nodes":[],"categories_segments":[],"categories_sizes":[],"default_left":[0,0,0,0,0,0,0],"id":98,"left_children":[1,-1,3,5,-1,-1,-1],"loss_changes":[2.1606556E1,0E0,9.851023E0,1.4442096E0,0E0,0E0,0E0],"parents":[2147483647,0,0,2,2,3,3],"right_children":[2,-1,4,6,-1,-1,-1],"split_conditions":[9E0,7.6585285E-2,3.3E1,1.9E1,-7.924156E-2,-1.918852E-2,1.3241437E-2],"split_indices":[2,0,14,14,0,0,0],"split_type":[0,0,0,0,0,0,0],"sum_hessian":[2.3E1,6E0,1.7E1,1.2E1,5E0,5E0,7E0],"tree_param":{"num_deleted":"0","num_feature":"17","num_nodes":"7","size_leaf_vector":"1"}},{"base_weights":[1.7751138E-1,-4.082505E-1,6.702114E-2,2.9663062E-2,-6.39393E-2],"categories":[],"categories_nodes":[],"categories_segments":[],"categories_sizes":[],"default_left":[0,0,0,0,0],"id":99,"left_children":[1,3,-1,-1,-1],"loss_changes":[1.8351364E1,1.6520536E1,0E0,0E0,0E0],"parents":[2147483647,0,0,1,1],"right_children":[2,4,-1,-1,-1],"split_conditions":[5E0,2E1,6.702114E-2,2.9663062E-2,-6.39393E-2],"split_indices":[0,14,0,0,0],"split_type":[0,0,0,0,0],"sum_hessian":[2.5E1,1.7E1,8E0,8E0,9E0],"tree_param":{"num_deleted":"0","num_feature":"17","num_nodes":"5","size_leaf_vector":"1"}},{"base_weights":[-2.8453183E-1,-7.506193E-1,5.700462E-2,-8.712522E-2,-3.2549873E-1,-3.2069188E-2,1.4560345E-2],"categories":[],"categories_nodes":[],"categories_segments":[],"categories_sizes":[],"default_left":[0,0,0,0,0,0,0],"id":100,"left_children":[1,3,-1,-1,5,-1,-1],"loss_changes":[1.8744816E1,8.081101E0,0E0,0E0,3.338722E0,0E0,0E0],"parents":[2147483647,0,0,1,1,4,4],"right_children":[2,4,-1,-1,6,-1,-1],"split_conditions":[3.6E1,8E0,5.700462E-2,-8.712522E-2,2.3E1,-3.2069188E-2,1.4560345E-2],"split_indices":[15,2,0,0,2,0,0],"split_type":[0,0,0,0,0,0,0],"sum_hessian":[2.6E1,2E1,6E0,5E0,1.5E1,1E1,5E0],"tree_param":{"num_deleted":"0","num_feature":"17","num_nodes":"7","size_leaf_vector":"1"}},{"base_weights":[9.305383E-2,6.0529646E-2,-2.6221102E-1,3.6219028E-1,-1.0021565E-1,-3.8153478E-3,4.38769E-2],"categories":[],"categories_nodes":[],"categories_segments":[],"categories_sizes":[],"default_left":[0,0,0,0,0,0,0],"id":101,"left_children":[1,-1,3,5,-1,-1,-1],"loss_changes":[1.1528894E1,0E0,2.482111E1,3.9887207E0,0E0,0E0,0E0],"parents":[2147483647,0,0,2,2,3,3],"right_children":[2,-1,4,6,-1,-1,-1],"split_conditions":[9E0,6.0529646E-2,2.9E1,3E0,-1.0021565E-1,-3.8153478E-3,4.38769E-2],"split_indices":[2,0,15,0,0,0,0],"split_type":[0,0,0,0,0,0,0],"sum_hessian":[2.7E1,6E0,2.1E1,1.6E1,5E0,9E0,7E0],"tree_param":{"num_deleted":"0","num_feature":"17","num_nodes":"7","size_leaf_vector":"1"}},{"base_weights":[2.1647096E-1,7.6710455E-2,-2.469367E-1,1.9463938E-1,-7.7358775E-2,-1.3854692E-2,4.949025E-2],"categories":[],"categories_nodes":[],"categories_segments":[],"categories_sizes":[],"default_left":[0,0,0,0,0,0,0],"id":102,"left_children":[1,-1,3,5,-1,-1,-1],"loss_changes":[1.8827078E1,0E0,1.3641945E1,7.0974483E0,0E0,0E0,0E0],"parents":[2147483647,0,0,2,2,3,3],"right_children":[2,-1,4,6,-1,-1,-1],"split_conditions":[9E0,7.6710455E-2,3.3E1,2.4E1,-7.7358775E-2,-1.3854692E-2,4.949025E-2],"split_indices":[2,0,15,14,0,0,0],"split_type":[0,0,0,0,0,0,0],"sum_hessian":[2.9E1,7E0,2.2E1,1.7E1,5E0,1.1E1,6E0],"tree_param":{"num_deleted":"0","num_feature":"17","num_nodes":"7","size_leaf_vector":"1"}},{"base_weights":[-9.724435E-2,-5.581873E-1,5.7674643E-2,-1.0153322E0,2.9242432E-2,-1.8139286E-2,-6.632187E-2],"categories":[],"categories_nodes":[],"categories_segments":[],"categories_sizes":[],"default_left":[0,0,0,0,0,0,0],"id":103,"left_children":[1,3,-1,5,-1,-1,-1],"loss_changes":[1.4997295E1,1.0564993E1,0E0,2.1920147E0,0E0,0E0,0E0],"parents":[2147483647,0,0,1,1,3,3],"right_children":[2,4,-1,6,-1,-1,-1],"split_conditions":[3.6E1,2.7285715E1,5.7674643E-2,2.4714285E1,2.9242432E-2,-1.8139286E-2,-6.632187E-2],"split_indices":[15,16,0,16,0,0,0],"split_type":[0,0,0,0,0,0,0],"sum_hessian":[2.4E1,1.8E1,6E0,1.3E1,5E0,5E0,8E0],"tree_param":{"num_deleted":"0","num_feature":"17","num_nodes":"7","size_leaf_vector":"1"}},{"base_weights":[1.2629552E-1,5.534325E-1,-5.1841643E-2,-3.021059E-2,9.198472E-2,-1.4335296E-2,1.7145041E-2],"categories":[],"categories_nodes":[],"categories_segments":[],"categories_sizes":[],"default_left":[0,0,0,0,0,0,0],"id":104,"left_children":[1,3,-1,5,-1,-1,-1],"loss_changes":[1.2945858E1,1.4500166E1,0E0,1.4325109E0,0E0,0E0,0E0],"parents":[2147483647,0,0,1,1,3,3],"right_children":[2,4,-1,6,-1,-1,-1],"split_conditions":[3.3E1,2E1,-5.1841643E-2,2.4E1,9.198472E-2,-1.4335296E-2,1.7145041E-2],"split_indices":[15,15,0,14,0,0,0],"split_type":[0,0,0,0,0,0,0],"sum_hessian":[2.4E1,1.8E1,6E0,1.3E1,5E0,8E0,5E0],"tree_param":{"num_deleted":"0","num_feature":"17","num_nodes":"7","size_leaf_vector":"1"}},{"base_weights":[-1.26867E-1,1.4975016E-1,-4.9619853E-2,-1.069974E-1,4.3445494E-2,1.8454475E-2,-2.911534E-2],"categories":[],"categories_nodes":[],"categories_segments":[],"categories_sizes":[],"default_left":[0,0,0,0,0,0,0],"id":105,"left_children":[1,3,-1,5,-1,-1,-1],"loss_changes":[6.93665E0,4.2312975E0,0E0,4.083151E0,0E0,0E0,0E0],"parents":[2147483647,0,0,1,1,3,3],"right_children":[2,4,-1,6,-1,-1,-1],"split_conditions":[3.3E1,4E0,-4.9619853E-2,1.8E1,4.3445494E-2,1.8454475E-2,-2.911534E-2],"split_indices":[15,0,0,15,0,0,0],"split_type":[0,0,0,0,0,0,0],"sum_hessian":[2.7E1,2.1E1,6E0,1.6E1,5E0,8E0,8E0],"tree_param":{"num_deleted":"0","num_feature":"17","num_nodes":"7","size_leaf_vector":"1"}},{"base_weights":[-1.4543347E-1,4.569118E-1,-1.2234258E-1,-6.886717E-2,7.319279E-2,1.3484666E-2,-3.473751E-2],"categories":[],"categories_nodes":[],"categories_segments":[],"categories_sizes":[],"default_left":[0,0,0,0,0,0,0],"id":106,"left_children":[1,3,-1,5,-1,-1,-1],"loss_changes":[4.0131943E1,1.24172E1,0E0,3.6202638E0,0E0,0E0,0E0],"parents":[2147483647,0,0,1,1,3,3],"right_children":[2,4,-1,6,-1,-1,-1],"split_conditions":[3.8E1,2.7E1,-1.2234258E-1,1.8E1,7.319279E-2,1.3484666E-2,-3.473751E-2],"split_indices":[14,15,0,15,0,0,0],"split_type":[0,0,0,0,0,0,0],"sum_hessian":[2.7E1,2.2E1,5E0,1.5E1,7E0,1E1,5E0],"tree_param":{"num_deleted":"0","num_feature":"17","num_nodes":"7","size_leaf_vector":"1"}},{"base_weights":[1.2529024E-1,9.812041E-2,-4.2710963E-1,3.5533383E-2,-8.6041325E-1,-8.935203E-2,-1.0419781E-2],"categories":[],"categories_nodes":[],"categories_segments":[],"categories_sizes":[],"default_left":[0,0,0,0,0,0,0],"id":107,"left_children":[1,-1,3,-1,5,-1,-1],"loss_changes":[2.6362288E1,0E0,1.0486504E1,0E0,8.490705E0,0E0,0E0],"parents":[2147483647,0,0,2,2,4,4],"right_children":[2,-1,4,-1,6,-1,-1],"split_conditions":[8E0,9.812041E-2,2.4571428E1,3.5533383E-2,2E1,-8.935203E-2,-1.0419781E-2],"split_indices":[2,0,16,0,2,0,0],"split_type":[0,0,0,0,0,0,0],"sum_hessian":[2.4E1,5E0,1.9E1,5E0,1.4E1,5E0,9E0],"tree_param":{"num_deleted":"0","num_feature":"17","num_nodes":"7","size_leaf_vector":"1"}},{"base_weights":[1.2548089E-1,-5.68261E-1,5.623607E-2,1.5674237E-2,-8.329393E-2],"categories":[],"categories_nodes":[],"categories_segments":[],"categories_sizes":[],"default_left":[0,0,0,0,0],"id":108,"left_children":[1,3,-1,-1,-1],"loss_changes":[1.5252296E1,1.32391205E1,0E0,0E0,0E0],"parents":[2147483647,0,0,1,1],"right_children":[2,4,-1,-1,-1],"split_conditions":[5E0,2.2E1,5.623607E-2,1.5674237E-2,-8.329393E-2],"split_indices":[0,14,0,0,0],"split_type":[0,0,0,0,0],"sum_hessian":[2E1,1.2E1,8E0,7E0,5E0],"tree_param":{"num_deleted":"0","num_feature":"17","num_nodes":"5","size_leaf_vector":"1"}},{"base_weights":[2.54476E-1,-5.8705795E-1,9.601899E-2,-9.194106E-2,2.8144939E-2,1.6493086E-2,-1.810841E-2],"categories":[],"categories_nodes":[],"categories_segments":[],"categories_sizes":[],"default_left":[0,0,0,0,0,0,0],"id":109,"left_children":[1,3,-1,-1,5,-1,-1],"loss_changes":[3.7710487E1,1.4094412E1,0E0,0E0,1.647167E0,0E0,0E0],"parents":[2147483647,0,0,1,1,4,4],"right_children":[2,4,-1,-1,6,-1,-1],"split_conditions":[1E0,8E0,9.601899E-2,-9.194106E-2,2.5142857E1,1.6493086E-2,-1.810841E-2],"split_indices":[1,2,0,0,16,0,0],"split_type":[0,0,0,0,0,0,0],"sum_hessian":[2.5E1,1.7E1,8E0,5E0,1.2E1,7E0,5E0],"tree_param":{"num_deleted":"0","num_feature":"17","num_nodes":"7","size_leaf_vector":"1"}},{"base_weights":[-3.1326783E-1,6.454825E-2,-8.315244E-2,-4.960529E-1,6.754934E-2,1.3014193E-2,-4.362977E-2],"categories":[],"categories_nodes":[],"categories_segments":[],"categories_sizes":[],"default_left":[0,0,0,0,0,0,0],"id":110,"left_children":[1,3,-1,5,-1,-1,-1],"loss_changes":[1.4036361E1,1.662159E1,0E0,4.8450403E0,0E0,0E0,0E0],"parents":[2147483647,0,0,1,1,3,3],"right_children":[2,4,-1,6,-1,-1,-1],"split_conditions":[3.3E1,4E0,-8.315244E-2,2.475E1,6.754934E-2,1.3014193E-2,-4.362977E-2],"split_indices":[15,0,0,16,0,0,0],"split_type":[0,0,0,0,0,0,0],"sum_hessian":[2.6E1,2.1E1,5E0,1.5E1,6E0,5E0,1E1],"tree_param":{"num_deleted":"0","num_feature":"17","num_nodes":"7","size_leaf_vector":"1"}},{"base_weights":[7.062268E-1,1.4577621E-1,8.999098E-2,3.7955922E-1,-7.2522396E-3,3.2667488E-2,1.2921047E-3],"categories":[],"categories_nodes":[],"categories_segments":[],"categories_sizes":[],"default_left":[0,0,0,0,0,0,0],"id":111,"left_children":[1,3,-1,5,-1,-1,-1],"loss_changes":[1.6091496E1,1.3702956E0,0E0,9.804853E-1,0E0,0E0,0E0],"parents":[2147483647,0,0,1,1,3,3],"right_children":[2,4,-1,6,-1,-1,-1],"split_conditions":[2.7E1,1.6E1,8.999098E-2,2E0,-7.2522396E-3,3.2667488E-2,1.2921047E-3],"split_indices":[15,15,0,0,0,0,0],"split_type":[0,0,0,0,0,0,0],"sum_hessian":[2.6E1,1.8E1,8E0,1E1,8E0,5E0,5E0],"tree_param":{"num_deleted":"0","num_feature":"17","num_nodes":"7","size_leaf_vector":"1"}},{"base_weights":[1.3682218E-1,6.165705E-2,-2.3037086E-1,-8.848669E-1,3.64749E-2,-1.1100906E-1,1.073636E-2],"categories":[],"categories_nodes":[],"categories_segments":[],"categories_sizes":[],"default_left":[0,0,0,0,0,0,0],"id":112,"left_children":[1,-1,3,5,-1,-1,-1],"loss_changes":[1.1253494E1,0E0,1.3853883E1,1.9765228E1,0E0,0E0,0E0],"parents":[2147483647,0,0,2,2,3,3],"right_children":[2,-1,4,6,-1,-1,-1],"split_conditions":[1.9E1,6.165705E-2,1E0,1.2E1,3.64749E-2,-1.1100906E-1,1.073636E-2],"split_indices":[14,0,1,2,0,0,0],"split_type":[0,0,0,0,0,0,0],"sum_hessian":[2.6E1,6E0,2E1,1.2E1,8E0,5E0,7E0],"tree_param":{"num_deleted":"0","num_feature":"17","num_nodes":"7","size_leaf_vector":"1"}},{"base_weights":[1.9397941E-1,7.4193215E-1,-4.866259E-2,4.4388115E-2,1.1146064E-1,2.4962937E-2,-1.2633993E-2],"categories":[],"categories_nodes":[],"categories_segments":[],"categories_sizes":[],"default_left":[0,0,0,0,0,0,0],"id":113,"left_children":[1,3,-1,5,-1,-1,-1],"loss_changes":[1.796782E1,1.938512E1,0E0,2.0425956E0,0E0,0E0,0E0],"parents":[2147483647,0,0,1,1,3,3],"right_children":[2,4,-1,6,-1,-1,-1],"split_conditions":[2.6714285E1,5E0,-4.866259E-2,2.1E1,1.1146064E-1,2.4962937E-2,-1.2633993E-2],"split_indices":[16,0,0,2,0,0,0],"split_type":[0,0,0,0,0,0,0],"sum_hessian":[2.6E1,1.8E1,8E0,1.3E1,5E0,5E0,8E0],"tree_param":{"num_deleted":"0","num_feature":"17","num_nodes":"7","size_leaf_vector":"1"}},{"base_weights":[-3.923661E-2,4.9660668E-2,-4.1743493E-1,-9.759952E-1,2.2076124E-1,-6.8960288E-3,-8.872082E-2,4.980561E-2,-2.8735831E-2],"categories":[],"categories_nodes":[],"categories_segments":[],"categories_sizes":[],"default_left":[0,0,0,0,0,0,0,0,0],"id":114,"left_children":[1,-1,3,5,7,-1,-1,-1,-1],"loss_changes":[1.1680677E1,0E0,8.1333475E0,7.5936766E0,7.3991423E0,0E0,0E0,0E0,0E0],"parents":[2147483647,0,0,2,2,3,3,4,4],"right_children":[2,-1,4,6,8,-1,-1,-1,-1],"split_conditions":[9E0,4.9660668E-2,2E1,1E0,2.5E1,-6.8960288E-3,-8.872082E-2,4.980561E-2,-2.8735831E-2],"split_indices":[2,0,2,1,16,0,0,0,0],"split_type":[0,0,0,0,0,0,0,0,0],"sum_hessian":[2.8E1,7E0,2.1E1,1.1E1,1E1,6E0,5E0,5E0,5E0],"tree_param":{"num_deleted":"0","num_feature":"17","num_nodes":"9","size_leaf_vector":"1"}},{"base_weights":[-1.2623881E-1,-4.7976178E-1,4.9429093E-2,-8.647444E-2,-4.5780516E-3,4.903351E-2,-2.5257701E-2],"categories":[],"categories_nodes":[],"categories_segments":[],"categories_sizes":[],"default_left":[0,0,0,0,0,0,0],"id":115,"left_children":[1,3,-1,-1,5,-1,-1],"loss_changes":[1.1458614E1,1.2883373E1,0E0,0E0,8.832094E0,0E0,0E0],"parents":[2147483647,0,0,1,1,4,4],"right_children":[2,4,-1,-1,6,-1,-1],"split_conditions":[3.6E1,8E0,4.9429093E-2,-8.647444E-2,1.5E1,4.903351E-2,-2.5257701E-2],"split_indices":[15,2,0,0,2,0,0],"split_type":[0,0,0,0,0,0,0],"sum_hessian":[2.7E1,2.1E1,6E0,5E0,1.6E1,5E0,1.1E1],"tree_param":{"num_deleted":"0","num_feature":"17","num_nodes":"7","size_leaf_vector":"1"}},{"base_weights":[1.9961213E-1,-2.7857053E-1,5.4909896E-2,2.7495196E-1,-4.6762846E-2,5.4729816E-2,-2.869255E-2],"categories":[],"categories_nodes":[],"categories_segments":[],"categories_sizes":[],"default_left":[0,0,0,0,0,0,0],"id":116,"left_children":[1,3,-1,5,-1,-1,-1],"loss_changes":[1.2419158E1,7.229504E0,0E0,8.333092E0,0E0,0E0,0E0],"parents":[2147483647,0,0,1,1,3,3],"right_children":[2,4,-1,6,-1,-1,-1],"split_conditions":[5E0,2.2E1,5.4909896E-2,1.7E1,-4.6762846E-2,5.4729816E-2,-2.869255E-2],"split_indices":[0,14,0,2,0,0,0],"split_type":[0,0,0,0,0,0,0],"sum_hessian":[2.7E1,1.8E1,9E0,1E1,8E0,5E0,5E0],"tree_param":{"num_deleted":"0","num_feature":"17","num_nodes":"7","size_leaf_vector":"1"}},{"base_weights":[-7.857609E-3,3.748939E-1,-3.7214987E-2,-2.6603085E-1,7.629561E-2,2.3479782E-2,-3.9849844E-2],"categories":[],"categories_nodes":[],"categories_segments":[],"categories_sizes":[],"default_left":[0,0,0,0,0,0,0],"id":117,"left_children":[1,3,-1,5,-1,-1,-1],"loss_changes":[8.208455E0,1.4548535E1,0E0,5.484711E0,0E0,0E0,0E0],"parents":[2147483647,0,0,1,1,3,3],"right_children":[2,4,-1,6,-1,-1,-1],"split_conditions":[2.6714285E1,2.4857143E1,-3.7214987E-2,2.4571428E1,7.629561E-2,2.3479782E-2,-3.9849844E-2],"split_indices":[16,16,0,16,0,0,0],"split_type":[0,0,0,0,0,0,0],"sum_hessian":[2.7E1,1.8E1,9E0,1.2E1,6E0,5E0,7E0],"tree_param":{"num_deleted":"0","num_feature":"17","num_nodes":"7","size_leaf_vector":"1"}},{"base_weights":[-6.1147988E-2,-5.093699E-1,4.403907E-2,-6.2162083E-2,-1.5132703E-1,-3.1126216E-2,8.425376E-3],"categories":[],"categories_nodes":[],"categories_segments":[],"categories_sizes":[],"default_left":[0,0,0,0,0,0,0],"id":118,"left_children":[1,3,-1,-1,5,-1,-1],"loss_changes":[1.1810725E1,4.664802E0,0E0,0E0,2.260174E0,0E0,0E0],"parents":[2147483647,0,0,1,1,4,4],"right_children":[2,4,-1,-1,6,-1,-1],"split_conditions":[5E0,9E0,4.403907E-2,-6.2162083E-2,1.9E1,-3.1126216E-2,8.425376E-3],"split_indices":[0,2,0,0,14,0,0],"split_type":[0,0,0,0,0,0,0],"sum_hessian":[2.6E1,1.8E1,8E0,5E0,1.3E1,5E0,8E0],"tree_param":{"num_deleted":"0","num_feature":"17","num_nodes":"7","size_leaf_vector":"1"}},{"base_weights":[1.5485772E-1,6.783777E-2,-3.5409167E-1,1.728505E-1,-7.706374E-2,-9.797885E-3,2.9196918E-2],"categories":[],"categories_nodes":[],"categories_segments":[],"categories_sizes":[],"default_left":[0,0,0,0,0,0,0],"id":119,"left_children":[1,-1,3,5,-1,-1,-1],"loss_changes":[1.6485012E1,0E0,1.2289212E1,2.2758017E0,0E0,0E0,0E0],"parents":[2147483647,0,0,2,2,3,3],"right_children":[2,-1,4,6,-1,-1,-1],"split_conditions":[9E0,6.783777E-2,2.9E1,3E0,-7.706374E-2,-9.797885E-3,2.9196918E-2],"split_indices":[2,0,15,0,0,0,0],"split_type":[0,0,0,0,0,0,0],"sum_hessian":[2.5E1,7E0,1.8E1,1.3E1,5E0,7E0,6E0],"tree_param":{"num_deleted":"0","num_feature":"17","num_nodes":"7","size_leaf_vector":"1"}},{"base_weights":[-5.6528468E-2,-3.216445E-1,4.9834527E-2,-6.1563093E-2,4.4409137E-2,-7.928136E-3,9.853937E-3],"categories":[],"categories_nodes":[],"categories_segments":[],"categories_sizes":[],"default_left":[0,0,0,0,0,0,0],"id":120,"left_children":[1,3,-1,-1,5,-1,-1],"loss_changes":[8.350608E0,8.164614E0,0E0,0E0,5.928783E-1,0E0,0E0],"parents":[2147483647,0,0,1,1,4,4],"right_children":[2,4,-1,-1,6,-1,-1],"split_conditions":[6E0,8E0,4.9834527E-2,-6.1563093E-2,1.2E1,-7.928136E-3,9.853937E-3],"split_indices":[0,2,0,0,15,0,0],"split_type":[0,0,0,0,0,0,0],"sum_hessian":[2.8E1,2.3E1,5E0,6E0,1.7E1,7E0,1E1],"tree_param":{"num_deleted":"0","num_feature":"17","num_nodes":"7","size_leaf_vector":"1"}},{"base_weights":[-2.1206458E-1,3.0616352E-1,-7.144241E-2,-3.6233583E-1,7.5910516E-2,2.517133E-2,-4.8943285E-2],"categories":[],"categories_nodes":[],"categories_segments":[],"categories_sizes":[],"default_left":[0,0,0,0,0,0,0],"id":121,"left_children":[1,3,-1,5,-1,-1,-1],"loss_changes":[1.6944586E1,1.6060486E1,0E0,7.47932E0,0E0,0E0,0E0],"parents":[2147483647,0,0,1,1,3,3],"right_children":[2,4,-1,6,-1,-1,-1],"split_conditions":[2.6714285E1,2.4857143E1,-7.144241E-2,2.4428572E1,7.5910516E-2,2.517133E-2,-4.8943285E-2],"split_indices":[16,16,0,16,0,0,0],"split_type":[0,0,0,0,0,0,0],"sum_hessian":[2.5E1,1.8E1,7E0,1.2E1,6E0,5E0,7E0],"tree_param":{"num_deleted":"0","num_feature":"17","num_nodes":"7","size_leaf_vector":"1"}},{"base_weights":[-3.4908053E-2,-2.464627E-1,2.8011749E-2,2.6055703E-1,-3.947691E-2,5.4229587E-2,-2.951186E-2],"categories":[],"categories_nodes":[],"categories_segments":[],"categories_sizes":[],"default_left":[0,0,0,0,0,0,0],"id":122,"left_children":[1,3,-1,5,-1,-1,-1],"loss_changes":[3.3802366E0,5.7656174E0,0E0,8.4015255E0,0E0,0E0,0E0],"parents":[2147483647,0,0,1,1,3,3],"right_children":[2,4,-1,6,-1,-1,-1],"split_conditions":[5E0,2.2E1,2.8011749E-2,1.7E1,-3.947691E-2,5.4229587E-2,-2.951186E-2],"split_indices":[0,14,0,2,0,0,0],"split_type":[0,0,0,0,0,0,0],"sum_hessian":[2.5E1,1.9E1,6E0,1E1,9E0,5E0,5E0],"tree_param":{"num_deleted":"0","num_feature":"17","num_nodes":"7","size_leaf_vector":"1"}},{"base_weights":[-4.8777533E-1,-8.827585E-1,4.796475E-2,-2.8083327E-1,-9.066414E-2,-1.302102E-3,-2.2808572E-2],"categories":[],"categories_nodes":[],"categories_segments":[],"categories_sizes":[],"default_left":[0,0,0,0,0,0,0],"id":123,"left_children":[1,3,-1,5,-1,-1,-1],"loss_changes":[1.5699953E1,1.1043587E1,0E0,5.6534374E-1,0E0,0E0,0E0],"parents":[2147483647,0,0,1,1,3,3],"right_children":[2,4,-1,6,-1,-1,-1],"split_conditions":[6E0,5E0,4.796475E-2,1.8E1,-9.066414E-2,-1.302102E-3,-2.2808572E-2],"split_indices":[0,3,0,15,0,0,0],"split_type":[0,0,0,0,0,0,0],"sum_hessian":[2.5E1,2E1,5E0,1.3E1,7E0,6E0,7E0],"tree_param":{"num_deleted":"0","num_feature":"17","num_nodes":"7","size_leaf_vector":"1"}},{"base_weights":[3.4786123E-1,-3.0570543E-1,7.7741794E-2,3.1576255E-1,-6.264558E-2,5.0382394E-2,-2.0604162E-2],"categories":[],"categories_nodes":[],"categories_segments":[],"categories_sizes":[],"default_left":[0,0,0,0,0,0,0],"id":124,"left_children":[1,3,-1,5,-1,-1,-1],"loss_changes":[2.0321194E1,1.0496527E1,0E0,6.014235E0,0E0,0E0,0E0],"parents":[2147483647,0,0,1,1,3,3],"right_children":[2,4,-1,6,-1,-1,-1],"split_conditions":[5E0,2.2E1,7.7741794E-2,2.2E1,-6.264558E-2,5.0382394E-2,-2.0604162E-2],"split_indices":[0,14,0,2,0,0,0],"split_type":[0,0,0,0,0,0,0],"sum_hessian":[2.4E1,1.6E1,8E0,1E1,6E0,5E0,5E0],"tree_param":{"num_deleted":"0","num_feature":"17","num_nodes":"7","size_leaf_vector":"1"}},{"base_weights":[-1.828221E-1,5.811851E-1,-9.457427E-2,1.6209517E-1,6.0115643E-2,3.4177195E-2,-1.468658E-2],"categories":[],"categories_nodes":[],"categories_segments":[],"categories_sizes":[],"default_left":[0,0,0,0,0,0,0],"id":125,"left_children":[1,3,-1,5,-1,-1,-1],"loss_changes":[3.386611E1,4.35422E0,0E0,3.0920434E0,0E0,0E0,0E0],"parents":[2147483647,0,0,1,1,3,3],"right_children":[2,4,-1,6,-1,-1,-1],"split_conditions":[3E1,3E0,-9.457427E-2,1.6E1,6.0115643E-2,3.4177195E-2,-1.468658E-2],"split_indices":[15,0,0,15,0,0,0],"split_type":[0,0,0,0,0,0,0],"sum_hessian":[2.4E1,1.7E1,7E0,1.1E1,6E0,5E0,6E0],"tree_param":{"num_deleted":"0","num_feature":"17","num_nodes":"7","size_leaf_vector":"1"}},{"base_weights":[1.8384308E-1,7.137395E-2,-2.1329682E-1,2.242405E-2,-4.8882324E-1,-6.1253633E-2,1.0199895E-2],"categories":[],"categories_nodes":[],"categories_segments":[],"categories_sizes":[],"default_left":[0,0,0,0,0,0,0],"id":126,"left_children":[1,-1,3,-1,5,-1,-1],"loss_changes":[1.2279431E1,0E0,3.6876705E0,0E0,7.493268E0,0E0,0E0],"parents":[2147483647,0,0,2,2,4,4],"right_children":[2,-1,4,-1,6,-1,-1],"split_conditions":[1E1,7.137395E-2,2.4428572E1,2.242405E-2,2.3E1,-6.1253633E-2,1.0199895E-2],"split_indices":[2,0,16,0,2,0,0],"split_type":[0,0,0,0,0,0,0],"sum_hessian":[2.3E1,5E0,1.8E1,5E0,1.3E1,6E0,7E0],"tree_param":{"num_deleted":"0","num_feature":"17","num_nodes":"7","size_leaf_vector":"1"}},{"base_weights":[-3.7413517E-1,3.7387416E-2,-6.0622282E-2,-4.4957796E-1,5.9203774E-2,-4.9439386E-2,-1.4520296E-3],"categories":[],"categories_nodes":[],"categories_segments":[],"categories_sizes":[],"default_left":[0,0,0,0,0,0,0],"id":127,"left_children":[1,3,-1,5,-1,-1,-1],"loss_changes":[9.477396E0,1.1215334E1,0E0,3.0441124E0,0E0,0E0,0E0],"parents":[2147483647,0,0,1,1,3,3],"right_children":[2,4,-1,6,-1,-1,-1],"split_conditions":[2.6571428E1,1E0,-6.0622282E-2,1.8E1,5.9203774E-2,-4.9439386E-2,-1.4520296E-3],"split_indices":[16,1,0,2,0,0,0],"split_type":[0,0,0,0,0,0,0],"sum_hessian":[2.6E1,1.8E1,8E0,1.3E1,5E0,5E0,8E0],"tree_param":{"num_deleted":"0","num_feature":"17","num_nodes":"7","size_leaf_vector":"1"}},{"base_weights":[-7.4101426E-2,-6.0082746E-1,6.2604177E-1,-4.0950518E-2,-9.45097E-3,-1.8625565E-2,7.033978E-2],"categories":[],"categories_nodes":[],"categories_segments":[],"categories_sizes":[],"default_left":[0,0,0,0,0,0,0],"id":128,"left_children":[1,3,5,-1,-1,-1,-1],"loss_changes":[1.0330781E1,1.1819801E0,9.9829645E0,0E0,0E0,0E0,0E0],"parents":[2147483647,0,0,1,1,2,2],"right_children":[2,4,6,-1,-1,-1,-1],"split_conditions":[2.5714285E1,2.4E1,2E0,-4.0950518E-2,-9.45097E-3,-1.8625565E-2,7.033978E-2],"split_indices":[16,14,0,0,0,0,0],"split_type":[0,0,0,0,0,0,0],"sum_hessian":[2.6E1,1.5E1,1.1E1,9E0,6E0,5E0,6E0],"tree_param":{"num_deleted":"0","num_feature":"17","num_nodes":"7","size_leaf_vector":"1"}},{"base_weights":[3.7478887E-2,6.6051185E-2,-4.72813E-1,5.3396476E-3,-8.030296E-2,-1.7809452E-2,2.4184257E-2],"categories":[],"categories_nodes":[],"categories_segments":[],"categories_sizes":[],"default_left":[0,0,0,0,0,0,0],"id":129,"left_children":[1,-1,3,5,-1,-1,-1],"loss_changes":[1.8393948E1,0E0,1.100594E1,2.779067E0,0E0,0E0,0E0],"parents":[2147483647,0,0,2,2,3,3],"right_children":[2,-1,4,6,-1,-1,-1],"split_conditions":[9E0,6.6051185E-2,3.3E1,2.4E1,-8.030296E-2,-1.7809452E-2,2.4184257E-2],"split_indices":[2,0,15,14,0,0,0],"split_type":[0,0,0,0,0,0,0],"sum_hessian":[2.6E1,7E0,1.9E1,1.4E1,5E0,8E0,6E0],"tree_param":{"num_deleted":"0","num_feature":"17","num_nodes":"7","size_leaf_vector":"1"}},{"base_weights":[-1.8776715E-2,-3.507176E-1,5.000278E-1,-5.0529577E-2,2.1197174E-1,7.3254295E-2,-3.4627236E-2,4.944242E-2,-2.9178346E-2],"categories":[],"categories_nodes":[],"categories_segments":[],"categories_sizes":[],"default_left":[0,0,0,0,0,0,0,0,0],"id":130,"left_children":[1,3,5,-1,7,-1,-1,-1,-1],"loss_changes":[5.3268104E0,7.348855E0,1.4902713E1,0E0,7.4159775E0,0E0,0E0,0E0,0E0],"parents":[2147483647,0,0,1,1,2,2,4,4],"right_children":[2,4,6,-1,8,-1,-1,-1,-1],"split_conditions":[2.5714285E1,2E1,2.7857143E1,-5.0529577E-2,2.5E1,7.3254295E-2,-3.4627236E-2,4.944242E-2,-2.9178346E-2],"split_indices":[16,2,16,0,16,0,0,0,0],"split_type":[0,0,0,0,0,0,0,0,0],"sum_hessian":[2.9E1,1.8E1,1.1E1,8E0,1E1,6E0,5E0,5E0,5E0],"tree_param":{"num_deleted":"0","num_feature":"17","num_nodes":"9","size_leaf_vector":"1"}},{"base_weights":[1.853698E-2,-2.746079E-1,6.512043E-2,-7.770736E-2,9.928941E-2,-1.2279175E-2,5.0953448E-2],"categories":[],"categories_nodes":[],"categories_segments":[],"categories_sizes":[],"default_left":[0,0,0,0,0,0,0],"id":131,"left_children":[1,3,-1,-1,5,-1,-1],"loss_changes":[1.2127604E1,1.273862E1,0E0,0E0,6.988963E0,0E0,0E0],"parents":[2147483647,0,0,1,1,4,4],"right_children":[2,4,-1,-1,6,-1,-1],"split_conditions":[3.6E1,8E0,6.512043E-2,-7.770736E-2,2.5714285E1,-1.2279175E-2,5.0953448E-2],"split_indices":[15,2,0,0,16,0,0],"split_type":[0,0,0,0,0,0,0],"sum_hessian":[3E1,2.5E1,5E0,5E0,2E1,1.5E1,5E0],"tree_param":{"num_deleted":"0","num_feature":"17","num_nodes":"7","size_leaf_vector":"1"}},{"base_weights":[7.988427E-2,4.2757133E-1,-5.0888605E-2,-0E0,6.772978E-2,-1.2080253E-2,1.8089393E-2],"categories":[],"categories_nodes":[],"categories_segments":[],"categories_sizes":[],"default_left":[0,0,0,0,0,0,0],"id":132,"left_children":[1,3,-1,5,-1,-1,-1],"loss_changes":[9.535531E0,7.536048E0,0E0,1.3106997E0,0E0,0E0,0E0],"parents":[2147483647,0,0,1,1,3,3],"right_children":[2,4,-1,6,-1,-1,-1],"split_conditions":[4E1,2.7E1,-5.0888605E-2,2.5714285E1,6.772978E-2,-1.2080253E-2,1.8089393E-2],"split_indices":[14,15,0,16,0,0,0],"split_type":[0,0,0,0,0,0,0],"sum_hessian":[2.3E1,1.8E1,5E0,1.3E1,5E0,8E0,5E0],"tree_param":{"num_deleted":"0","num_feature":"17","num_nodes":"7","size_leaf_vector":"1"}},{"base_weights":[-1.1465953E-1,3.8343248E-1,-5.5450555E-2,7.601553E-2,-2.2036273E-2],"categories":[],"categories_nodes":[],"categories_segments":[],"categories_sizes":[],"default_left":[0,0,0,0,0],"id":133,"left_children":[1,3,-1,-1,-1],"loss_changes":[1.1889195E1,1.576947E1,0E0,0E0,0E0],"parents":[2147483647,0,0,1,1],"right_children":[2,4,-1,-1,-1],"split_conditions":[2.6571428E1,1.9E1,-5.5450555E-2,7.601553E-2,-2.2036273E-2],"split_indices":[16,2,0,0,0],"split_type":[0,0,0,0,0],"sum_hessian":[2.2E1,1.5E1,7E0,6E0,9E0],"tree_param":{"num_deleted":"0","num_feature":"17","num_nodes":"5","size_leaf_vector":"1"}},{"base_weights":[1.4429867E-1,-3.0223006E-1,5.1621705E-2,3.3628803E-2,-5.796663E-2],"categories":[],"categories_nodes":[],"categories_segments":[],"categories_sizes":[],"default_left":[0,0,0,0,0],"id":134,"left_children":[1,3,-1,-1,-1],"loss_changes":[1.069608E1,1.5867575E1,0E0,0E0,0E0],"parents":[2147483647,0,0,1,1],"right_children":[2,4,-1,-1,-1],"split_conditions":[5E0,2E1,5.1621705E-2,3.3628803E-2,-5.796663E-2],"split_indices":[0,14,0,0,0],"split_type":[0,0,0,0,0],"sum_hessian":[2.5E1,1.7E1,8E0,8E0,9E0],"tree_param":{"num_deleted":"0","num_feature":"17","num_nodes":"5","size_leaf_vector":"1"}},{"base_weights":[1.2528569E-2,5.7917576E-2,-4.1981015E-1,4.7248445E-2,-8.05999E-2,-1.895967E-2,1.7551644E-2],"categories":[],"categories_nodes":[],"categories_segments":[],"categories_sizes":[],"default_left":[0,0,0,0,0,0,0],"id":135,"left_children":[1,-1,3,5,-1,-1,-1],"loss_changes":[1.4430883E1,0E0,1.1925892E1,2.2030354E0,0E0,0E0,0E0],"parents":[2147483647,0,0,2,2,3,3],"right_children":[2,-1,4,6,-1,-1,-1],"split_conditions":[9E0,5.7917576E-2,3.3E1,1.9E1,-8.05999E-2,-1.895967E-2,1.7551644E-2],"split_indices":[2,0,15,14,0,0,0],"split_type":[0,0,0,0,0,0,0],"sum_hessian":[2.7E1,7E0,2E1,1.5E1,5E0,6E0,9E0],"tree_param":{"num_deleted":"0","num_feature":"17","num_nodes":"7","size_leaf_vector":"1"}},{"base_weights":[-1.6042605E-1,-4.1781583E-1,3.9670374E-2,-1.6698608E-2,-5.525918E-2,-3.835553E-2,2.1260923E-2],"categories":[],"categories_nodes":[],"categories_segments":[],"categories_sizes":[],"default_left":[0,0,0,0,0,0,0],"id":136,"left_children":[1,3,-1,5,-1,-1,-1],"loss_changes":[6.9226284E0,5.935088E0,0E0,5.3346763E0,0E0,0E0,0E0],"parents":[2147483647,0,0,1,1,3,3],"right_children":[2,4,-1,6,-1,-1,-1],"split_conditions":[6E0,5E0,3.9670374E-2,1.9E1,-5.525918E-2,-3.835553E-2,2.1260923E-2],"split_indices":[0,3,0,14,0,0,0],"split_type":[0,0,0,0,0,0,0],"sum_hessian":[2.6E1,2.1E1,5E0,1.4E1,7E0,5E0,9E0],"tree_param":{"num_deleted":"0","num_feature":"17","num_nodes":"7","size_leaf_vector":"1"}},{"base_weights":[-9.131706E-2,-3.138685E-1,3.801748E-2,1.3568284E-1,-5.1967878E-2,-3.2041713E-3,1.4354591E-2],"categories":[],"categories_nodes":[],"categories_segments":[],"categories_sizes":[],"default_left":[0,0,0,0,0,0,0],"id":137,"left_children":[1,3,-1,5,-1,-1,-1],"loss_changes":[5.501112E0,7.7327166E0,0E0,4.9439475E-1,0E0,0E0,0E0],"parents":[2147483647,0,0,1,1,3,3],"right_children":[2,4,-1,6,-1,-1,-1],"split_conditions":[6E0,5E0,3.801748E-2,3E0,-5.1967878E-2,-3.2041713E-3,1.4354591E-2],"split_indices":[0,3,0,0,0,0,0],"split_type":[0,0,0,0,0,0,0],"sum_hessian":[2.7E1,2.2E1,5E0,1.4E1,8E0,6E0,8E0],"tree_param":{"num_deleted":"0","num_feature":"17","num_nodes":"7","size_leaf_vector":"1"}},{"base_weights":[-1.4663931E-2,7.096859E-2,-4.2845201E-1,-7.352752E-2,-4.636848E-3,3.0351324E-2,-1.7347038E-2],"categories":[],"categories_nodes":[],"categories_segments":[],"categories_sizes":[],"default_left":[0,0,0,0,0,0,0],"id":138,"left_children":[1,-1,3,-1,5,-1,-1],"loss_changes":[1.5937099E1,0E0,9.120462E0,0E0,3.5345898E0,0E0,0E0],"parents":[2147483647,0,0,2,2,4,4],"right_children":[2,-1,4,-1,6,-1,-1],"split_conditions":[7E0,7.096859E-2,1.2E1,-7.352752E-2,1.9E1,3.0351324E-2,-1.7347038E-2],"split_indices":[2,0,2,0,2,0,0],"split_type":[0,0,0,0,0,0,0],"sum_hessian":[2.5E1,5E0,2E1,5E0,1.5E1,5E0,1E1],"tree_param":{"num_deleted":"0","num_feature":"17","num_nodes":"7","size_leaf_vector":"1"}},{"base_weights":[2.6512972E-1,-2.4328414E-1,8.7816757E-1,7.6622153E-3,-2.899167E-2,8.7230794E-2,5.3030155E-3],"categories":[],"categories_nodes":[],"categories_segments":[],"categories_sizes":[],"default_left":[0,0,0,0,0,0,0],"id":139,"left_children":[1,3,5,-1,-1,-1,-1],"loss_changes":[9.004086E0,2.2667365E0,8.326784E0,0E0,0E0,0E0,0E0],"parents":[2147483647,0,0,1,1,2,2],"right_children":[2,4,6,-1,-1,-1,-1],"split_conditions":[2E1,2.475E1,9E0,7.6622153E-3,-2.899167E-2,8.7230794E-2,5.3030155E-3],"split_indices":[15,16,2,0,0,0,0],"split_type":[0,0,0,0,0,0,0],"sum_hessian":[2.7E1,1.5E1,1.2E1,7E0,8E0,5E0,7E0],"tree_param":{"num_deleted":"0","num_feature":"17","num_nodes":"7","size_leaf_vector":"1"}},{"base_weights":[-7.599498E-2,-3.79193E-1,3.5011392E-2,2.0600593E-2,-6.136441E-2],"categories":[],"categories_nodes":[],"categories_segments":[],"categories_sizes":[],"default_left":[0,0,0,0,0],"id":140,"left_children":[1,3,-1,-1,-1],"loss_changes":[5.881799E0,1.266549E1,0E0,0E0,0E0],"parents":[2147483647,0,0,1,1],"right_children":[2,4,-1,-1,-1],"split_conditions":[3.6E1,2.2E1,3.5011392E-2,2.0600593E-2,-6.136441E-2],"split_indices":[15,14,0,0,0],"split_type":[0,0,0,0,0],"sum_hessian":[2.3E1,1.7E1,6E0,9E0,8E0],"tree_param":{"num_deleted":"0","num_feature":"17","num_nodes":"5","size_leaf_vector":"1"}},{"base_weights":[-3.502452E-1,1.5124895E-1,-1.0736748E-1,-1.8383709E-1,4.549193E-2,-3.4490433E-2,3.7887514E-2],"categories":[],"categories_nodes":[],"categories_segments":[],"categories_sizes":[],"default_left":[0,0,0,0,0,0,0],"id":141,"left_children":[1,3,-1,5,-1,-1,-1],"loss_changes":[2.4857803E1,5.8321037E0,0E0,8.138571E0,0E0,0E0,0E0],"parents":[2147483647,0,0,1,1,3,3],"right_children":[2,4,-1,6,-1,-1,-1],"split_conditions":[3.4E1,2.5714285E1,-1.0736748E-1,2.4E1,4.549193E-2,-3.4490433E-2,3.7887514E-2],"split_indices":[14,16,0,14,0,0,0],"split_type":[0,0,0,0,0,0,0],"sum_hessian":[2.6E1,2.1E1,5E0,1.5E1,6E0,1E1,5E0],