{"learner":{"attributes":{"best_iteration":"99","best_score":"1.2870539277049293","scikit_learn":"{\"_estimator_type\": \"regressor\"}"},"feature_names":["day_of_week","is_weekend","day_of_month","month","discount_rate","is_public_holiday","is_ramadan","temperature","rainfall","humidity","is_rainy","weather_sunny","weather_cloudy","weather_rainy","weather_storm","freshness_Fresh","freshness_Day-1","lag_1","lag_7","rolling_7d_mean"],"feature_types":["int","int","int","int","float","int","int","float","float","float","int","int","int","int","int","int","int","float","float","float"],"gradient_booster":{"model":{"cats":{"enc":[],"feature_segments":[],"sorted_idx":[]},"gbtree_model_param":{"num_parallel_tree":"1","num_trees":"100"},"iteration_indptr":[0,1,2,3,4,5,6,7,8,9,10,11,12,13,14,15,16,17,18,19,20,21,22,23,24,25,26,27,28,29,30,31,32,33,34,35,36,37,38,39,40,41,42,43,44,45,46,47,48,49,50,51,52,53,54,55,56,57,58,59,60,61,62,63,64,65,66,67,68,69,70,71,72,73,74,75,76,77,78,79,80,81,82,83,84,85,86,87,88,89,90,91,92,93,94,95,96,97,98,99,100],"tree_info":[0,0,0,0,0,0,0,0,0,0,0,0,0,0,0,0,0,0,0,0,0,0,0,0,0,0,0,0,0,0,0,0,0,0,0,0,0,0,0,0,0,0,0,0,0,0,0,0,0,0,0,0,0,0,0,0,0,0,0,0,0,0,0,0,0,0,0,0,0,0,0,0,0,0,0,0,0,0,0,0,0,0,0,0,0,0,0,0,0,0,0,0,0,0,0,0,0,0,0,0],"trees":[{"base_weights":[1.4816314E-1,-1.0559018E0,2.858633E0,1.7334197E-2,-3.3232691E0,4.058739E-1,4.268355E0,-7.500409E-2,1.6292493E-1,-2.9926834E-1,-1.6288188E-1,-6.623782E-2,1.8973958E-1,2.0106582E-1,5.1722854E-1],"categories":[],"categories_nodes":[],"categories_segments":[],"categories_sizes":[],"default_left":[0,0,0,0,0,0,0,0,0,0,0,0,0,0,0],"id":0,"left_children":[1,3,5,7,9,11,13,-1,-1,-1,-1,-1,-1,-1,-1],"loss_changes":[1.3052054E3,6.741481E2,4.2351898E2,3.663371E2,4.016632E1,1.1355602E2,2.8441382E2,0E0,0E0,0E0,0E0,0E0,0E0,0E0,0E0],"parents":[2147483647,0,0,1,1,2,2,3,3,4,4,5,5,6,6],"right_children":[2,4,6,8,10,12,14,-1,-1,-1,-1,-1,-1,-1,-1],"split_conditions":[1.5285714E1,1.7E1,3E1,5E0,5E0,1E0,5E0,-7.500409E-2,1.6292493E-1,-2.9926834E-1,-1.6288188E-1,-6.623782E-2,1.8973958E-1,2.0106582E-1,5.1722854E-1],"split_indices":[19,8,7,0,0,12,0,0,0,0,0,0,0,0,0],"split_type":[0,0,0,0,0,0,0,0,0,0,0,0,0,0,0],"sum_hessian":[3.98E2,2.76E2,1.22E2,1.88E2,8.8E1,4.5E1,7.7E1,1.28E2,6E1,6.5E1,2.3E1,2.8E1,1.7E1,4.4E1,3.3E1],"tree_param":{"num_deleted":"0","num_feature":"20","num_nodes":"15","size_leaf_vector":"1"}},{"base_weights":[2.2478743E-1,-1.2857819E0,2.4652197E0,-2.788316E-1,-3.5334232E0,1.1990464E0,4.104637E0,-8.5741095E-2,1.1351548E-1,-3.2151836E-1,-1.7298865E-1,1.3011329E-1,-1.6137545E-1,3.7989786E-1,-5.1538553E-2],"categories":[],"categories_nodes":[],"categories_segments":[],"categories_sizes":[],"default_left":[0,0,0,0,0,0,0,0,0,0,0,0,0,0,0],"id":1,"left_children":[1,3,5,7,9,11,13,-1,-1,-1,-1,-1,-1,-1,-1],"loss_changes":[1.3196854E3,5.263169E2,3.209237E2,2.1960501E2,3.9180176E1,1.26984024E2,2.1109082E2,0E0,0E0,0E0,0E0,0E0,0E0,0E0,0E0],"parents":[2147483647,0,0,1,1,2,2,3,3,4,4,5,5,6,6],"right_children":[2,4,6,8,10,12,14,-1,-1,-1,-1,-1,-1,-1,-1],"split_conditions":[1.4714286E1,1.7E1,5E0,5E0,1.3571428E1,1.89E1,1E0,-8.5741095E-2,1.1351548E-1,-3.2151836E-1,-1.7298865E-1,1.3011329E-1,-1.6137545E-1,3.7989786E-1,-5.1538553E-2],"split_indices":[19,8,0,0,19,8,14,0,0,0,0,0,0,0,0],"split_type":[0,0,0,0,0,0,0,0,0,0,0,0,0,0,0],"sum_hessian":[3.88E2,2.32E2,1.56E2,1.61E2,7.1E1,8.9E1,6.7E1,1.1E2,5.1E1,5.1E1,2E1,7.9E1,1E1,5.9E1,8E0],"tree_param":{"num_deleted":"0","num_feature":"20","num_nodes":"15","size_leaf_vector":"1"}},{"base_weights":[-2.4379943E-2,-1.3634635E0,1.8768768E0,-9.474731E-1,-4.2023537E-1,2.4000926E0,-2.7264388E0,1.4695935E-2,-2.1336065E-1,8.0974154E-2,3.411206E-1,-3.284771E-1,-8.342915E-2],"categories":[],"categories_nodes":[],"categories_segments":[],"categories_sizes":[],"default_left":[0,0,0,0,0,0,0,0,0,0,0,0,0],"id":2,"left_children":[1,3,5,7,-1,9,11,-1,-1,-1,-1,-1,-1],"loss_changes":[9.980171E2,3.670977E2,3.967218E2,4.070387E2,0E0,3.7332697E2,3.5149612E1,0E0,0E0,0E0,0E0,0E0,0E0],"parents":[2147483647,0,0,1,1,2,2,3,3,5,5,6,6],"right_children":[2,4,6,8,-1,10,12,-1,-1,-1,-1,-1,-1],"split_conditions":[1.4714286E1,1E0,1E0,1E0,-4.2023537E-1,5E0,5E0,1.4695935E-2,-2.1336065E-1,8.0974154E-2,3.411206E-1,-3.284771E-1,-8.342915E-2],"split_indices":[19,14,14,13,0,0,0,0,0,0,0,0,0],"split_type":[0,0,0,0,0,0,0,0,0,0,0,0,0],"sum_hessian":[3.9E2,2.29E2,1.61E2,2.08E2,2.1E1,1.45E2,1.6E1,1.26E2,8.2E1,8.4E1,6.1E1,8E0,8E0],"tree_param":{"num_deleted":"0","num_feature":"20","num_nodes":"13","size_leaf_vector":"1"}},{"base_weights":[2.1180855E-1,-2.2658756E0,1.2195613E0,-1.5141823E0,-3.603749E0,2.0218997E0,-8.2598114E-1,-1.6874541E-1,-3.8125813E-2,-3.2565278E-1,-1.5675099E-1,1.8062861E-1,-3.2556376E-1,-1.2258279E-1,1.2471362E-1],"categories":[],"categories_nodes":[],"categories_segments":[],"categories_sizes":[],"default_left":[0,0,0,0,0,0,0,0,0,0,0,0,0,0,0],"id":3,"left_children":[1,3,5,7,9,11,13,-1,-1,-1,-1,-1,-1,-1,-1],"loss_changes":[1.0015102E3,1.1114984E2,4.6942892E2,4.590027E1,2.344226E1,3.0382208E2,1.3883014E2,0E0,0E0,0E0,0E0,0E0,0E0,0E0,0E0],"parents":[2147483647,0,0,1,1,2,2,3,3,4,4,5,5,6,6],"right_children":[2,4,6,8,10,12,14,-1,-1,-1,-1,-1,-1,-1,-1],"split_conditions":[1.3142858E1,2.61E1,1.38E1,1.2428572E1,4E0,1E0,1.7E1,-1.6874541E-1,-3.8125813E-2,-3.2565278E-1,-1.5675099E-1,1.8062861E-1,-3.2556376E-1,-1.2258279E-1,1.2471362E-1],"split_indices":[19,8,8,19,0,14,19,0,0,0,0,0,0,0,0],"split_type":[0,0,0,0,0,0,0,0,0,0,0,0,0,0,0],"sum_hessian":[3.99E2,1.15E2,2.84E2,7.5E1,4E1,2.04E2,8E1,4.7E1,2.8E1,3E1,1E1,1.97E2,7E0,6.2E1,1.8E1],"tree_param":{"num_deleted":"0","num_feature":"20","num_nodes":"15","size_leaf_vector":"1"}},{"base_weights":[-1.9648442E-2,-1.2141827E0,1.786431E0,-8.5303813E-1,-3.7113532E-1,2.6731956E0,-6.9657415E-1,3.0236759E-3,-1.9069912E-1,1.3892852E-1,3.256884E-1,-1.4010428E-1,1.6269033E-1],"categories":[],"categories_nodes":[],"categories_segments":[],"categories_sizes":[],"default_left":[0,0,0,0,0,0,0,0,0,0,0,0,0],"id":4,"left_children":[1,3,5,7,-1,9,11,-1,-1,-1,-1,-1,-1],"loss_changes":[9.104387E2,3.101662E2,3.7179114E2,3.151053E2,0E0,1.5522107E2,1.3314183E2,0E0,0E0,0E0,0E0,0E0,0E0],"parents":[2147483647,0,0,1,1,2,2,3,3,5,5,6,6],"right_children":[2,4,6,8,-1,10,12,-1,-1,-1,-1,-1,-1],"split_conditions":[1.4714286E1,1E0,1.33E1,1E0,-3.7113532E-1,5E0,6E0,3.0236759E-3,-1.9069912E-1,1.3892852E-1,3.256884E-1,-1.4010428E-1,1.6269033E-1],"split_indices":[19,14,8,13,0,0,0,0,0,0,0,0,0],"split_type":[0,0,0,0,0,0,0,0,0,0,0,0,0],"sum_hessian":[4.2E2,2.53E2,1.67E2,2.3E2,2.3E1,1.23E2,4.4E1,1.46E2,8.4E1,7.5E1,4.8E1,3.2E1,1.2E1],"tree_param":{"num_deleted":"0","num_feature":"20","num_nodes":"13","size_leaf_vector":"1"}},{"base_weights":[9.5668405E-2,-6.817556E-1,2.2437775E0,-1.5061878E0,9.002956E-1,1.1288282E0,4.208981E0,-8.6107366E-2,-3.5902035E-1,2.8265532E-2,2.7218243E-1,2.3194896E-2,1.5481457E-1,2.2823612E-1,4.229008E-1],"categories":[],"categories_nodes":[],"categories_segments":[],"categories_sizes":[],"default_left":[0,0,0,0,0,0,0,0,0,0,0,0,0,0,0],"id":5,"left_children":[1,3,5,7,9,11,13,-1,-1,-1,-1,-1,-1,-1,-1],"loss_changes":[6.66202E2,3.8352023E2,2.2745221E2,2.4246545E2,1.3698157E2,4.6091293E1,4.034845E1,0E0,0E0,0E0,0E0,0E0,0E0,0E0,0E0],"parents":[2147483647,0,0,1,1,2,2,3,3,4,4,5,5,6,6],"right_children":[2,4,6,8,10,12,14,-1,-1,-1,-1,-1,-1,-1,-1],"split_conditions":[1E0,5E0,5E0,1E0,1.9E1,2E-1,2E-1,-8.6107366E-2,-3.5902035E-1,2.8265532E-2,2.7218243E-1,2.3194896E-2,1.5481457E-1,2.2823612E-1,4.229008E-1],"split_indices":[11,0,0,14,18,4,4,0,0,0,0,0,0,0,0],"split_type":[0,0,0,0,0,0,0,0,0,0,0,0,0,0,0],"sum_hessian":[3.97E2,2.92E2,1.05E2,1.92E2,1E2,6.8E1,3.7E1,1.69E2,2.3E1,8.3E1,1.7E1,3.4E1,3.4E1,1.8E1,1.9E1],"tree_param":{"num_deleted":"0","num_feature":"20","num_nodes":"15","size_leaf_vector":"1"}},{"base_weights":[-2.0218126E-1,-1.1756018E0,1.4631402E0,-1.9014345E0,4.470101E-1,-3.2480627E-1,2.524128E0,-1.9190808E-1,-3.5781483E-3,-1.36786E-2,2.1692093E-1,-1.4213395E-1,1.2369418E-1,1.3493104E-1,2.9533088E-1],"categories":[],"categories_nodes":[],"categories_segments":[],"categories_sizes":[],"default_left":[0,0,0,0,0,0,0,0,0,0,0,0,0,0,0],"id":6,"left_children":[1,3,5,7,9,11,13,-1,-1,-1,-1,-1,-1,-1,-1],"loss_changes":[6.5014044E2,2.9883395E2,2.8159625E2,1.6149072E2,1.110452E2,1.5486897E2,8.4652954E1,0E0,0E0,0E0,0E0,0E0,0E0,0E0,0E0],"parents":[2147483647,0,0,1,1,2,2,3,3,4,4,5,5,6,6],"right_children":[2,4,6,8,10,12,14,-1,-1,-1,-1,-1,-1,-1,-1],"split_conditions":[1.4857142E1,5E0,3.06E1,1E0,1E0,1E0,5E0,-1.9190808E-1,-3.5781483E-3,-1.36786E-2,2.1692093E-1,-1.4213395E-1,1.2369418E-1,1.3493104E-1,2.9533088E-1],"split_indices":[19,0,7,11,11,12,0,0,0,0,0,0,0,0,0],"split_type":[0,0,0,0,0,0,0,0,0,0,0,0,0,0,0],"sum_hessian":[3.99E2,2.52E2,1.47E2,1.74E2,7.8E1,5.5E1,9.2E1,1.37E2,3.7E1,6.2E1,1.6E1,3.1E1,2.4E1,5.5E1,3.7E1],"tree_param":{"num_deleted":"0","num_feature":"20","num_nodes":"15","size_leaf_vector":"1"}},{"base_weights":[-9.146537E-2,6.778905E-1,-2.054633E0,-1.1381041E-1,2.3125978E0,-2.6519234E0,-5.709517E-1,-1.1261774E-1,4.154662E-2,3.5436478E-2,2.5348327E-1,-3.325303E-1,-1.7739458E-1,-1.0413023E-1,8.59397E-2],"categories":[],"categories_nodes":[],"categories_segments":[],"categories_sizes":[],"default_left":[0,0,0,0,0,0,0,0,0,0,0,0,0,0,0],"id":7,"left_children":[1,3,5,7,9,11,13,-1,-1,-1,-1,-1,-1,-1,-1],"loss_changes":[6.1159784E2,3.7689716E2,9.947916E1,1.621285E2,1.5058948E2,4.3675476E1,4.227218E1,0E0,0E0,0E0,0E0,0E0,0E0,0E0,0E0],"parents":[2147483647,0,0,1,1,2,2,3,3,4,4,5,5,6,6],"right_children":[2,4,6,8,10,12,14,-1,-1,-1,-1,-1,-1,-1,-1],"split_conditions":[1.89E1,1E0,1E0,3.05E1,4E0,1E0,1.1E1,-1.1261774E-1,4.154662E-2,3.5436478E-2,2.5348327E-1,-3.325303E-1,-1.7739458E-1,-1.0413023E-1,8.59397E-2],"split_indices":[8,1,1,7,3,13,3,0,0,0,0,0,0,0,0],"split_type":[0,0,0,0,0,0,0,0,0,0,0,0,0,0,0],"sum_hessian":[4.03E2,2.9E2,1.13E2,1.96E2,9.4E1,8E1,3.3E1,6.4E1,1.32E2,3E1,6.4E1,1.6E1,6.4E1,2.3E1,1E1],"tree_param":{"num_deleted":"0","num_feature":"20","num_nodes":"15","size_leaf_vector":"1"}},{"base_weights":[-5.8042377E-2,-7.6732713E-1,2.008302E0,-4.0644217E-1,-3.6745954E0,2.2289236E0,-4.3401092E-2,2.7787985E-2,-1.5412086E-1,-3.283222E-1,-1.9533825E-1,1.20464E-1,2.5154874E-1],"categories":[],"categories_nodes":[],"categories_segments":[],"categories_sizes":[],"default_left":[0,0,0,0,0,0,0,0,0,0,0,0,0],"id":8,"left_children":[1,3,5,7,9,11,-1,-1,-1,-1,-1,-1,-1],"loss_changes":[5.907105E2,3.1322247E2,5.9190857E1,3.0776358E2,7.384918E0,5.81062E1,0E0,0E0,0E0,0E0,0E0,0E0,0E0],"parents":[2147483647,0,0,1,1,2,2,3,3,4,4,5,5],"right_children":[2,4,6,8,10,12,-1,-1,-1,-1,-1,-1,-1],"split_conditions":[1.5857142E1,1E0,1E0,1E0,5E0,5E0,-4.3401092E-2,2.7787985E-2,-1.5412086E-1,-3.283222E-1,-1.9533825E-1,1.20464E-1,2.5154874E-1],"split_indices":[19,14,14,13,0,0,0,0,0,0,0,0,0],"split_type":[0,0,0,0,0,0,0,0,0,0,0,0,0],"sum_hessian":[4.01E2,2.99E2,1.02E2,2.67E2,3.2E1,9.4E1,8E0,1.79E2,8.8E1,2.2E1,1E1,5.4E1,4E1],"tree_param":{"num_deleted":"0","num_feature":"20","num_nodes":"13","size_leaf_vector":"1"}},{"base_weights":[-3.8822982E-2,-1.8828644E0,6.4130133E-1,-2.0802386E0,7.336865E-2,1.7423245E-1,2.6374516E0,-1.459835E-1,-3.2584864E-1,3.7539415E-2,-2.0491643E-1,1.4189552E-1,3.0006382E-1],"categories":[],"categories_nodes":[],"categories_segments":[],"categories_sizes":[],"default_left":[0,0,0,0,0,0,0,0,0,0,0,0,0],"id":9,"left_children":[1,3,5,7,-1,9,11,-1,-1,-1,-1,-1,-1],"loss_changes":[5.166868E2,6.3262756E1,2.801466E2,4.5451508E1,0E0,1.9890976E2,4.810669E1,0E0,0E0,0E0,0E0,0E0,0E0],"parents":[2147483647,0,0,1,1,2,2,3,3,5,5,6,6],"right_children":[2,4,6,8,-1,10,12,-1,-1,-1,-1,-1,-1],"split_conditions":[1.3142858E1,3.43E1,1.7428572E1,1E0,7.336865E-2,1E0,1E0,-1.459835E-1,-3.2584864E-1,3.7539415E-2,-2.0491643E-1,1.4189552E-1,3.0006382E-1],"split_indices":[19,7,19,14,0,14,1,0,0,0,0,0,0],"split_type":[0,0,0,0,0,0,0,0,0,0,0,0,0],"sum_hessian":[4.1E2,1.1E2,3E2,1.03E2,7E0,2.44E2,5.6E1,9.3E1,1E1,2.21E2,2.3E1,3.3E1,2.3E1],"tree_param":{"num_deleted":"0","num_feature":"20","num_nodes":"13","size_leaf_vector":"1"}},{"base_weights":[3.7487116E-2,-1.3920835E0,8.0715525E-1,-2.4460466E0,-7.353008E-1,1.0955907E0,-2.0975485E0,-1.6857041E-1,-2.5288132E-1,-1.0997879E-1,8.263776E-2,2.9444456E-2,1.8009292E-1,-2.2368072E-1,-2.1005489E-2],"categories":[],"categories_nodes":[],"categories_segments":[],"categories_sizes":[],"default_left":[0,0,0,0,0,0,0,0,0,0,0,0,0,0,0],"id":10,"left_children":[1,3,5,7,9,11,13,-1,-1,-1,-1,-1,-1,-1,-1],"loss_changes":[4.6214136E2,9.992667E1,2.3101279E2,6.856262E0,1.0544733E2,2.084841E2,3.1276794E1,0E0,0E0,0E0,0E0,0E0,0E0,0E0,0E0],"parents":[2147483647,0,0,1,1,2,2,3,3,4,4,5,5,6,6],"right_children":[2,4,6,8,10,12,14,-1,-1,-1,-1,-1,-1,-1,-1],"split_conditions":[1.3571428E1,1.2142858E1,1E0,8.6E1,5E0,5E0,1.6571428E1,-1.6857041E-1,-2.5288132E-1,-1.0997879E-1,8.263776E-2,2.9444456E-2,1.8009292E-1,-2.2368072E-1,-2.1005489E-2],"split_indices":[19,19,14,9,0,0,19,0,0,0,0,0,0,0,0],"split_type":[0,0,0,0,0,0,0,0,0,0,0,0,0,0,0],"sum_hessian":[4.18E2,1.46E2,2.72E2,5.5E1,9.1E1,2.48E2,2.4E1,4E1,1.5E1,6.7E1,2.4E1,1.53E2,9.5E1,1.7E1,7E0],"tree_param":{"num_deleted":"0","num_feature":"20","num_nodes":"15","size_leaf_vector":"1"}},{"base_weights":[4.3738365E-2,-5.531511E-1,2.0419328E0,-9.8298055E-1,1.0025913E0,1.5642056E0,3.9726481E0,-1.5458825E-1,1.1393622E-2,4.0983003E-2,1.6637284E-1,5.5731382E-2,1.8098234E-1,3.9863974E-1,2.0158264E-1],"categories":[],"categories_nodes":[],"categories_segments":[],"categories_sizes":[],"default_left":[0,0,0,0,0,0,0,0,0,0,0,0,0,0,0],"id":11,"left_children":[1,3,5,7,9,11,13,-1,-1,-1,-1,-1,-1,-1,-1],"loss_changes":[4.6152707E2,2.0025912E2,7.582022E1,2.5030444E2,3.323461E1,4.260489E1,1.2323212E1,0E0,0E0,0E0,0E0,0E0,0E0,0E0,0E0],"parents":[2147483647,0,0,1,1,2,2,3,3,4,4,5,5,6,6],"right_children":[2,4,6,8,10,12,14,-1,-1,-1,-1,-1,-1,-1,-1],"split_conditions":[1.6285715E1,1E0,1.8857143E1,1E0,5E0,3.09E1,6.5E0,-1.5458825E-1,1.1393622E-2,4.0983003E-2,1.6637284E-1,5.5731382E-2,1.8098234E-1,3.9863974E-1,2.0158264E-1],"split_indices":[19,11,19,12,0,7,8,0,0,0,0,0,0,0,0],"split_type":[0,0,0,0,0,0,0,0,0,0,0,0,0,0,0],"sum_hessian":[3.85E2,2.97E2,8.8E1,2.33E2,6.4E1,7.2E1,1.6E1,1.26E2,1.07E2,4.5E1,1.9E1,3.3E1,3.9E1,8E0,8E0],"tree_param":{"num_deleted":"0","num_feature":"20","num_nodes":"15","size_leaf_vector":"1"}},{"base_weights":[-2.2774743E-2,-4.4323662E-1,2.0733576E0,-1.0405986E0,8.5904264E-1,1.6144823E0,3.5844883E-1,-5.6793604E-2,-2.609686E-1,1.1806704E-1,-7.6340534E-2,1.6285703E-1,2.389243E-2],"categories":[],"categories_nodes":[],"categories_segments":[],"categories_sizes":[],"default_left":[0,0,0,0,0,0,0,0,0,0,0,0,0],"id":12,"left_children":[1,3,5,7,9,11,-1,-1,-1,-1,-1,-1,-1],"loss_changes":[3.481521E2,2.568354E2,6.561066E1,1.6366524E2,1.17730736E2,3.0961884E1,0E0,0E0,0E0,0E0,0E0,0E0,0E0],"parents":[2147483647,0,0,1,1,2,2,3,3,4,4,5,5],"right_children":[2,4,6,8,10,12,-1,-1,-1,-1,-1,-1,-1],"split_conditions":[1.7E1,5E0,3.39E1,1E0,1E0,1.43E1,3.5844883E-1,-5.6793604E-2,-2.609686E-1,1.1806704E-1,-7.6340534E-2,1.6285703E-1,2.389243E-2],"split_indices":[19,0,7,14,13,8,0,0,0,0,0,0,0],"split_type":[0,0,0,0,0,0,0,0,0,0,0,0,0],"sum_hessian":[3.93E2,3.28E2,6.5E1,2.25E2,1.03E2,5.6E1,9E0,1.97E2,2.8E1,7.7E1,2.6E1,4.2E1,1.4E1],"tree_param":{"num_deleted":"0","num_feature":"20","num_nodes":"13","size_leaf_vector":"1"}},{"base_weights":[-1.3040436E-2,-6.58381E-1,1.3869567E0,-4.314343E-1,-3.0665307E0,2.032633E0,-7.214916E-2,-1.6002253E-1,-7.271326E-3,-2.8872114E-1,-1.8141355E-1,1.1113893E-1,2.3098972E-1,-7.9860136E-2,1.900035E-1],"categories":[],"categories_nodes":[],"categories_segments":[],"categories_sizes":[],"default_left":[0,0,0,0,0,0,0,0,0,0,0,0,0,0,0],"id":13,"left_children":[1,3,5,7,9,11,13,-1,-1,-1,-1,-1,-1,-1,-1],"loss_changes":[3.5506802E2,1.4565628E2,1.1698793E2,1.317594E2,1.7246704E0,4.3240448E1,9.074484E1,0E0,0E0,0E0,0E0,0E0,0E0,0E0,0E0],"parents":[2147483647,0,0,1,1,2,2,3,3,4,4,5,5,6,6],"right_children":[2,4,6,8,10,12,14,-1,-1,-1,-1,-1,-1,-1,-1],"split_conditions":[1.5285714E1,1E0,1.12E1,1.1857142E1,1.3E1,5E0,1E0,-1.6002253E-1,-7.271326E-3,-2.8872114E-1,-1.8141355E-1,1.1113893E-1,2.3098972E-1,-7.9860136E-2,1.900035E-1],"split_indices":[19,14,8,19,18,0,12,0,0,0,0,0,0,0,0],"split_type":[0,0,0,0,0,0,0,0,0,0,0,0,0,0,0],"sum_hessian":[3.91E2,2.68E2,1.23E2,2.46E2,2.2E1,8.5E1,3.8E1,4.3E1,2.03E2,1.1E1,1.1E1,5E1,3.5E1,2.8E1,1E1],"tree_param":{"num_deleted":"0","num_feature":"20","num_nodes":"15","size_leaf_vector":"1"}},{"base_weights":[5.720349E-2,-7.186632E-1,1.0135437E0,-1.9802035E0,-3.3886752E-1,1.5975674E0,-4.096583E-1,-2.043915E-1,-1.0423341E-1,-3.1387322E-3,-1.03717074E-1,1.02384575E-1,3.073457E-1,-8.320356E-2,7.5902924E-2],"categories":[],"categories_nodes":[],"categories_segments":[],"categories_sizes":[],"default_left":[0,0,0,0,0,0,0,0,0,0,0,0,0,0,0],"id":14,"left_children":[1,3,5,7,9,11,13,-1,-1,-1,-1,-1,-1,-1,-1],"loss_changes":[2.9159244E2,1.0327648E2,1.4695464E2,1.609407E1,4.8139626E1,8.41738E1,4.551764E1,0E0,0E0,0E0,0E0,0E0,0E0,0E0,0E0],"parents":[2147483647,0,0,1,1,2,2,3,3,4,4,5,5,6,6],"right_children":[2,4,6,8,10,12,14,-1,-1,-1,-1,-1,-1,-1,-1],"split_conditions":[1.4428572E1,1.2142858E1,1.38E1,4E0,1.99E1,1.8714285E1,1.6571428E1,-2.043915E-1,-1.0423341E-1,-3.1387322E-3,-1.03717074E-1,1.02384575E-1,3.073457E-1,-8.320356E-2,7.5902924E-2],"split_indices":[19,19,8,0,8,19,19,0,0,0,0,0,0,0,0],"split_type":[0,0,0,0,0,0,0,0,0,0,0,0,0,0,0],"sum_hessian":[3.91E2,2.16E2,1.75E2,4.9E1,1.67E2,1.24E2,5.1E1,2.5E1,2.4E1,1.28E2,3.9E1,1.1E2,1.4E1,3.5E1,1.6E1],"tree_param":{"num_deleted":"0","num_feature":"20","num_nodes":"15","size_leaf_vector":"1"}},{"base_weights":[-7.867175E-2,-7.2591984E-1,1.342675E0,-1.0114884E0,6.503201E-1,-1.2840007E-1,1.6178234E0,-4.9709413E-2,-1.3984516E-1,8.0367535E-2,-7.648113E-2,1.0903491E-1,3.5285082E-1],"categories":[],"categories_nodes":[],"categories_segments":[],"categories_sizes":[],"default_left":[0,0,0,0,0,0,0,0,0,0,0,0,0],"id":15,"left_children":[1,3,5,7,9,-1,11,-1,-1,-1,-1,-1,-1],"loss_changes":[3.615944E2,1.0677432E2,1.0235567E2,6.3257324E1,2.7707771E1,0E0,7.4370026E1,0E0,0E0,0E0,0E0,0E0,0E0],"parents":[2147483647,0,0,1,1,2,2,3,3,4,4,6,6],"right_children":[2,4,6,8,10,-1,12,-1,-1,-1,-1,-1,-1],"split_conditions":[5E0,1.6428572E1,1.2285714E1,1E0,2E1,-1.2840007E-1,1.8714285E1,-4.9709413E-2,-1.3984516E-1,8.0367535E-2,-7.648113E-2,1.0903491E-1,3.5285082E-1],"split_indices":[0,19,19,13,18,0,19,0,0,0,0,0,0],"split_type":[0,0,0,0,0,0,0,0,0,0,0,0,0],"sum_hessian":[3.91E2,2.69E2,1.22E2,2.23E2,4.6E1,1E1,1.12E2,1.47E2,7.6E1,3.8E1,8E0,1.04E2,8E0],"tree_param":{"num_deleted":"0","num_feature":"20","num_nodes":"13","size_leaf_vector":"1"}},{"base_weights":[1.03247985E-2,-1.2353226E0,4.6125692E-1,-1.8430364E0,-7.138912E-1,7.197663E-1,-1.7080297E0,-1.9793144E-1,-1.07888445E-1,3.155582E-2,-9.0339646E-2,9.346359E-2,-5.271764E-2,-1.8039325E-1,6.121666E-3],"categories":[],"categories_nodes":[],"categories_segments":[],"categories_sizes":[],"default_left":[0,0,0,0,0,0,0,0,0,0,0,0,0,0,0],"id":16,"left_children":[1,3,5,7,9,11,13,-1,-1,-1,-1,-1,-1,-1,-1],"loss_changes":[2.1344727E2,3.0663696E1,1.576774E2,1.0978897E1,2.6232573E1,1.5537572E2,2.9472694E1,0E0,0E0,0E0,0E0,0E0,0E0,0E0,0E0],"parents":[2147483647,0,0,1,1,2,2,3,3,4,4,5,5,6,6],"right_children":[2,4,6,8,10,12,14,-1,-1,-1,-1,-1,-1,-1,-1],"split_conditions":[1.3142858E1,2.98E1,1E0,1.4E1,1.4E0,1E0,1.5857142E1,-1.9793144E-1,-1.07888445E-1,3.155582E-2,-9.0339646E-2,9.346359E-2,-5.271764E-2,-1.8039325E-1,6.121666E-3],"split_indices":[19,7,14,2,8,13,19,0,0,0,0,0,0,0,0],"split_type":[0,0,0,0,0,0,0,0,0,0,0,0,0,0,0],"sum_hessian":[3.78E2,1E2,2.78E2,4.5E1,5.5E1,2.49E2,2.9E1,1.8E1,2.7E1,1.5E1,4E1,1.88E2,6.1E1,2.2E1,7E0],"tree_param":{"num_deleted":"0","num_feature":"20","num_nodes":"15","size_leaf_vector":"1"}},{"base_weights":[-1.8446936E-1,-6.088131E-1,1.0682781E0,-1.5063039E0,2.6790577E-1,4.5253292E-1,2.2853143E0,-1.6173863E-1,-3.27094E-2,-2.5450379E-2,7.000567E-2,-9.6412385E-3,8.097369E-2,9.970151E-2,2.7033183E-1],"categories":[],"categories_nodes":[],"categories_segments":[],"categories_sizes":[],"default_left":[0,0,0,0,0,0,0,0,0,0,0,0,0,0,0],"id":17,"left_children":[1,3,5,7,9,11,13,-1,-1,-1,-1,-1,-1,-1,-1],"loss_changes":[2.0158893E2,2.2309363E2,7.087933E1,7.834018E1,5.152208E1,2.0976383E1,3.2111786E1,0E0,0E0,0E0,0E0,0E0,0E0,0E0,0E0],"parents":[2147483647,0,0,1,1,2,2,3,3,4,4,5,5,6,6],"right_children":[2,4,6,8,10,12,14,-1,-1,-1,-1,-1,-1,-1,-1],"split_conditions":[1E0,1E0,3.4E1,5E0,2E-1,2E-1,5E0,-1.6173863E-1,-3.27094E-2,-2.5450379E-2,7.000567E-2,-9.6412385E-3,8.097369E-2,9.970151E-2,2.7033183E-1],"split_indices":[11,12,7,0,4,4,0,0,0,0,0,0,0,0,0],"split_type":[0,0,0,0,0,0,0,0,0,0,0,0,0,0,0],"sum_hessian":[3.77E2,2.82E2,9.5E1,1.39E2,1.43E2,6.4E1,3.1E1,9.4E1,4.5E1,7.3E1,7E1,3.2E1,3.2E1,1.7E1,1.4E1],"tree_param":{"num_deleted":"0","num_feature":"20","num_nodes":"15","size_leaf_vector":"1"}},{"base_weights":[-2.7083006E-2,-5.290711E-1,9.511811E-1,-8.537895E-1,7.55362E-1,1.2055161E-1,1.7798907E0,-8.888462E-2,7.88395E-3,8.844731E-2,-8.940145E-2,4.692308E-2,-6.6919126E-2,1.0483914E-1,2.4883352E-1],"categories":[],"categories_nodes":[],"categories_segments":[],"categories_sizes":[],"default_left":[0,0,0,0,0,0,0,0,0,0,0,0,0,0,0],"id":18,"left_children":[1,3,5,7,9,11,13,-1,-1,-1,-1,-1,-1,-1,-1],"loss_changes":[1.9692978E2,1.1117186E2,9.3382126E1,5.2061005E1,3.6656044E1,3.1259954E1,3.834915E1,0E0,0E0,0E0,0E0,0E0,0E0,0E0,0E0],"parents":[2147483647,0,0,1,1,2,2,3,3,4,4,5,5,6,6],"right_children":[2,4,6,8,10,12,14,-1,-1,-1,-1,-1,-1,-1,-1],"split_conditions":[1E0,1.6428572E1,2E-1,1E0,1.18E1,1.33E1,3.26E1,-8.888462E-2,7.88395E-3,8.844731E-2,-8.940145E-2,4.692308E-2,-6.6919126E-2,1.0483914E-1,2.4883352E-1],"split_indices":[1,19,4,11,8,8,7,0,0,0,0,0,0,0,0],"split_type":[0,0,0,0,0,0,0,0,0,0,0,0,0,0,0],"sum_hessian":[3.99E2,2.64E2,1.35E2,2.11E2,5.3E1,6.8E1,6.7E1,1.66E2,4.5E1,4.5E1,8E0,4.6E1,2.2E1,5.1E1,1.6E1],"tree_param":{"num_deleted":"0","num_feature":"20","num_nodes":"15","size_leaf_vector":"1"}},{"base_weights":[1.1171663E-1,-5.823082E-1,8.5555816E-1,-7.6898766E-1,1.3047827E0,-7.0760465E-1,1.1476593E0,-1.0067399E-1,-1.0291282E-2,1.7188807E-1,5.0613765E-2,-1.539764E-1,1.2949147E-2,6.932505E-2,1.9773105E-1],"categories":[],"categories_nodes":[],"categories_segments":[],"categories_sizes":[],"default_left":[0,0,0,0,0,0,0,0,0,0,0,0,0,0,0],"id":19,"left_children":[1,3,5,7,9,11,13,-1,-1,-1,-1,-1,-1,-1,-1],"loss_changes":[2.0648247E2,7.39202E1,8.894061E1,5.9058617E1,9.38847E0,3.313434E1,5.8487717E1,0E0,0E0,0E0,0E0,0E0,0E0,0E0,0E0],"parents":[2147483647,0,0,1,1,2,2,3,3,4,4,5,5,6,6],"right_children":[2,4,6,8,10,12,14,-1,-1,-1,-1,-1,-1,-1,-1],"split_conditions":[4E0,1.2E1,1.2571428E1,3.14E1,1.5E1,1.2E1,1.7714285E1,-1.0067399E-1,-1.0291282E-2,1.7188807E-1,5.0613765E-2,-1.539764E-1,1.2949147E-2,6.932505E-2,1.9773105E-1],"split_indices":[0,3,19,7,18,18,19,0,0,0,0,0,0,0,0],"split_type":[0,0,0,0,0,0,0,0,0,0,0,0,0,0,0],"sum_hessian":[3.98E2,2.06E2,1.92E2,1.88E2,1.8E1,3E1,1.62E2,1.06E2,8.2E1,7E0,1.1E1,1.2E1,1.8E1,1.35E2,2.7E1],"tree_param":{"num_deleted":"0","num_feature":"20","num_nodes":"15","size_leaf_vector":"1"}},{"base_weights":[8.505411E-2,2.92077E-1,-1.7496865E0,6.708239E-1,-6.8354803E-1,-2.235993E-1,-1.2204227E0,1.4698173E-2,1.2923804E-1,-9.17787E-2,-3.6820017E-3,-1.4615229E-1,9.086511E-3],"categories":[],"categories_nodes":[],"categories_segments":[],"categories_sizes":[],"default_left":[0,0,0,0,0,0,0,0,0,0,0,0,0],"id":20,"left_children":[1,3,5,7,9,-1,11,-1,-1,-1,-1,-1,-1],"loss_changes":[1.5356927E2,1.3459232E2,1.9231697E1,1.2024101E2,3.0087532E1,0E0,2.3687023E1,0E0,0E0,0E0,0E0,0E0,0E0],"parents":[2147483647,0,0,1,1,2,2,3,3,4,4,6,6],"right_children":[2,4,6,8,10,-1,12,-1,-1,-1,-1,-1,-1],"split_conditions":[1E0,1E0,5E0,5E0,2.1E1,-2.235993E-1,5E0,1.4698173E-2,1.2923804E-1,-9.17787E-2,-3.6820017E-3,-1.4615229E-1,9.086511E-3],"split_indices":[14,13,3,0,2,0,0,0,0,0,0,0,0],"split_type":[0,0,0,0,0,0,0,0,0,0,0,0,0],"sum_hessian":[4.02E2,3.62E2,4E1,2.61E2,1.01E2,1.2E1,2.8E1,1.73E2,8.8E1,5.8E1,4.3E1,1.9E1,9E0],"tree_param":{"num_deleted":"0","num_feature":"20","num_nodes":"13","size_leaf_vector":"1"}},{"base_weights":[4.1981284E-2,2.3911205E-1,-1.7785074E0,6.3027036E-1,-7.700986E-1,-1.1192267E-2,-2.1322675E0,9.642509E-3,9.575738E-2,-8.106733E-2,1.2349978E-1,-2.0959409E-1,-1.3665408E-1],"categories":[],"categories_nodes":[],"categories_segments":[],"categories_sizes":[],"default_left":[0,0,0,0,0,0,0,0,0,0,0,0,0],"id":21,"left_children":[1,3,5,7,9,-1,11,-1,-1,-1,-1,-1,-1],"loss_changes":[1.4324185E2,1.4259799E2,2.2286217E1,7.4948105E1,5.8404564E1,0E0,2.0993958E0,0E0,0E0,0E0,0E0,0E0,0E0],"parents":[2147483647,0,0,1,1,2,2,3,3,4,4,6,6],"right_children":[2,4,6,8,10,-1,12,-1,-1,-1,-1,-1,-1],"split_conditions":[1E0,1E0,2.52E1,2E-1,1.2E1,-1.1192267E-2,5E0,9.642509E-3,9.575738E-2,-8.106733E-2,1.2349978E-1,-2.0959409E-1,-1.3665408E-1],"split_indices":[14,13,7,4,3,0,3,0,0,0,0,0,0],"split_type":[0,0,0,0,0,0,0,0,0,0,0,0,0],"sum_hessian":[3.97E2,3.59E2,3.8E1,2.59E2,1E2,7E0,3.1E1,1.37E2,1.22E2,9.1E1,9E0,1.2E1,1.9E1],"tree_param":{"num_deleted":"0","num_feature":"20","num_nodes":"13","size_leaf_vector":"1"}},{"base_weights":[7.830132E-2,-3.2272792E-1,8.9891434E-1,-1.2836896E-1,-2.051686E0,1.0427121E0,-4.4257928E-2,-7.745666E-2,1.4004161E-2,-2.123882E-1,-1.3084516E-1,2.757043E-2,1.18913025E-1],"categories":[],"categories_nodes":[],"categories_segments":[],"categories_sizes":[],"default_left":[0,0,0,0,0,0,0,0,0,0,0,0,0],"id":22,"left_children":[1,3,5,7,9,11,-1,-1,-1,-1,-1,-1,-1],"loss_changes":[1.2633727E2,8.641275E1,2.6892342E1,5.9551617E1,2.1406708E0,3.5089455E1,0E0,0E0,0E0,0E0,0E0,0E0,0E0],"parents":[2147483647,0,0,1,1,2,2,3,3,4,4,5,5],"right_children":[2,4,6,8,10,12,-1,-1,-1,-1,-1,-1,-1],"split_conditions":[5E0,1E0,1E0,4E0,7E0,1.4E1,-4.4257928E-2,-7.745666E-2,1.4004161E-2,-2.123882E-1,-1.3084516E-1,2.757043E-2,1.18913025E-1],"split_indices":[0,14,14,3,3,18,0,0,0,0,0,0,0],"split_type":[0,0,0,0,0,0,0,0,0,0,0,0,0],"sum_hessian":[3.82E2,2.57E2,1.25E2,2.32E2,2.5E1,1.14E2,1.1E1,6.1E1,1.71E2,8E0,1.7E1,4.5E1,6.9E1],"tree_param":{"num_deleted":"0","num_feature":"20","num_nodes":"13","size_leaf_vector":"1"}},{"base_weights":[-2.7637754E-2,-7.7120405E-1,3.871113E-1,-1.5695287E0,-3.59873E-1,5.532172E-1,-1.268897E0,-1.5569529E-1,-4.682781E-2,3.8794698E-3,-1.0190728E-1,-3.3179827E-2,6.896793E-2,-1.2842174E-1,-7.9980426E-2],"categories":[],"categories_nodes":[],"categories_segments":[],"categories_sizes":[],"default_left":[0,0,0,0,0,0,0,0,0,0,0,0,0,0,0],"id":23,"left_children":[1,3,5,7,9,11,13,-1,-1,-1,-1,-1,-1,-1,-1],"loss_changes":[1.24893326E2,4.703035E1,7.2213715E1,1.7E1,3.6277706E1,7.1221924E1,5.418472E-1,0E0,0E0,0E0,0E0,0E0,0E0,0E0,0E0],"parents":[2147483647,0,0,1,1,2,2,3,3,4,4,5,5,6,6],"right_children":[2,4,6,8,10,12,14,-1,-1,-1,-1,-1,-1,-1,-1],"split_conditions":[1.3E1,4E0,1E0,5E0,1E0,4E0,1.2E1,-1.5569529E-1,-4.682781E-2,3.8794698E-3,-1.0190728E-1,-3.3179827E-2,6.896793E-2,-1.2842174E-1,-7.9980426E-2],"split_indices":[18,3,14,0,13,3,2,0,0,0,0,0,0,0,0],"split_type":[0,0,0,0,0,0,0,0,0,0,0,0,0,0,0],"sum_hessian":[4.03E2,1.44E2,2.59E2,4.8E1,9.6E1,2.36E2,2.3E1,3.4E1,1.4E1,6.7E1,2.9E1,5.7E1,1.79E2,8E0,1.5E1],"tree_param":{"num_deleted":"0","num_feature":"20","num_nodes":"15","size_leaf_vector":"1"}},{"base_weights":[-5.0573234E-2,-2.0364243E-1,1.4232973E0,1.4648701E-1,-9.984907E-1,9.202559E-3,1.9719852E0,3.1300254E-2,-1.1678037E-1,-1.4224413E-1,-5.091761E-2,9.077219E-2,2.741144E-1],"categories":[],"categories_nodes":[],"categories_segments":[],"categories_sizes":[],"default_left":[0,0,0,0,0,0,0,0,0,0,0,0,0],"id":24,"left_children":[1,3,5,7,9,-1,11,-1,-1,-1,-1,-1,-1],"loss_changes":[8.8714485E1,9.922951E1,2.6311974E1,9.806255E1,2.9605835E1,0E0,2.7730797E1,0E0,0E0,0E0,0E0,0E0,0E0],"parents":[2147483647,0,0,1,1,2,2,3,3,4,4,6,6],"right_children":[2,4,6,8,10,-1,12,-1,-1,-1,-1,-1,-1],"split_conditions":[1.2E1,1E0,2.9E1,1E0,1.8E1,9.202559E-3,5E0,3.1300254E-2,-1.1678037E-1,-1.4224413E-1,-5.091761E-2,9.077219E-2,2.741144E-1],"split_indices":[3,13,7,14,8,0,0,0,0,0,0,0,0],"split_type":[0,0,0,0,0,0,0,0,0,0,0,0,0],"sum_hessian":[3.91E2,3.55E2,3.6E1,2.47E2,1.08E2,1.1E1,2.5E1,2.15E2,3.2E1,3.3E1,7.5E1,1.7E1,8E0],"tree_param":{"num_deleted":"0","num_feature":"20","num_nodes":"13","size_leaf_vector":"1"}},{"base_weights":[-5.070941E-2,-5.823169E-1,3.9487478E-1,-4.3287566E-1,-1.872517E0,1.00765176E-1,1.2055376E0,-1.2352471E-1,-2.313386E-2,-2.0073816E-1,-7.0811786E-2,-7.284247E-4,1.4357449E-1,1.14390925E-1,-2.8609254E-3],"categories":[],"categories_nodes":[],"categories_segments":[],"categories_sizes":[],"default_left":[0,0,0,0,0,0,0,0,0,0,0,0,0,0,0],"id":25,"left_children":[1,3,5,7,9,11,13,-1,-1,-1,-1,-1,-1,-1,-1],"loss_changes":[9.66403E1,3.5028866E1,5.2795517E1,2.6361359E1,9.68972E0,3.0556463E1,1.6495651E1,0E0,0E0,0E0,0E0,0E0,0E0,0E0,0E0],"parents":[2147483647,0,0,1,1,2,2,3,3,4,4,5,5,6,6],"right_children":[2,4,6,8,10,12,14,-1,-1,-1,-1,-1,-1,-1,-1],"split_conditions":[1.4E1,1E0,1E0,1.1285714E1,2.63E1,1E0,2.7E1,-1.2352471E-1,-2.313386E-2,-2.0073816E-1,-7.0811786E-2,-7.284247E-4,1.4357449E-1,1.14390925E-1,-2.8609254E-3],"split_indices":[19,14,11,19,8,5,2,0,0,0,0,0,0,0,0],"split_type":[0,0,0,0,0,0,0,0,0,0,0,0,0,0,0],"sum_hessian":[4.06E2,1.85E2,2.21E2,1.67E2,1.8E1,1.63E2,5.8E1,1.8E1,1.49E2,1E1,8E0,1.54E2,9E0,4.9E1,9E0],"tree_param":{"num_deleted":"0","num_feature":"20","num_nodes":"15","size_leaf_vector":"1"}},{"base_weights":[-2.628852E-2,-5.783111E-1,5.1749396E-1,-1.2447785E0,-2.1444732E-1,2.6619634E-1,1.9239306E0,-1.3111359E-1,-7.744908E-2,-7.9740375E-2,-1.9387613E-3,-7.139562E-3,9.588034E-2,1.0091047E-1,2.869616E-1],"categories":[],"categories_nodes":[],"categories_segments":[],"categories_sizes":[],"default_left":[0,0,0,0,0,0,0,0,0,0,0,0,0,0,0],"id":26,"left_children":[1,3,5,7,9,11,13,-1,-1,-1,-1,-1,-1,-1,-1],"loss_changes":[1.18570885E2,4.724913E1,6.979937E1,5.911377E0,1.901266E1,5.645271E1,2.84833E1,0E0,0E0,0E0,0E0,0E0,0E0,0E0,0E0],"parents":[2147483647,0,0,1,1,2,2,3,3,4,4,5,5,6,6],"right_children":[2,4,6,8,10,12,14,-1,-1,-1,-1,-1,-1,-1,-1],"split_conditions":[4E0,1.3E1,1.9E1,7.69E1,4E0,1E0,1.775E1,-1.3111359E-1,-7.744908E-2,-7.9740375E-2,-1.9387613E-3,-7.139562E-3,9.588034E-2,1.0091047E-1,2.869616E-1],"split_indices":[0,18,18,9,3,11,19,0,0,0,0,0,0,0,0],"split_type":[0,0,0,0,0,0,0,0,0,0,0,0,0,0,0],"sum_hessian":[3.93E2,1.95E2,1.98E2,6.8E1,1.27E2,1.69E2,2.9E1,2.6E1,4.2E1,2.4E1,1.03E2,1.23E2,4.6E1,2.2E1,7E0],"tree_param":{"num_deleted":"0","num_feature":"20","num_nodes":"15","size_leaf_vector":"1"}},{"base_weights":[-7.269777E-2,-4.036121E-1,3.417398E-1,-8.8421196E-1,3.4836116E-1,1.6330276E-1,2.1047768E-1,-8.306338E-2,-4.3867165E-3,4.9920785E-3,1.3331215E-1,-6.767781E-2,3.678779E-2],"categories":[],"categories_nodes":[],"categories_segments":[],"categories_sizes":[],"default_left":[0,0,0,0,0,0,0,0,0,0,0,0,0],"id":27,"left_children":[1,3,5,7,9,-1,11,-1,-1,-1,-1,-1,-1],"loss_changes":[5.650446E1,8.3073586E1,4.0372543E1,1.7822853E1,3.3800373E1,0E0,4.5434532E1,0E0,0E0,0E0,0E0,0E0,0E0],"parents":[2147483647,0,0,1,1,2,2,3,3,4,4,6,6],"right_children":[2,4,6,8,10,-1,12,-1,-1,-1,-1,-1,-1],"split_conditions":[3.14E1,1E0,3.15E1,1.6428572E1,1.9E1,1.6330276E-1,1.3E1,-8.306338E-2,-4.3867165E-3,4.9920785E-3,1.3331215E-1,-6.767781E-2,3.678779E-2],"split_indices":[7,12,7,19,18,0,19,0,0,0,0,0,0],"split_type":[0,0,0,0,0,0,0,0,0,0,0,0,0],"sum_hessian":[4.1E2,2.28E2,1.82E2,1.39E2,8.9E1,1.2E1,1.7E2,1.17E2,2.2E1,7.4E1,1.5E1,3.2E1,1.38E2],"tree_param":{"num_deleted":"0","num_feature":"20","num_nodes":"13","size_leaf_vector":"1"}},{"base_weights":[6.4944796E-2,-9.334292E-1,2.3414828E-1,-4.3988404E-1,-1.2088337E0,-5.6314304E-2,7.6437265E-1,-9.621826E-2,2.3617083E-2,-2.7080163E-2,-1.15604274E-1,-1.4998476E-2,7.025134E-2,8.9492224E-2,-4.3640066E-2],"categories":[],"categories_nodes":[],"categories_segments":[],"categories_sizes":[],"default_left":[0,0,0,0,0,0,0,0,0,0,0,0,0,0,0],"id":28,"left_children":[1,3,5,7,9,11,13,-1,-1,-1,-1,-1,-1,-1,-1],"loss_changes":[6.643148E1,7.199463E0,5.17976E1,1.2700968E1,6.8942337E0,2.687787E1,5.5839355E1,0E0,0E0,0E0,0E0,0E0,0E0,0E0,0E0],"parents":[2147483647,0,0,1,1,2,2,3,3,4,4,5,5,6,6],"right_children":[2,4,6,8,10,12,14,-1,-1,-1,-1,-1,-1,-1,-1],"split_conditions":[1.2285714E1,1.1E1,5E0,4E0,7E0,1.2E1,1E0,-9.621826E-2,2.3617083E-2,-2.7080163E-2,-1.15604274E-1,-1.4998476E-2,7.025134E-2,8.9492224E-2,-4.3640066E-2],"split_indices":[19,17,0,0,2,3,13,0,0,0,0,0,0,0,0],"split_type":[0,0,0,0,0,0,0,0,0,0,0,0,0,0,0],"sum_hessian":[3.91E2,5.6E1,3.35E2,2.1E1,3.5E1,2.17E2,1.18E2,1E1,1.1E1,8E0,2.7E1,1.91E2,2.6E1,9.3E1,2.5E1],"tree_param":{"num_deleted":"0","num_feature":"20","num_nodes":"15","size_leaf_vector":"1"}},{"base_weights":[-2.2469861E-2,-2.9817575E-1,5.803327E-1,-6.236946E-1,2.2529216E-2,2.734603E-1,2.068325E-1,-7.9900414E-2,-1.1942013E-2,4.8944727E-2,-3.188273E-2,-1.5961522E-2,6.658645E-2],"categories":[],"categories_nodes":[],"categories_segments":[],"categories_sizes":[],"default_left":[0,0,0,0,0,0,0,0,0,0,0,0,0],"id":29,"left_children":[1,3,5,7,9,11,-1,-1,-1,-1,-1,-1,-1],"loss_changes":[6.831067E1,2.9459597E1,7.863833E1,2.4750473E1,3.5727715E1,3.0042152E1,0E0,0E0,0E0,0E0,0E0,0E0,0E0],"parents":[2147483647,0,0,1,1,2,2,3,3,4,4,5,5],"right_children":[2,4,6,8,10,12,-1,-1,-1,-1,-1,-1,-1],"split_conditions":[1.7E1,4E0,3.34E1,3.15E1,1E0,1E0,2.068325E-1,-7.9900414E-2,-1.1942013E-2,4.8944727E-2,-3.188273E-2,-1.5961522E-2,6.658645E-2],"split_indices":[18,0,7,7,15,12,0,0,0,0,0,0,0],"split_type":[0,0,0,0,0,0,0,0,0,0,0,0,0],"sum_hessian":[4.09E2,2.81E2,1.28E2,1.39E2,1.42E2,1.12E2,1.6E1,7.7E1,6.2E1,5.9E1,8.3E1,6.1E1,5.1E1],"tree_param":{"num_deleted":"0","num_feature":"20","num_nodes":"13","size_leaf_vector":"1"}},{"base_weights":[-3.975245E-2,-3.6763316E-1,5.5156595E-1,-5.78985E-1,4.5261976E-1,2.8446242E-1,1.6783231E0,-5.3589977E-2,7.441924E-2,5.9050664E-2,-5.6297354E-2,3.7445728E-2,-8.687848E-2,8.5408635E-2,2.0870224E-1],"categories":[],"categories_nodes":[],"categories_segments":[],"categories_sizes":[],"default_left":[0,0,0,0,0,0,0,0,0,0,0,0,0,0,0],"id":30,"left_children":[1,3,5,7,9,11,13,-1,-1,-1,-1,-1,-1,-1,-1],"loss_changes":[7.717204E1,4.4643986E1,4.2239388E1,2.8603859E1,1.801772E1,2.969075E1,1.2520645E1,0E0,0E0,0E0,0E0,0E0,0E0,0E0,0E0],"parents":[2147483647,0,0,1,1,2,2,3,3,4,4,5,5,6,6],"right_children":[2,4,6,8,10,12,14,-1,-1,-1,-1,-1,-1,-1,-1],"split_conditions":[5E0,1.6428572E1,3.29E1,1.2E1,1.43E1,1E0,1.7E1,-5.3589977E-2,7.441924E-2,5.9050664E-2,-5.6297354E-2,3.7445728E-2,-8.687848E-2,8.5408635E-2,2.0870224E-1],"split_indices":[0,19,7,3,8,14,18,0,0,0,0,0,0,0,0],"split_type":[0,0,0,0,0,0,0,0,0,0,0,0,0,0,0],"sum_hessian":[3.96E2,2.55E2,1.41E2,2.03E2,5.2E1,1.15E2,2.6E1,1.92E2,1.1E1,4.2E1,1E1,1.02E2,1.3E1,1.7E1,9E0],"tree_param":{"num_deleted":"0","num_feature":"20","num_nodes":"15","size_leaf_vector":"1"}},{"base_weights":[-2.627301E-2,8.95074E-2,-1.119665E0,-8.2209535E-2,7.752709E-1,-1.72076E-2,-1.3533804E0,-2.515261E-2,3.2019697E-2,4.683584E-2,1.6302957E-1,-1.3838133E-1,-7.7057324E-2],"categories":[],"categories_nodes":[],"categories_segments":[],"categories_sizes":[],"default_left":[0,0,0,0,0,0,0,0,0,0,0,0,0],"id":31,"left_children":[1,3,5,7,9,-1,11,-1,-1,-1,-1,-1,-1],"loss_changes":[5.0241497E1,4.23455E1,7.7268677E0,3.238827E1,1.603695E1,0E0,2.7124977E0,0E0,0E0,0E0,0E0,0E0,0E0],"parents":[2147483647,0,0,1,1,2,2,3,3,4,4,6,6],"right_children":[2,4,6,8,10,-1,12,-1,-1,-1,-1,-1,-1],"split_conditions":[1E0,1.6571428E1,2.52E1,5E0,3.46E1,-1.72076E-2,1.5E1,-2.515261E-2,3.2019697E-2,4.683584E-2,1.6302957E-1,-1.3838133E-1,-7.7057324E-2],"split_indices":[14,19,7,0,7,0,8,0,0,0,0,0,0],"split_type":[0,0,0,0,0,0,0,0,0,0,0,0,0],"sum_hessian":[3.95E2,3.58E2,3.7E1,2.87E2,7.1E1,8E0,2.9E1,1.94E2,9.3E1,6.3E1,8E0,1.3E1,1.6E1],"tree_param":{"num_deleted":"0","num_feature":"20","num_nodes":"13","size_leaf_vector":"1"}},{"base_weights":[-5.2253842E-2,4.6809036E-2,-9.989026E-1,-2.8892478E-1,3.693553E-1,-1.3890433E-1,-6.61113E-1,-3.3174463E-2,5.1725466E-2,1.3420908E-2,7.657002E-2,-7.8385465E-2,-2.7212866E-2],"categories":[],"categories_nodes":[],"categories_segments":[],"categories_sizes":[],"default_left":[0,0,0,0,0,0,0,0,0,0,0,0,0],"id":32,"left_children":[1,3,5,7,9,-1,11,-1,-1,-1,-1,-1,-1],"loss_changes":[3.66296E1,3.8442066E1,8.044338E0,2.073584E1,2.1275032E1,0E0,2.4153109E0,0E0,0E0,0E0,0E0,0E0,0E0],"parents":[2147483647,0,0,1,1,2,2,3,3,4,4,6,6],"right_children":[2,4,6,8,10,-1,12,-1,-1,-1,-1,-1,-1],"split_conditions":[1E0,2E-1,1.5E1,1.2E1,1E0,-1.3890433E-1,1.6E1,-3.3174463E-2,5.1725466E-2,1.3420908E-2,7.657002E-2,-7.8385465E-2,-2.7212866E-2],"split_indices":[14,4,8,3,11,0,17,0,0,0,0,0,0],"split_type":[0,0,0,0,0,0,0,0,0,0,0,0,0],"sum_hessian":[3.89E2,3.53E2,3.6E1,1.73E2,1.8E2,1E1,2.6E1,1.53E2,2E1,1.35E2,4.5E1,1.2E1,1.4E1],"tree_param":{"num_deleted":"0","num_feature":"20","num_nodes":"13","size_leaf_vector":"1"}},{"base_weights":[-5.124335E-2,3.1941274E-1,-4.3105114E-1,-1.2967214E-1,7.236354E-1,1.0423561E-1,-5.014748E-1,-5.189338E-2,1.7233662E-2,7.076136E-2,-6.079395E-2,-5.8892813E-2,-1.928983E-3],"categories":[],"categories_nodes":[],"categories_segments":[],"categories_sizes":[],"default_left":[0,0,0,0,0,0,0,0,0,0,0,0,0],"id":33,"left_children":[1,3,5,7,9,-1,11,-1,-1,-1,-1,-1,-1],"loss_changes":[5.6450027E1,3.6950417E1,2.4824024E1,1.7516918E1,2.6211906E1,0E0,2.1372375E1,0E0,0E0,0E0,0E0,0E0,0E0],"parents":[2147483647,0,0,1,1,2,2,3,3,4,4,6,6],"right_children":[2,4,6,8,10,-1,12,-1,-1,-1,-1,-1,-1],"split_conditions":[1E0,4E0,8E0,7.71E1,1E0,1.0423561E-1,1.5E1,-5.189338E-2,1.7233662E-2,7.076136E-2,-6.079395E-2,-5.8892813E-2,-1.928983E-3],"split_indices":[15,0,17,9,14,0,18,0,0,0,0,0,0],"split_type":[0,0,0,0,0,0,0,0,0,0,0,0,0],"sum_hessian":[3.99E2,2.02E2,1.97E2,9.6E1,1.06E2,7E0,1.9E2,3.8E1,5.8E1,9.6E1,1E1,1.27E2,6.3E1],"tree_param":{"num_deleted":"0","num_feature":"20","num_nodes":"13","size_leaf_vector":"1"}},{"base_weights":[5.8865964E-2,-1.926086E-1,5.29058E-1,-6.0444856E-1,3.9066676E-2,3.4363508E-1,1.8512719E0,-7.3720574E-2,-8.94341E-3,-3.407052E-2,2.00114E-2,-7.971164E-2,4.1665263E-2,7.209957E-2,2.1499147E-1],"categories":[],"categories_nodes":[],"categories_segments":[],"categories_sizes":[],"default_left":[0,0,0,0,0,0,0,0,0,0,0,0,0,0,0],"id":34,"left_children":[1,3,5,7,9,11,13,-1,-1,-1,-1,-1,-1,-1,-1],"loss_changes":[4.4800488E1,2.3596313E1,3.1704166E1,1.3788521E1,1.5708927E1,2.8293203E1,1.0251526E1,0E0,0E0,0E0,0E0,0E0,0E0,0E0,0E0],"parents":[2147483647,0,0,1,1,2,2,3,3,4,4,5,5,6,6],"right_children":[2,4,6,8,10,12,14,-1,-1,-1,-1,-1,-1,-1,-1],"split_conditions":[5E0,5E0,3.43E1,3.21E1,2.9E1,3E0,1.7E1,-7.3720574E-2,-8.94341E-3,-3.407052E-2,2.00114E-2,-7.971164E-2,4.1665263E-2,7.209957E-2,2.1499147E-1],"split_indices":[0,3,7,7,7,3,18,0,0,0,0,0,0,0,0],"split_type":[0,0,0,0,0,0,0,0,0,0,0,0,0,0,0],"sum_hessian":[3.77E2,2.46E2,1.31E2,8.8E1,1.58E2,1.16E2,1.5E1,5.3E1,3.5E1,4.9E1,1.09E2,1.3E1,1.03E2,8E0,7E0],"tree_param":{"num_deleted":"0","num_feature":"20","num_nodes":"15","size_leaf_vector":"1"}},{"base_weights":[1.0599844E-1,2.073646E-1,-8.243533E-1,4.475178E-1,-3.5783E-1,3.5329323E-2,-1.1153972E0,-2.550628E-2,4.7896292E-2,-4.4079237E-2,1.4444661E-1,-1.04628734E-1,-2.986231E-2],"categories":[],"categories_nodes":[],"categories_segments":[],"categories_sizes":[],"default_left":[0,0,0,0,0,0,0,0,0,0,0,0,0],"id":35,"left_children":[1,3,5,7,9,-1,11,-1,-1,-1,-1,-1,-1],"loss_changes":[3.7415718E1,4.861782E1,1.4868973E1,2.927473E1,4.5696083E1,0E0,4.0655403E0,0E0,0E0,0E0,0E0,0E0,0E0],"parents":[2147483647,0,0,1,1,2,2,3,3,4,4,6,6],"right_children":[2,4,6,8,10,-1,12,-1,-1,-1,-1,-1,-1],"split_conditions":[1E0,1E0,9E0,1.1E1,1.2E1,3.5329323E-2,5.26E1,-2.550628E-2,4.7896292E-2,-4.4079237E-2,1.4444661E-1,-1.04628734E-1,-2.986231E-2],"split_indices":[14,13,2,18,3,0,8,0,0,0,0,0,0],"split_type":[0,0,0,0,0,0,0,0,0,0,0,0,0],"sum_hessian":[3.94E2,3.56E2,3.8E1,2.5E2,1.06E2,7E0,3.1E1,4.1E1,2.09E2,9.8E1,8E0,2.4E1,7E0],"tree_param":{"num_deleted":"0","num_feature":"20","num_nodes":"13","size_leaf_vector":"1"}},{"base_weights":[-2.6915912E-2,-1.9854493E-1,5.6617653E-1,-5.641564E-1,1.7071234E-1,9.165644E-1,9.115934E-3,-1.0777563E-1,-2.2749556E-2,-1.8354462E-2,4.4272393E-2,9.872852E-3,1.3186397E-1,-5.9262753E-2,6.072523E-2],"categories":[],"categories_nodes":[],"categories_segments":[],"categories_sizes":[],"default_left":[0,0,0,0,0,0,0,0,0,0,0,0,0,0,0],"id":36,"left_children":[1,3,5,7,9,11,13,-1,-1,-1,-1,-1,-1,-1,-1],"loss_changes":[3.9909355E1,4.1141674E1,1.7158873E1,3.3120457E1,2.340624E1,3.1119308E1,2.0246042E1,0E0,0E0,0E0,0E0,0E0,0E0,0E0,0E0],"parents":[2147483647,0,0,1,1,2,2,3,3,4,4,5,5,6,6],"right_children":[2,4,6,8,10,12,14,-1,-1,-1,-1,-1,-1,-1,-1],"split_conditions":[1E0,1E0,1.8E0,1.8E1,7.61E1,4E0,1E0,-1.0777563E-1,-2.2749556E-2,-1.8354462E-2,4.4272393E-2,9.872852E-3,1.3186397E-1,-5.9262753E-2,6.072523E-2],"split_indices":[11,12,8,8,9,0,16,0,0,0,0,0,0,0,0],"split_type":[0,0,0,0,0,0,0,0,0,0,0,0,0,0,0],"sum_hessian":[3.9E2,3.03E2,8.7E1,1.52E2,1.51E2,5.3E1,3.4E1,3.9E1,1.13E2,7.4E1,7.7E1,2.6E1,2.7E1,1.7E1,1.7E1],"tree_param":{"num_deleted":"0","num_feature":"20","num_nodes":"15","size_leaf_vector":"1"}},{"base_weights":[-1.6710524E-2,-3.444153E-1,3.1102782E-1,-4.0683177E-1,8.1943415E-2,3.0170938E-2,8.5562986E-1,8.811836E-2,-3.7592877E-2,-3.2382485E-2,4.0446762E-2,8.278378E-2,-4.9298048E-2],"categories":[],"categories_nodes":[],"categories_segments":[],"categories_sizes":[],"default_left":[0,0,0,0,0,0,0,0,0,0,0,0,0],"id":37,"left_children":[1,3,5,7,-1,9,11,-1,-1,-1,-1,-1,-1],"loss_changes":[4.296063E1,1.749652E1,3.0556372E1,1.8778763E1,0E0,2.770768E1,1.8574036E1,0E0,0E0,0E0,0E0,0E0,0E0],"parents":[2147483647,0,0,1,1,2,2,3,3,5,5,6,6],"right_children":[2,4,6,8,-1,10,12,-1,-1,-1,-1,-1,-1],"split_conditions":[2E-1,1E0,5E0,8E0,8.1943415E-2,3.09E1,4.41E1,8.811836E-2,-3.7592877E-2,-3.2382485E-2,4.0446762E-2,8.278378E-2,-4.9298048E-2],"split_indices":[4,5,0,17,0,7,8,0,0,0,0,0,0],"split_type":[0,0,0,0,0,0,0,0,0,0,0,0,0],"sum_hessian":[3.98E2,1.99E2,1.99E2,1.91E2,8E0,1.32E2,6.7E1,7E0,1.84E2,6.9E1,6.3E1,6E1,7E0],"tree_param":{"num_deleted":"0","num_feature":"20","num_nodes":"13","size_leaf_vector":"1"}},{"base_weights":[-8.434782E-3,-1.1276881E-1,1.0574218E0,-2.1947815E-1,9.067888E-1,-5.1969094E-3,1.4758956E0,-4.4254284E-2,-6.4389023E-4,-5.453151E-3,1.3525277E-1,6.335136E-2,1.9183286E-1],"categories":[],"categories_nodes":[],"categories_segments":[],"categories_sizes":[],"default_left":[0,0,0,0,0,0,0,0,0,0,0,0,0],"id":38,"left_children":[1,3,5,7,9,-1,11,-1,-1,-1,-1,-1,-1],"loss_changes":[4.6148716E1,4.131716E1,1.7488441E1,2.4189995E1,2.7644014E1,0E0,1.509708E1,0E0,0E0,0E0,0E0,0E0,0E0],"parents":[2147483647,0,0,1,1,2,2,3,3,4,4,6,6],"right_children":[2,4,6,8,10,-1,12,-1,-1,-1,-1,-1,-1],"split_conditions":[1.2E1,3.43E1,2.9E1,1.3E1,2E-1,-5.1969094E-3,5E0,-4.4254284E-2,-6.4389023E-4,-5.453151E-3,1.3525277E-1,6.335136E-2,1.9183286E-1],"split_indices":[3,7,7,18,4,0,0,0,0,0,0,0,0],"split_type":[0,0,0,0,0,0,0,0,0,0,0,0,0],"sum_hessian":[4.13E2,3.77E2,3.6E1,3.42E2,3.5E1,1E1,2.6E1,1.32E2,2.1E2,1.6E1,1.9E1,1.6E1,1E1],"tree_param":{"num_deleted":"0","num_feature":"20","num_nodes":"13","size_leaf_vector":"1"}},{"base_weights":[-6.6606864E-2,-1.2549058E-1,1.3621526E0,-1.8113747E-1,1.0920478E0,3.5202704E-2,1.6902019E-1,-2.3195574E-2,3.6639486E-2,-6.391213E-3,1.6108343E-1],"categories":[],"categories_nodes":[],"categories_segments":[],"categories_sizes":[],"default_left":[0,0,0,0,0,0,0,0,0,0,0],"id":39,"left_children":[1,3,5,7,9,-1,-1,-1,-1,-1,-1],"loss_changes":[3.1875828E1,2.4782764E1,9.426922E0,2.4331753E1,1.745916E1,0E0,0E0,0E0,0E0,0E0,0E0],"parents":[2147483647,0,0,1,1,2,2,3,3,4,4],"right_children":[2,4,6,8,10,-1,-1,-1,-1,-1,-1],"split_conditions":[2.2E1,1E0,3.09E1,3.33E1,1.9E1,3.5202704E-2,1.6902019E-1,-2.3195574E-2,3.6639486E-2,-6.391213E-3,1.6108343E-1],"split_indices":[18,5,7,7,2,0,0,0,0,0,0],"split_type":[0,0,0,0,0,0,0,0,0,0,0],"sum_hessian":[3.76E2,3.62E2,1.4E1,3.47E2,1.5E1,7E0,7E0,2.97E2,5E1,7E0,8E0],"tree_param":{"num_deleted":"0","num_feature":"20","num_nodes":"11","size_leaf_vector":"1"}},{"base_weights":[7.9405874E-2,-1.2148745E-2,9.1100806E-1,-5.5736107E-1,1.2608166E-1,-6.735948E-2,1.4653083E0,-6.9639914E-2,-1.7581195E-2,1.6858649E-2,-7.5490855E-2,6.492611E-2,2.1524915E-1],"categories":[],"categories_nodes":[],"categories_segments":[],"categories_sizes":[],"default_left":[0,0,0,0,0,0,0,0,0,0,0,0,0],"id":40,"left_children":[1,3,5,7,9,-1,11,-1,-1,-1,-1,-1,-1],"loss_changes":[2.9941908E1,2.6829132E1,3.9135887E1,7.40921E0,2.5908619E1,0E0,2.1811989E1,0E0,0E0,0E0,0E0,0E0,0E0],"parents":[2147483647,0,0,1,1,2,2,3,3,4,4,6,6],"right_children":[2,4,6,8,10,-1,12,-1,-1,-1,-1,-1,-1],"split_conditions":[1.2E1,1.2571428E1,2.9E1,1.3E1,4.64E1,-6.735948E-2,9.9E0,-6.9639914E-2,-1.7581195E-2,1.6858649E-2,-7.5490855E-2,6.492611E-2,2.1524915E-1],"split_indices":[3,19,7,18,8,0,8,0,0,0,0,0,0],"split_type":[0,0,0,0,0,0,0,0,0,0,0,0,0],"sum_hessian":[3.92E2,3.54E2,3.8E1,7.1E1,2.83E2,9E0,2.9E1,3.6E1,3.5E1,2.63E2,2E1,2E1,9E0],"tree_param":{"num_deleted":"0","num_feature":"20","num_nodes":"13","size_leaf_vector":"1"}},{"base_weights":[-2.9901909E-3,-2.6483482E-1,2.4310872E-1,7.778699E-1,-3.6641127E-1,1.3068767E-1,1.1021452E0,1.5099542E-2,1.1326344E-1,-4.3112654E-2,1.0573351E-2,2.1912908E-2,-2.960255E-2,2.1031208E-2,1.5943104E-1],"categories":[],"categories_nodes":[],"categories_segments":[],"categories_sizes":[],"default_left":[0,0,0,0,0,0,0,0,0,0,0,0,0,0,0],"id":41,"left_children":[1,3,5,7,9,11,13,-1,-1,-1,-1,-1,-1,-1,-1],"loss_changes":[2.5002758E1,2.0192776E1,1.9158394E1,6.1056185E0,1.4867844E1,1.2865648E1,1.664742E1,0E0,0E0,0E0,0E0,0E0,0E0,0E0,0E0],"parents":[2147483647,0,0,1,1,2,2,3,3,4,4,5,5,6,6],"right_children":[2,4,6,8,10,12,14,-1,-1,-1,-1,-1,-1,-1,-1],"split_conditions":[2E-1,9E0,3.42E1,1.3E1,1E0,8.61E1,7E0,1.5099542E-2,1.1326344E-1,-4.3112654E-2,1.0573351E-2,2.1912908E-2,-2.960255E-2,2.1031208E-2,1.5943104E-1],"split_indices":[4,17,7,18,11,9,3,0,0,0,0,0,0,0,0],"split_type":[0,0,0,0,0,0,0,0,0,0,0,0,0,0,0],"sum_hessian":[3.86E2,1.87E2,1.99E2,1.6E1,1.71E2,1.77E2,2.2E1,9E0,7E0,1.27E2,4.4E1,1.38E2,3.9E1,1.2E1,1E1],"tree_param":{"num_deleted":"0","num_feature":"20","num_nodes":"15","size_leaf_vector":"1"}},{"base_weights":[3.8345136E-2,-1.7336807E-1,4.4147506E-1,-6.221435E-1,3.93314E-2,3.0356848E-1,1.3045482E-1,-2.9831769E-2,-9.560393E-2,1.2467247E-2,-6.34763E-2,3.561454E-2,-4.015484E-2],"categories":[],"categories_nodes":[],"categories_segments":[],"categories_sizes":[],"default_left":[0,0,0,0,0,0,0,0,0,0,0,0,0],"id":42,"left_children":[1,3,5,7,9,11,-1,-1,-1,-1,-1,-1,-1],"loss_changes":[3.396235E1,2.4943869E1,2.1953627E1,1.1533447E1,1.7388103E1,1.4367574E1,0E0,0E0,0E0,0E0,0E0,0E0,0E0],"parents":[2147483647,0,0,1,1,2,2,3,3,4,4,5,5],"right_children":[2,4,6,8,10,12,-1,-1,-1,-1,-1,-1,-1],"split_conditions":[5E0,5E0,3.43E1,1.5E1,1E0,3.36E1,1.3045482E-1,-2.9831769E-2,-9.560393E-2,1.2467247E-2,-6.34763E-2,3.561454E-2,-4.015484E-2],"split_indices":[0,3,7,17,14,8,0,0,0,0,0,0,0],"split_type":[0,0,0,0,0,0,0,0,0,0,0,0,0],"sum_hessian":[3.96E2,2.6E2,1.36E2,8.3E1,1.77E2,1.23E2,1.3E1,5.9E1,2.4E1,1.56E2,2.1E1,1.05E2,1.8E1],"tree_param":{"num_deleted":"0","num_feature":"20","num_nodes":"13","size_leaf_vector":"1"}},{"base_weights":[4.5274083E-2,-2.2172922E-2,1.0808021E0,-3.484706E-1,1.2502867E-1,1.5209385E0,2.4921374E-2,8.26049E-3,-4.879357E-2,2.175664E-2,-2.9401237E-2,1.5429688E-1,7.3743895E-2],"categories":[],"categories_nodes":[],"categories_segments":[],"categories_sizes":[],"default_left":[0,0,0,0,0,0,0,0,0,0,0,0,0],"id":43,"left_children":[1,3,5,7,9,11,-1,-1,-1,-1,-1,-1,-1],"loss_changes":[2.7413109E1,1.7769442E1,7.634041E0,1.3649947E1,1.8553135E1,1.8583031E0,0E0,0E0,0E0,0E0,0E0,0E0,0E0],"parents":[2147483647,0,0,1,1,2,2,3,3,4,4,5,5],"right_children":[2,4,6,8,10,12,-1,-1,-1,-1,-1,-1,-1],"split_conditions":[1.8285715E1,4E0,1E0,2.97E1,1E0,2E1,2.4921374E-2,8.26049E-3,-4.879357E-2,2.175664E-2,-2.9401237E-2,1.5429688E-1,7.3743895E-2],"split_indices":[19,3,10,7,13,17,0,0,0,0,0,0,0],"split_type":[0,0,0,0,0,0,0,0,0,0,0,0,0],"sum_hessian":[3.91E2,3.68E2,2.3E1,1.14E2,2.54E2,1.4E1,9E0,4.2E1,7.2E1,1.96E2,5.8E1,7E0,7E0],"tree_param":{"num_deleted":"0","num_feature":"20","num_nodes":"13","size_leaf_vector":"1"}},{"base_weights":[3.3722818E-2,-1.4623523E-2,1.2734675E-1,-1.0538797E-1,4.9307066E-1,2.7312967E-3,-3.5185065E-2,5.7279724E-3,9.211972E-2],"categories":[],"categories_nodes":[],"categories_segments":[],"categories_sizes":[],"default_left":[0,0,0,0,0,0,0,0,0],"id":44,"left_children":[1,3,-1,5,7,-1,-1,-1,-1],"loss_changes":[2.7534136E1,1.6406693E1,0E0,1.4111025E1,1.4890719E1,0E0,0E0,0E0,0E0],"parents":[2147483647,0,0,1,1,3,3,4,4],"right_children":[2,4,-1,6,8,-1,-1,-1,-1],"split_conditions":[1.9E1,6E0,1.2734675E-1,1E0,3.12E1,2.7312967E-3,-3.5185065E-2,5.7279724E-3,9.211972E-2],"split_indices":[19,0,0,13,7,0,0,0,0],"split_type":[0,0,0,0,0,0,0,0,0],"sum_hessian":[3.64E2,3.54E2,1E1,3.01E2,5.3E1,2.13E2,8.8E1,3.3E1,2E1],"tree_param":{"num_deleted":"0","num_feature":"20","num_nodes":"9","size_leaf_vector":"1"}},{"base_weights":[-1.0593557E-3,-7.7962756E-2,6.664692E-1,-1.1504106E-1,1.2384588E-1,-1.3895927E-2,1.0204595E0,-3.299367E-2,1.306898E-3,3.491212E-2,1.1736853E-1],"categories":[],"categories_nodes":[],"categories_segments":[],"categories_sizes":[],"default_left":[0,0,0,0,0,0,0,0,0,0,0],"id":45,"left_children":[1,3,5,7,-1,-1,9,-1,-1,-1,-1],"loss_changes":[2.0374823E1,2.162724E1,1.2379589E1,1.36457615E1,0E0,0E0,6.905884E0,0E0,0E0,0E0,0E0],"parents":[2147483647,0,0,1,1,2,2,3,3,6,6],"right_children":[2,4,6,8,-1,-1,10,-1,-1,-1,-1],"split_conditions":[1.2E1,1.875E1,2.9E1,1E1,1.2384588E-1,-1.3895927E-2,1E0,-3.299367E-2,1.306898E-3,3.491212E-2,1.1736853E-1],"split_indices":[3,19,7,2,0,0,10,0,0,0,0],"split_type":[0,0,0,0,0,0,0,0,0,0,0],"sum_hessian":[3.95E2,3.55E2,4E1,3.48E2,7E0,1.2E1,2.8E1,1.06E2,2.42E2,1.3E1,1.5E1],"tree_param":{"num_deleted":"0","num_feature":"20","num_nodes":"11","size_leaf_vector":"1"}},{"base_weights":[8.343652E-2,-1.8060094E-1,3.5751763E-1,-4.0600145E-1,1.15254074E-1,-2.9648192E-2,7.6463777E-1,-1.751729E-2,-6.086416E-2,6.964637E-2,-1.6938899E-2,3.976204E-2,-1.27629135E-2,-2.863071E-2,7.755741E-2],"categories":[],"categories_nodes":[],"categories_segments":[],"categories_sizes":[],"default_left":[0,0,0,0,0,0,0,0,0,0,0,0,0,0,0],"id":46,"left_children":[1,3,5,7,9,11,13,-1,-1,-1,-1,-1,-1,-1,-1],"loss_changes":[2.9954187E1,1.4120419E1,3.2027493E1,7.7868423E0,2.2913464E1,7.258834E0,2.3115738E1,0E0,0E0,0E0,0E0,0E0,0E0,0E0,0E0],"parents":[2147483647,0,0,1,1,2,2,3,3,4,4,5,5,6,6],"right_children":[2,4,6,8,10,12,14,-1,-1,-1,-1,-1,-1,-1,-1],"split_conditions":[4E0,8.02E1,2E-1,1.6E1,8.4E1,1.1E1,7E-1,-1.751729E-2,-6.086416E-2,6.964637E-2,-1.6938899E-2,3.976204E-2,-1.27629135E-2,-2.863071E-2,7.755741E-2],"split_indices":[0,9,4,17,9,17,8,0,0,0,0,0,0,0,0],"split_type":[0,0,0,0,0,0,0,0,0,0,0,0,0,0,0],"sum_hessian":[4.12E2,2.1E2,2.02E2,1.19E2,9.1E1,1.04E2,9.8E1,7.9E1,4E1,2.7E1,6.4E1,2E1,8.4E1,1.5E1,8.3E1],"tree_param":{"num_deleted":"0","num_feature":"20","num_nodes":"15","size_leaf_vector":"1"}},{"base_weights":[-1.4976315E-3,-1.9163719E-1,3.8149518E-1,-6.3160497E-1,-5.8493644E-2,-4.237507E-2,6.93354E-1,7.8824945E-3,-7.7276126E-2,-4.0326223E-2,7.3755262E-3,1.2119575E-2,-5.9263878E-2,3.1612113E-2,1.290978E-1],"categories":[],"categories_nodes":[],"categories_segments":[],"categories_sizes":[],"default_left":[0,0,0,0,0,0,0,0,0,0,0,0,0,0,0],"id":47,"left_children":[1,3,5,7,9,11,13,-1,-1,-1,-1,-1,-1,-1,-1],"loss_changes":[3.007391E1,1.612392E1,1.81456E1,1.572744E1,1.4352277E1,8.106908E0,2.1024296E1,0E0,0E0,0E0,0E0,0E0,0E0,0E0,0E0],"parents":[2147483647,0,0,1,1,2,2,3,3,4,4,5,5,6,6],"right_children":[2,4,6,8,10,12,14,-1,-1,-1,-1,-1,-1,-1,-1],"split_conditions":[5E0,1.1E1,1.4E1,2.9E1,2.86E1,1.7E1,1E1,7.8824945E-3,-7.7276126E-2,-4.0326223E-2,7.3755262E-3,1.2119575E-2,-5.9263878E-2,3.1612113E-2,1.290978E-1],"split_indices":[0,18,18,7,7,17,3,0,0,0,0,0,0,0,0],"split_type":[0,0,0,0,0,0,0,0,0,0,0,0,0,0,0],"sum_hessian":[4.11E2,2.75E2,1.36E2,6.3E1,2.12E2,5.8E1,7.8E1,2E1,4.3E1,5.3E1,1.59E2,4.6E1,1.2E1,6E1,1.8E1],"tree_param":{"num_deleted":"0","num_feature":"20","num_nodes":"15","size_leaf_vector":"1"}},{"base_weights":[-2.9546624E-2,-7.4061644E-1,6.146099E-2,-1.4047309E0,5.3162724E-2,-7.210471E-2,5.761869E-1,-1.5771993E-1,-8.4383756E-2,-4.1263044E-2,3.5498522E-2,-3.0924508E-2,1.782834E-2,3.1757116E-2,1.5493575E-1],"categories":[],"categories_nodes":[],"categories_segments":[],"categories_sizes":[],"default_left":[0,0,0,0,0,0,0,0,0,0,0,0,0,0,0],"id":48,"left_children":[1,3,5,7,9,11,13,-1,-1,-1,-1,-1,-1,-1,-1],"loss_changes":[2.5096151E1,2.3283249E1,2.3696491E1,2.650158E0,4.8946543E0,2.5501371E1,1.6520119E1,0E0,0E0,0E0,0E0,0E0,0E0,0E0,0E0],"parents":[2147483647,0,0,1,1,2,2,3,3,4,4,5,5,6,6],"right_children":[2,4,6,8,10,12,14,-1,-1,-1,-1,-1,-1,-1,-1],"split_conditions":[1E-1,3.19E1,1E0,1.2428572E1,1.3E1,1E0,1.9E1,-1.5771993E-1,-8.4383756E-2,-4.1263044E-2,3.5498522E-2,-3.0924508E-2,1.782834E-2,3.1757116E-2,1.5493575E-1],"split_indices":[8,7,11,19,18,12,18,0,0,0,0,0,0,0,0],"split_type":[0,0,0,0,0,0,0,0,0,0,0,0,0,0,0],"sum_hessian":[3.86E2,4.3E1,3.43E2,2.3E1,2E1,2.73E2,7E1,7E0,1.6E1,8E0,1.2E1,1.32E2,1.41E2,6.3E1,7E0],"tree_param":{"num_deleted":"0","num_feature":"20","num_nodes":"15","size_leaf_vector":"1"}},{"base_weights":[-2.0291727E-2,-9.770608E-2,8.644204E-1,-1.3638186E-1,1.1981972E-1,1.349553E-1,1.171404E-1,-5.9302435E-3,-6.1415177E-2,-8.129797E-2,9.154739E-2],"categories":[],"categories_nodes":[],"categories_segments":[],"categories_sizes":[],"default_left":[0,0,0,0,0,0,0,0,0,0,0],"id":49,"left_children":[1,3,5,7,-1,9,-1,-1,-1,-1,-1],"loss_changes":[2.8088964E1,2.3453587E1,1.4225824E1,1.4436865E1,0E0,1.9755972E1,0E0,0E0,0E0,0E0,0E0],"parents":[2147483647,0,0,1,1,2,2,3,3,5,5],"right_children":[2,4,6,8,-1,10,-1,-1,-1,-1,-1],"split_conditions":[1.2E1,1.8857143E1,2E-1,1E0,1.1981972E-1,2.97E1,1.171404E-1,-5.9302435E-3,-6.1415177E-2,-8.129797E-2,9.154739E-2],"split_indices":[3,19,4,14,0,7,0,0,0,0,0],"split_type":[0,0,0,0,0,0,0,0,0,0,0],"sum_hessian":[4.08E2,3.76E2,3.2E1,3.68E2,8E0,1.5E1,1.7E1,3.36E2,3.2E1,7E0,8E0],"tree_param":{"num_deleted":"0","num_feature":"20","num_nodes":"11","size_leaf_vector":"1"}},{"base_weights":[2.1243257E-2,-2.4006866E-1,2.2977364E-1,3.4712255E-1,-4.1840413E-1,-2.7663282E-1,4.8320124E-1,4.7695898E-2,-2.5953429E-2,9.827584E-4,-4.6715524E-2,-3.7967596E-2,3.8591173E-2,1.3895975E-2,6.565037E-2],"categories":[],"categories_nodes":[],"categories_segments":[],"categories_sizes":[],"default_left":[0,0,0,0,0,0,0,0,0,0,0,0,0,0,0],"id":50,"left_children":[1,3,5,7,9,11,13,-1,-1,-1,-1,-1,-1,-1,-1],"loss_changes":[2.1851648E1,1.878558E1,2.875497E1,7.221254E0,9.780466E0,1.1498191E1,1.5408276E1,0E0,0E0,0E0,0E0,0E0,0E0,0E0,0E0],"parents":[2147483647,0,0,1,1,2,2,3,3,4,4,5,5,6,6],"right_children":[2,4,6,8,10,12,14,-1,-1,-1,-1,-1,-1,-1,-1],"split_conditions":[1.4E1,6E0,1.2E1,1.7142857E1,1E1,6E0,1E0,4.7695898E-2,-2.5953429E-2,9.827584E-4,-4.6715524E-2,-3.7967596E-2,3.8591173E-2,1.3895975E-2,6.565037E-2],"split_indices":[18,2,2,19,18,0,12,0,0,0,0,0,0,0,0],"split_type":[0,0,0,0,0,0,0,0,0,0,0,0,0,0,0],"sum_hessian":[3.99E2,1.77E2,2.22E2,4.1E1,1.36E2,7.4E1,1.48E2,3E1,1.1E1,3.8E1,9.8E1,5.9E1,1.5E1,7.8E1,7E1],"tree_param":{"num_deleted":"0","num_feature":"20","num_nodes":"15","size_leaf_vector":"1"}},{"base_weights":[-6.1284915E-2,-3.481636E-1,5.1063098E-2,1.7346568E-1,-5.476023E-1,5.329625E-1,-1.9574614E-2,-1.6784782E-2,4.196639E-2,-5.9841827E-2,8.848199E-3,1.15795985E-1,-6.894379E-3,-1.1590238E-2,2.2827737E-2],"categories":[],"categories_nodes":[],"categories_segments":[],"categories_sizes":[],"default_left":[0,0,0,0,0,0,0,0,0,0,0,0,0,0,0],"id":51,"left_children":[1,3,5,7,9,11,13,-1,-1,-1,-1,-1,-1,-1,-1],"loss_changes":[1.294508E1,1.1854468E1,9.853206E0,4.4195604E0,1.0906364E1,2.108767E1,9.706475E0,0E0,0E0,0E0,0E0,0E0,0E0,0E0,0E0],"parents":[2147483647,0,0,1,1,2,2,3,3,4,4,5,5,6,6],"right_children":[2,4,6,8,10,12,14,-1,-1,-1,-1,-1,-1,-1,-1],"split_conditions":[4E0,2.97E1,1.1E1,4E0,1E0,1.5E1,1.8E1,-1.6784782E-2,4.196639E-2,-5.9841827E-2,8.848199E-3,1.15795985E-1,-6.894379E-3,-1.1590238E-2,2.2827737E-2],"split_indices":[3,7,17,0,11,2,17,0,0,0,0,0,0,0,0],"split_type":[0,0,0,0,0,0,0,0,0,0,0,0,0,0,0],"sum_hessian":[4E2,1.12E2,2.88E2,3.1E1,8.1E1,3.6E1,2.52E2,1.5E1,1.6E1,6.2E1,1.9E1,1.4E1,2.2E1,1.79E2,7.3E1],"tree_param":{"num_deleted":"0","num_feature":"20","num_nodes":"15","size_leaf_vector":"1"}},{"base_weights":[-3.0343935E-2,-1.4036772E-1,3.60664E-1,-1.7241953E-1,6.673788E-2,2.3558374E-1,1.252107E-1,-3.0109415E-2,2.0740181E-3,-4.4647902E-2,2.9627692E-2],"categories":[],"categories_nodes":[],"categories_segments":[],"categories_sizes":[],"default_left":[0,0,0,0,0,0,0,0,0,0,0],"id":52,"left_children":[1,3,5,7,-1,9,-1,-1,-1,-1,-1],"loss_changes":[1.7041391E1,9.789581E0,1.2720294E1,1.2148878E1,0E0,8.761499E0,0E0,0E0,0E0,0E0,0E0],"parents":[2147483647,0,0,1,1,2,2,3,3,5,5],"right_children":[2,4,6,8,-1,10,-1,-1,-1,-1,-1],"split_conditions":[1E0,1E0,2E1,1E0,6.673788E-2,3.14E1,1.252107E-1,-3.0109415E-2,2.0740181E-3,-4.4647902E-2,2.9627692E-2],"split_indices":[11,5,18,12,0,7,0,0,0,0,0],"split_type":[0,0,0,0,0,0,0,0,0,0,0],"sum_hessian":[3.94E2,3.08E2,8.6E1,2.99E2,9E0,7.9E1,7E0,1.47E2,1.52E2,1.1E1,6.8E1],"tree_param":{"num_deleted":"0","num_feature":"20","num_nodes":"11","size_leaf_vector":"1"}},{"base_weights":[2.9681012E-2,-1.8799427E-1,2.6755565E-1,-3.7068176E-1,1.21821314E-1,1.5419662E-1,1.3605353E0,2.279027E-2,-4.3235675E-2,9.13542E-2,-1.4091369E-2,-2.0690036E-3,4.581971E-2,1.5141939E-1,4.9352977E-2],"categories":[],"categories_nodes":[],"categories_segments":[],"categories_sizes":[],"default_left":[0,0,0,0,0,0,0,0,0,0,0,0,0,0,0],"id":53,"left_children":[1,3,5,7,9,11,13,-1,-1,-1,-1,-1,-1,-1,-1],"loss_changes":[2.0918203E1,1.1990127E1,2.368759E1,1.4958166E1,2.422319E1,1.3284298E1,5.93095E0,0E0,0E0,0E0,0E0,0E0,0E0,0E0,0E0],"parents":[2147483647,0,0,1,1,2,2,3,3,4,4,5,5,6,6],"right_children":[2,4,6,8,10,12,14,-1,-1,-1,-1,-1,-1,-1,-1],"split_conditions":[2E-1,2E1,3.43E1,1.1E1,2.2E1,1E1,7.64E1,2.279027E-2,-4.3235675E-2,9.13542E-2,-1.4091369E-2,-2.0690036E-3,4.581971E-2,1.5141939E-1,4.9352977E-2],"split_indices":[4,2,7,17,2,3,9,0,0,0,0,0,0,0,0],"split_type":[0,0,0,0,0,0,0,0,0,0,0,0,0,0,0],"sum_hessian":[4.02E2,2.1E2,1.92E2,1.32E2,7.8E1,1.75E2,1.7E1,2.7E1,1.05E2,1.7E1,6.1E1,1.23E2,5.2E1,9E0,8E0],"tree_param":{"num_deleted":"0","num_feature":"20","num_nodes":"15","size_leaf_vector":"1"}},{"base_weights":[6.8883225E-2,-7.993439E-2,3.4409553E-1,-4.2401273E-2,-7.480162E-2,2.1954972E-1,1.173123E-1,-1.7084694E-2,1.0983939E-2,2.4747223E-2,-7.0311375E-2],"categories":[],"categories_nodes":[],"categories_segments":[],"categories_sizes":[],"default_left":[0,0,0,0,0,0,0,0,0,0,0],"id":54,"left_children":[1,3,5,7,-1,9,-1,-1,-1,-1,-1],"loss_changes":[1.657655E1,8.391314E0,1.9509783E1,7.8116226E0,0E0,1.2989419E1,0E0,0E0,0E0,0E0,0E0],"parents":[2147483647,0,0,1,1,2,2,3,3,5,5],"right_children":[2,4,6,8,-1,10,-1,-1,-1,-1,-1],"split_conditions":[5E0,3.49E1,1.2E1,2E-1,-7.480162E-2,4.41E1,1.173123E-1,-1.7084694E-2,1.0983939E-2,2.4747223E-2,-7.0311375E-2],"split_indices":[0,7,3,4,0,8,0,0,0,0,0],"split_type":[0,0,0,0,0,0,0,0,0,0,0],"sum_hessian":[4.03E2,2.62E2,1.41E2,2.52E2,1E1,1.28E2,1.3E1,1.29E2,1.23E2,1.19E2,9E0],"tree_param":{"num_deleted":"0","num_feature":"20","num_nodes":"11","size_leaf_vector":"1"}},{"base_weights":[-8.025719E-3,-1.7156847E-1,3.0113924E-1,-4.0608844E-1,-7.5511366E-2,-5.722691E-2,6.352152E-1,1.2183927E-2,-6.2556274E-2,-4.6658967E-2,5.123223E-3,-6.099779E-2,2.0711007E-2,6.2291745E-2,3.7728539E-3],"categories":[],"categories_nodes":[],"categories_segments":[],"categories_sizes":[],"default_left":[0,0,0,0,0,0,0,0,0,0,0,0,0,0,0],"id":55,"left_children":[1,3,5,7,9,11,13,-1,-1,-1,-1,-1,-1,-1,-1],"loss_changes":[2.0022238E1,5.7990937E0,1.6443977E1,1.58662615E1,1.3150526E1,1.5139298E1,5.9435635E0,0E0,0E0,0E0,0E0,0E0,0E0,0E0,0E0],"parents":[2147483647,0,0,1,1,2,2,3,3,4,4,5,5,6,6],"right_children":[2,4,6,8,10,12,14,-1,-1,-1,-1,-1,-1,-1,-1],"split_conditions":[1E0,4E0,1.6E1,2.97E1,2.86E1,4E0,3.21E1,1.2183927E-2,-6.2556274E-2,-4.6658967E-2,5.123223E-3,-6.099779E-2,2.0711007E-2,6.2291745E-2,3.7728539E-3],"split_indices":[1,3,2,7,7,3,7,0,0,0,0,0,0,0,0],"split_type":[0,0,0,0,0,0,0,0,0,0,0,0,0,0,0],"sum_hessian":[3.94E2,2.58E2,1.36E2,7.4E1,1.84E2,6.6E1,7E1,3E1,4.4E1,3.9E1,1.45E2,2E1,4.6E1,5.6E1,1.4E1],"tree_param":{"num_deleted":"0","num_feature":"20","num_nodes":"15","size_leaf_vector":"1"}},{"base_weights":[-1.7064346E-2,-1.2541816E-1,3.3202335E-1,-4.8370197E-1,3.5039883E-3,-3.560049E-2,3.9900306E-1,-2.3137953E-2,-1.6050202E-1,-1.5685083E-2,2.1682607E-2,8.616576E-2,1.4686772E-2],"categories":[],"categories_nodes":[],"categories_segments":[],"categories_sizes":[],"default_left":[0,0,0,0,0,0,0,0,0,0,0,0,0],"id":56,"left_children":[1,3,5,7,9,-1,11,-1,-1,-1,-1,-1,-1],"loss_changes":[1.516957E1,1.4140858E1,5.121393E0,2.3381395E1,1.2120035E1,0E0,1.264369E1,0E0,0E0,0E0,0E0,0E0,0E0],"parents":[2147483647,0,0,1,1,2,2,3,3,4,4,6,6],"right_children":[2,4,6,8,10,-1,12,-1,-1,-1,-1,-1,-1],"split_conditions":[1E0,7.1E0,3.08E1,6.5E0,1E0,-3.560049E-2,3.16E1,-2.3137953E-2,-1.6050202E-1,-1.5685083E-2,2.1682607E-2,8.616576E-2,1.4686772E-2],"split_indices":[11,8,7,8,12,0,7,0,0,0,0,0,0],"split_type":[0,0,0,0,0,0,0,0,0,0,0,0,0],"sum_hessian":[3.99E2,3.05E2,9.4E1,8E1,2.25E2,7E0,8.7E1,7.2E1,8E0,1.29E2,9.6E1,2E1,6.7E1],"tree_param":{"num_deleted":"0","num_feature":"20","num_nodes":"13","size_leaf_vector":"1"}},{"base_weights":[-2.8223421E-2,2.3702959E-2,-5.09385E-1,2.918471E-1,-6.7013785E-2,3.6322825E-2,-7.278086E-1,8.995356E-3,6.0508106E-2,2.3544643E-2,-1.7369783E-2,-7.956445E-2,-1.106779E-3],"categories":[],"categories_nodes":[],"categories_segments":[],"categories_sizes":[],"default_left":[0,0,0,0,0,0,0,0,0,0,0,0,0],"id":57,"left_children":[1,3,5,7,9,-1,11,-1,-1,-1,-1,-1,-1],"loss_changes":[1.0260772E1,9.046442E0,8.750536E0,7.739705E0,1.51411495E1,0E0,6.2610207E0,0E0,0E0,0E0,0E0,0E0,0E0],"parents":[2147483647,0,0,1,1,2,2,3,3,4,4,6,6],"right_children":[2,4,6,8,10,-1,12,-1,-1,-1,-1,-1,-1],"split_conditions":[1E0,1.2E1,9E0,1E1,2.96E1,3.6322825E-2,5.26E1,8.995356E-3,6.0508106E-2,2.3544643E-2,-1.7369783E-2,-7.956445E-2,-1.106779E-3],"split_indices":[14,17,2,3,7,0,8,0,0,0,0,0,0],"split_type":[0,0,0,0,0,0,0,0,0,0,0,0,0],"sum_hessian":[4.09E2,3.7E2,3.9E1,9.3E1,2.77E2,7E0,3.2E1,6.8E1,2.5E1,8.1E1,1.96E2,2.3E1,9E0],"tree_param":{"num_deleted":"0","num_feature":"20","num_nodes":"13","size_leaf_vector":"1"}},{"base_weights":[4.982808E-2,-2.6420975E-1,1.7231794E-1,-1.1668373E-1,-1.2594259E-1,-5.32583E-2,3.82454E-1,-8.177159E-2,2.9934868E-3,-3.0428618E-2,1.7003361E-2,-4.5961183E-2,4.5021538E-2],"categories":[],"categories_nodes":[],"categories_segments":[],"categories_sizes":[],"default_left":[0,0,0,0,0,0,0,0,0,0,0,0,0],"id":58,"left_children":[1,3,5,-1,7,9,11,-1,-1,-1,-1,-1,-1],"loss_changes":[1.4661859E1,1.7470182E1,1.3011727E1,0E0,1.4249348E1,1.1645957E1,2.4826166E1,0E0,0E0,0E0,0E0,0E0,0E0],"parents":[2147483647,0,0,1,1,2,2,4,4,5,5,6,6],"right_children":[2,4,6,-1,8,10,12,-1,-1,-1,-1,-1,-1],"split_conditions":[1E1,2E0,4E0,-1.1668373E-1,6E-1,8.5E0,1.1E1,-8.177159E-2,2.9934868E-3,-3.0428618E-2,1.7003361E-2,-4.5961183E-2,4.5021538E-2],"split_indices":[2,3,0,0,8,8,18,0,0,0,0,0,0],"split_type":[0,0,0,0,0,0,0,0,0,0,0,0,0],"sum_hessian":[3.79E2,1.06E2,2.73E2,1E1,9.6E1,1.32E2,1.41E2,1.4E1,8.2E1,5.9E1,7.3E1,2.2E1,1.19E2],"tree_param":{"num_deleted":"0","num_feature":"20","num_nodes":"13","size_leaf_vector":"1"}},{"base_weights":[-1.0665183E-2,-1.3271315E-1,1.9275245E-1,-1.8966983E-1,6.752491E-1,7.101094E-1,6.595035E-2,-1.0643822E-2,-1.080229E-1,-3.122959E-2,1.3335612E-1,-5.6894E-3,9.3333445E-2,-4.6383213E-2,1.7507173E-2],"categories":[],"categories_nodes":[],"categories_segments":[],"categories_sizes":[],"default_left":[0,0,0,0,0,0,0,0,0,0,0,0,0,0,0],"id":59,"left_children":[1,3,5,7,9,11,13,-1,-1,-1,-1,-1,-1,-1,-1],"loss_changes":[1.0129451E1,1.1858025E1,9.982506E0,1.5511753E1,1.8628702E1,1.0794201E1,1.2365398E1,0E0,0E0,0E0,0E0,0E0,0E0,0E0,0E0],"parents":[2147483647,0,0,1,1,2,2,3,3,4,4,5,5,6,6],"right_children":[2,4,6,8,10,12,14,-1,-1,-1,-1,-1,-1,-1,-1],"split_conditions":[2E1,2.1E1,2.2E1,2E1,3.07E1,2.87E1,2.4E1,-1.0643822E-2,-1.080229E-1,-3.122959E-2,1.3335612E-1,-5.6894E-3,9.3333445E-2,-4.6383213E-2,1.7507173E-2],"split_indices":[2,17,2,17,7,7,2,0,0,0,0,0,0,0,0],"split_type":[0,0,0,0,0,0,0,0,0,0,0,0,0,0,0],"sum_hessian":[4.06E2,2.54E2,1.52E2,2.38E2,1.6E1,2.9E1,1.23E2,2.28E2,1E1,8E0,8E0,1.1E1,1.8E1,2.3E1,1E2],"tree_param":{"num_deleted":"0","num_feature":"20","num_nodes":"15","size_leaf_vector":"1"}},{"base_weights":[-2.282612E-3,-1.1113755E-1,2.1145609E-1,-9.1550805E-2,-7.5588994E-2,9.380009E-2,1.07506365E-1,7.6168966E-3,-2.1418154E-2,3.8713027E-2,-1.19383475E-2],"categories":[],"categories_nodes":[],"categories_segments":[],"categories_sizes":[],"default_left":[0,0,0,0,0,0,0,0,0,0,0],"id":60,"left_children":[1,3,5,-1,7,9,-1,-1,-1,-1,-1],"loss_changes":[9.585034E0,9.92871E0,1.8378616E1,0E0,8.723773E0,1.2116288E1,0E0,0E0,0E0,0E0,0E0],"parents":[2147483647,0,0,1,1,2,2,4,4,5,5],"right_children":[2,4,6,-1,8,10,-1,-1,-1,-1,-1],"split_conditions":[5E0,2E0,1.2E1,-9.1550805E-2,1.7E1,3.01E1,1.07506365E-1,7.6168966E-3,-2.1418154E-2,3.8713027E-2,-1.19383475E-2],"split_indices":[0,2,3,0,2,7,0,0,0,0,0],"split_type":[0,0,0,0,0,0,0,0,0,0,0],"sum_hessian":[4.1E2,2.72E2,1.38E2,8E0,2.64E2,1.26E2,1.2E1,1.4E2,1.24E2,4.8E1,7.8E1],"tree_param":{"num_deleted":"0","num_feature":"20","num_nodes":"11","size_leaf_vector":"1"}},{"base_weights":[4.5031536E-2,-5.3007938E-2,3.2262856E-1,-9.6E-2,7.4664545E-1,-5.813194E-2,4.0681183E-1,7.886938E-3,-2.423377E-2,-2.2525953E-3,1.1434941E-1,1.01243585E-1,1.7529674E-2],"categories":[],"categories_nodes":[],"categories_segments":[],"categories_sizes":[],"default_left":[0,0,0,0,0,0,0,0,0,0,0,0,0],"id":61,"left_children":[1,3,5,7,9,-1,11,-1,-1,-1,-1,-1,-1],"loss_changes":[1.0742692E1,1.0103766E1,9.390571E0,1.1225384E1,7.988886E0,0E0,1.51807785E1,0E0,0E0,0E0,0E0,0E0,0E0],"parents":[2147483647,0,0,1,1,2,2,3,3,4,4,6,6],"right_children":[2,4,6,8,10,-1,12,-1,-1,-1,-1,-1,-1],"split_conditions":[1E0,1E0,3.08E1,1.5E1,1.4714286E1,-5.813194E-2,3.16E1,7.886938E-3,-2.423377E-2,-2.2525953E-3,1.1434941E-1,1.01243585E-1,1.7529674E-2],"split_indices":[11,5,7,17,19,0,7,0,0,0,0,0,0],"split_type":[0,0,0,0,0,0,0,0,0,0,0,0,0],"sum_hessian":[3.93E2,2.91E2,1.02E2,2.77E2,1.4E1,7E0,9.5E1,1.43E2,1.34E2,7E0,7E0,1.6E1,7.9E1],"tree_param":{"num_deleted":"0","num_feature":"20","num_nodes":"13","size_leaf_vector":"1"}},{"base_weights":[-5.2014287E-3,-5.0080527E-2,7.0892423E-1,-7.747256E-2,5.3980645E-2,1.2089623E-1,1.21525906E-1,-2.6963197E-3,-5.2255996E-2,3.58404E-2,-1.7605964E-2],"categories":[],"categories_nodes":[],"categories_segments":[],"categories_sizes":[],"default_left":[0,0,0,0,0,0,0,0,0,0,0],"id":62,"left_children":[1,3,5,7,-1,9,-1,-1,-1,-1,-1],"loss_changes":[1.3008888E1,7.6308374E0,1.1233327E1,9.269458E0,0E0,1.7738917E0,0E0,0E0,0E0,0E0,0E0],"parents":[2147483647,0,0,1,1,2,2,3,3,5,5],"right_children":[2,4,6,8,-1,10,-1,-1,-1,-1,-1],"split_conditions":[2.1E1,1E0,3.08E1,1E0,5.3980645E-2,1.9E1,1.21525906E-1,-2.6963197E-3,-5.2255996E-2,3.58404E-2,-1.7605964E-2],"split_indices":[17,5,7,14,0,18,0,0,0,0,0],"split_type":[0,0,0,0,0,0,0,0,0,0,0],"sum_hessian":[4.04E2,3.81E2,2.3E1,3.68E2,1.3E1,1.4E1,9E0,3.43E2,2.5E1,7E0,7E0],"tree_param":{"num_deleted":"0","num_feature":"20","num_nodes":"11","size_leaf_vector":"1"}},{"base_weights":[3.760604E-4,-3.865071E-1,1.430905E-1,5.620368E-1,-5.4041433E-1,2.0632988E-1,-3.4002882E-1,-2.3983814E-2,1.08389325E-1,1.0114314E-2,-6.170935E-2,-3.6212277E-2,2.1755613E-2,2.2983138E-2,-5.7012234E-2],"categories":[],"categories_nodes":[],"categories_segments":[],"categories_sizes":[],"default_left":[0,0,0,0,0,0,0,0,0,0,0,0,0,0,0],"id":63,"left_children":[1,3,5,7,9,11,13,-1,-1,-1,-1,-1,-1,-1,-1],"loss_changes":[2.1310188E1,1.5486243E1,8.684534E0,1.0666059E1,1.3964796E1,1.0931136E1,7.922867E0,0E0,0E0,0E0,0E0,0E0,0E0,0E0,0E0],"parents":[2147483647,0,0,1,1,2,2,3,3,4,4,5,5,6,6],"right_children":[2,4,6,8,10,12,14,-1,-1,-1,-1,-1,-1,-1,-1],"split_conditions":[4E0,6.73E1,1E0,1E-1,2.9E1,9E0,1.2E1,-2.3983814E-2,1.08389325E-1,1.0114314E-2,-6.170935E-2,-3.6212277E-2,2.1755613E-2,2.2983138E-2,-5.7012234E-2],"split_indices":[3,9,14,8,7,18,18,0,0,0,0,0,0,0,0],"split_type":[0,0,0,0,0,0,0,0,0,0,0,0,0,0,0],"sum_hessian":[3.84E2,1.03E2,2.81E2,1.4E1,8.9E1,2.49E2,3.2E1,7E0,7E0,2.3E1,6.6E1,2.2E1,2.27E2,1.2E1,2E1],"tree_param":{"num_deleted":"0","num_feature":"20","num_nodes":"15","size_leaf_vector":"1"}},{"base_weights":[9.69387E-2,-8.404454E-2,1.2306248E-1,-6.527025E-1,1.5783626E-1,-8.495625E-2,-4.6641086E-3,1.6977318E-2,-2.766955E-2],"categories":[],"categories_nodes":[],"categories_segments":[],"categories_sizes":[],"default_left":[0,0,0,0,0,0,0,0,0],"id":64,"left_children":[1,-1,3,5,7,-1,-1,-1,-1],"loss_changes":[1.2110775E1,0E0,1.0672775E1,4.0622883E0,1.0371311E1,0E0,0E0,0E0,0E0],"parents":[2147483647,0,0,2,2,3,3,4,4],"right_children":[2,-1,4,6,8,-1,-1,-1,-1],"split_conditions":[5.58E1,-8.404454E-2,1.1142858E1,8.33E1,1E0,-8.495625E-2,-4.6641086E-3,1.6977318E-2,-2.766955E-2],"split_indices":[9,0,19,9,14,0,0,0,0],"split_type":[0,0,0,0,0,0,0,0,0],"sum_hessian":[3.99E2,8E0,3.91E2,1.6E1,3.75E2,9E0,7E0,3.39E2,3.6E1],"tree_param":{"num_deleted":"0","num_feature":"20","num_nodes":"9","size_leaf_vector":"1"}},{"base_weights":[-2.714389E-2,-1.1394212E-1,2.5311372E-1,-2.7006048E-1,3.132056E-2,7.209732E-2,1.4196429E-1,-4.937556E-3,-4.823104E-2,4.8358876E-2,-9.05819E-3,1.88574E-2,-4.5950506E-2],"categories":[],"categories_nodes":[],"categories_segments":[],"categories_sizes":[],"default_left":[0,0,0,0,0,0,0,0,0,0,0,0,0],"id":65,"left_children":[1,3,5,7,9,-1,11,-1,-1,-1,-1,-1,-1],"loss_changes":[9.976727E0,7.109114E0,6.8491445E0,1.0426729E1,1.3577887E1,0E0,5.773422E0,0E0,0E0,0E0,0E0,0E0,0E0],"parents":[2147483647,0,0,1,1,2,2,3,3,4,4,6,6],"right_children":[2,4,6,8,10,-1,12,-1,-1,-1,-1,-1,-1],"split_conditions":[1E0,2E-1,1.1E1,1.5E1,1.3428572E1,7.209732E-2,8.54E1,-4.937556E-3,-4.823104E-2,4.8358876E-2,-9.05819E-3,1.88574E-2,-4.5950506E-2],"split_indices":[11,4,17,17,19,0,9,0,0,0,0,0,0],"split_type":[0,0,0,0,0,0,0,0,0,0,0,0,0],"sum_hessian":[4.08E2,3.12E2,9.6E1,1.5E2,1.62E2,1.3E1,8.3E1,9.3E1,5.7E1,3.2E1,1.3E2,7.4E1,9E0],"tree_param":{"num_deleted":"0","num_feature":"20","num_nodes":"13","size_leaf_vector":"1"}},{"base_weights":[-3.034045E-2,2.4316795E-2,-6.277568E-1,-1.384437E-1,2.0641623E-1,-1.0500348E0,-2.220238E-2,-5.681737E-2,-1.5200113E-3,-6.80417E-3,4.3954823E-2,-9.830885E-2,-5.0155066E-2,3.4410544E-2,-3.7840903E-2],"categories":[],"categories_nodes":[],"categories_segments":[],"categories_sizes":[],"default_left":[0,0,0,0,0,0,0,0,0,0,0,0,0,0,0],"id":66,"left_children":[1,3,5,7,9,11,13,-1,-1,-1,-1,-1,-1,-1,-1],"loss_changes":[1.3245817E1,1.1054813E1,8.660182E0,1.343326E1,1.7647715E1,7.242336E-1,3.2626302E0,0E0,0E0,0E0,0E0,0E0,0E0,0E0,0E0],"parents":[2147483647,0,0,1,1,2,2,3,3,4,4,5,5,6,6],"right_children":[2,4,6,8,10,12,14,-1,-1,-1,-1,-1,-1,-1,-1],"split_conditions":[1E0,8.5E0,8.89E1,1.1E1,1E0,2.07E1,1.3285714E1,-5.681737E-2,-1.5200113E-3,-6.80417E-3,4.3954823E-2,-9.830885E-2,-5.0155066E-2,3.4410544E-2,-3.7840903E-2],"split_indices":[14,8,9,18,12,8,19,0,0,0,0,0,0,0,0],"split_type":[0,0,0,0,0,0,0,0,0,0,0,0,0,0,0],"sum_hessian":[4.04E2,3.71E2,3.3E1,1.96E2,1.75E2,1.9E1,1.4E1,3.3E1,1.63E2,9.5E1,8E1,1.2E1,7E0,7E0,7E0],"tree_param":{"num_deleted":"0","num_feature":"20","num_nodes":"15","size_leaf_vector":"1"}},{"base_weights":[4.3184003E-3,-1.3572852E-1,1.4580138E-1,-4.4702065E-1,-4.300309E-2,-9.859666E-2,3.888414E-1,-5.4910764E-2,3.858622E-2,-2.0482475E-2,1.1401693E-2,-2.8379332E-2,1.0804428E-2,6.801758E-2,1.0173823E-2],"categories":[],"categories_nodes":[],"categories_segments":[],"categories_sizes":[],"default_left":[0,0,0,0,0,0,0,0,0,0,0,0,0,0,0],"id":67,"left_children":[1,3,5,7,9,11,13,-1,-1,-1,-1,-1,-1,-1,-1],"loss_changes":[7.925778E0,5.7776804E0,1.1861544E1,1.0565915E1,6.2030315E0,6.034986E0,1.1954923E1,0E0,0E0,0E0,0E0,0E0,0E0,0E0,0E0],"parents":[2147483647,0,0,1,1,2,2,3,3,4,4,5,5,6,6],"right_children":[2,4,6,8,10,12,14,-1,-1,-1,-1,-1,-1,-1,-1],"split_conditions":[2E-1,1.2142858E1,4E0,2.7E1,8E0,7.74E1,1.4571428E1,-5.4910764E-2,3.858622E-2,-2.0482475E-2,1.1401693E-2,-2.8379332E-2,1.0804428E-2,6.801758E-2,1.0173823E-2],"split_indices":[4,19,0,2,3,9,19,0,0,0,0,0,0,0,0],"split_type":[0,0,0,0,0,0,0,0,0,0,0,0,0,0,0],"sum_hessian":[3.98E2,2E2,1.98E2,4.5E1,1.55E2,9.9E1,9.9E1,3.6E1,9E0,7.2E1,8.3E1,4.7E1,5.2E1,3.5E1,6.4E1],"tree_param":{"num_deleted":"0","num_feature":"20","num_nodes":"15","size_leaf_vector":"1"}},{"base_weights":[-4.386883E-2,-5.089326E-1,2.9729951E-2,-1.0496235E0,-1.4381103E-1,-4.1598007E-2,4.991352E-1,-1.0336639E-1,-4.4378646E-2,-3.3700373E-2,4.505434E-2,-4.7765724E-2,1.546847E-3,-2.4347171E-2,7.847816E-2],"categories":[],"categories_nodes":[],"categories_segments":[],"categories_sizes":[],"default_left":[0,0,0,0,0,0,0,0,0,0,0,0,0,0,0],"id":68,"left_children":[1,3,5,7,9,11,13,-1,-1,-1,-1,-1,-1,-1,-1],"loss_changes":[1.3779629E1,1.0695104E1,1.1676976E1,1.9045391E0,6.9049215E0,1.02729645E1,1.8114117E1,0E0,0E0,0E0,0E0,0E0,0E0,0E0,0E0],"parents":[2147483647,0,0,1,1,2,2,3,3,4,4,5,5,6,6],"right_children":[2,4,6,8,10,12,14,-1,-1,-1,-1,-1,-1,-1,-1],"split_conditions":[1E-1,3.14E1,1.9E1,7.34E1,1.7E1,2E0,2.9E1,-1.0336639E-1,-4.4378646E-2,-3.3700373E-2,4.505434E-2,-4.7765724E-2,1.546847E-3,-2.4347171E-2,7.847816E-2],"split_indices":[8,7,18,9,2,3,7,0,0,0,0,0,0,0,0],"split_type":[0,0,0,0,0,0,0,0,0,0,0,0,0,0,0],"sum_hessian":[4.01E2,5.4E1,3.47E2,2.1E1,3.3E1,3.02E2,4.5E1,1.3E1,8E0,2.4E1,9E0,2.9E1,2.73E2,1.7E1,2.8E1],"tree_param":{"num_deleted":"0","num_feature":"20","num_nodes":"15","size_leaf_vector":"1"}},{"base_weights":[-7.800939E-2,-2.517404E-1,8.583552E-2,-3.6712444E-1,1.956471E-1,5.6313485E-1,-6.180257E-3,-6.458222E-2,-1.632683E-2,4.0365838E-2,-6.244703E-2,-1.8988281E-2,6.988995E-2,-3.744161E-2,1.5821377E-2],"categories":[],"categories_nodes":[],"categories_segments":[],"categories_sizes":[],"default_left":[0,0,0,0,0,0,0,0,0,0,0,0,0,0,0],"id":69,"left_children":[1,3,5,7,9,11,13,-1,-1,-1,-1,-1,-1,-1,-1],"loss_changes":[1.1266918E1,9.984843E0,8.968538E0,1.0804749E1,1.2454474E1,8.415649E0,1.629613E1,0E0,0E0,0E0,0E0,0E0,0E0,0E0,0E0],"parents":[2147483647,0,0,1,1,2,2,3,3,4,4,5,5,6,6],"right_children":[2,4,6,8,10,12,14,-1,-1,-1,-1,-1,-1,-1,-1],"split_conditions":[2E-1,1E0,1.3428572E1,6.9E0,2.8E0,1.1E1,5E0,-6.458222E-2,-1.632683E-2,4.0365838E-2,-6.244703E-2,-1.8988281E-2,6.988995E-2,-3.744161E-2,1.5821377E-2],"split_indices":[4,11,19,8,8,17,3,0,0,0,0,0,0,0,0],"split_type":[0,0,0,0,0,0,0,0,0,0,0,0,0,0,0],"sum_hessian":[3.94E2,1.91E2,2.03E2,1.52E2,3.9E1,3.2E1,1.71E2,4E1,1.12E2,3E1,9E0,9E0,2.3E1,5.2E1,1.19E2],"tree_param":{"num_deleted":"0","num_feature":"20","num_nodes":"15","size_leaf_vector":"1"}},{"base_weights":[5.210912E-2,6.5539765E-1,1.6279439E-2,1.0382727E-1,-3.2662915E-3,5.7556804E-2,-3.7769866E-1,2.3643847E-3,8.112558E-2,4.0570814E-3,-4.4902805E-2],"categories":[],"categories_nodes":[],"categories_segments":[],"categories_sizes":[],"default_left":[0,0,0,0,0,0,0,0,0,0,0],"id":70,"left_children":[1,3,5,-1,-1,7,9,-1,-1,-1,-1],"loss_changes":[8.86664E0,1.0353134E1,6.344603E0,0E0,0E0,9.414441E0,2.9436455E0,0E0,0E0,0E0,0E0],"parents":[2147483647,0,0,1,1,2,2,5,5,6,6],"right_children":[2,4,6,-1,-1,8,10,-1,-1,-1,-1],"split_conditions":[6.15E1,3.11E1,1E0,1.0382727E-1,-3.2662915E-3,9.72E1,1.3142858E1,2.3643847E-3,8.112558E-2,4.0570814E-3,-4.4902805E-2],"split_indices":[9,7,14,0,0,9,19,0,0,0,0],"split_type":[0,0,0,0,0,0,0,0,0,0,0],"sum_hessian":[4.1E2,2.2E1,3.88E2,1.1E1,1.1E1,3.52E2,3.6E1,3.43E2,9E0,1.1E1,2.5E1],"tree_param":{"num_deleted":"0","num_feature":"20","num_nodes":"11","size_leaf_vector":"1"}},{"base_weights":[-5.948509E-2,4.1729832E-1,-1.5469182E-1,-4.361506E-2,5.9908503E-1,-2.3063754E-1,1.4671656E-1,7.734094E-2,1.3439733E-2,-6.9917035E-3,-6.734097E-2,-7.531003E-3,8.527678E-2],"categories":[],"categories_nodes":[],"categories_segments":[],"categories_sizes":[],"default_left":[0,0,0,0,0,0,0,0,0,0,0,0,0],"id":71,"left_children":[1,3,5,-1,7,9,11,-1,-1,-1,-1,-1,-1],"loss_changes":[1.7992157E1,1.1874991E1,7.588601E0,0E0,8.702305E0,2.3027237E1,1.49441E1,0E0,0E0,0E0,0E0,0E0,0E0],"parents":[2147483647,0,0,1,1,2,2,4,4,5,5,6,6],"right_children":[2,4,6,-1,8,10,12,-1,-1,-1,-1,-1,-1],"split_conditions":[1.1E1,2.7E1,2.98E1,-4.361506E-2,3.15E1,1E0,2.5E1,7.734094E-2,1.3439733E-2,-6.9917035E-3,-6.734097E-2,-7.531003E-3,8.527678E-2],"split_indices":[17,7,8,0,7,13,2,0,0,0,0,0,0],"split_type":[0,0,0,0,0,0,0,0,0,0,0,0,0],"sum_hessian":[3.94E2,6.5E1,3.29E2,1E1,5.5E1,2.63E2,6.6E1,2.9E1,2.6E1,2.14E2,4.9E1,5.3E1,1.3E1],"tree_param":{"num_deleted":"0","num_feature":"20","num_nodes":"13","size_leaf_vector":"1"}},{"base_weights":[7.8303434E-2,-6.717995E-2,3.360042E-1,5.2985437E-2,-3.8679227E-1,-1.5764385E-1,6.3185805E-1,1.774005E-2,-3.228322E-2,2.7097281E-2,-6.4555064E-2,-4.1873813E-2,2.567778E-2,2.2431467E-2,7.752474E-2],"categories":[],"categories_nodes":[],"categories_segments":[],"categories_sizes":[],"default_left":[0,0,0,0,0,0,0,0,0,0,0,0,0,0,0],"id":72,"left_children":[1,3,5,7,9,11,13,-1,-1,-1,-1,-1,-1,-1,-1],"loss_changes":[1.4759293E1,9.7022295E0,2.084312E1,1.4264067E1,2.1310543E1,9.62368E0,1.0263557E1,0E0,0E0,0E0,0E0,0E0,0E0,0E0,0E0],"parents":[2147483647,0,0,1,1,2,2,3,3,4,4,5,5,6,6],"right_children":[2,4,6,8,10,12,14,-1,-1,-1,-1,-1,-1,-1,-1],"split_conditions":[2E1,1.5E1,1.3E1,1E0,3.06E1,3.01E1,8E0,1.774005E-2,-3.228322E-2,2.7097281E-2,-6.4555064E-2,-4.1873813E-2,2.567778E-2,2.2431467E-2,7.752474E-2],"split_indices":[2,2,18,13,7,7,3,0,0,0,0,0,0,0,0],"split_type":[0,0,0,0,0,0,0,0,0,0,0,0,0,0,0],"sum_hessian":[3.92E2,2.51E2,1.41E2,1.83E2,6.8E1,5.3E1,8.8E1,1.34E2,4.9E1,2.5E1,4.3E1,3E1,2.3E1,4.4E1,4.4E1],"tree_param":{"num_deleted":"0","num_feature":"20","num_nodes":"15","size_leaf_vector":"1"}},{"base_weights":[2.1733865E-2,-9.1211684E-2,1.8792245E-1,1.0637563E-1,-3.8777772E-1,1.0774375E-1,9.3893E-2,3.6784463E-2,-4.4198353E-3,-8.042119E-2,-2.1481391E-2,-2.8855613E-2,2.0115044E-2],"categories":[],"categories_nodes":[],"categories_segments":[],"categories_sizes":[],"default_left":[0,0,0,0,0,0,0,0,0,0,0,0,0],"id":73,"left_children":[1,3,5,7,9,-1,11,-1,-1,-1,-1,-1,-1],"loss_changes":[7.4699016E0,1.3931717E1,1.7403038E1,8.197988E0,6.713293E0,0E0,1.0832317E1,0E0,0E0,0E0,0E0,0E0,0E0],"parents":[2147483647,0,0,1,1,2,2,3,3,4,4,6,6],"right_children":[2,4,6,8,10,-1,12,-1,-1,-1,-1,-1,-1],"split_conditions":[3.14E1,2.97E1,3.15E1,1.2E1,1.1E1,1.0774375E-1,4E0,3.6784463E-2,-4.4198353E-3,-8.042119E-2,-2.1481391E-2,-2.8855613E-2,2.0115044E-2],"split_indices":[7,7,7,18,18,0,3,0,0,0,0,0,0],"split_type":[0,0,0,0,0,0,0,0,0,0,0,0,0],"sum_hessian":[3.96E2,2.36E2,1.6E2,1.42E2,9.4E1,1.1E1,1.49E2,4.4E1,9.8E1,1.4E1,8E1,3.8E1,1.11E2],"tree_param":{"num_deleted":"0","num_feature":"20","num_nodes":"13","size_leaf_vector":"1"}},{"base_weights":[-1.9857973E-2,-7.9322904E-2,6.107519E-1,-4.5250595E-2,-7.4444926E-1,2.9675767E-1,1.3057102E-1,1.161042E-3,-3.824516E-2,-2.4154074E-2,-1.0068901E-1,8.669672E-2,-1.600704E-2],"categories":[],"categories_nodes":[],"categories_segments":[],"categories_sizes":[],"default_left":[0,0,0,0,0,0,0,0,0,0,0,0,0],"id":74,"left_children":[1,3,5,7,9,11,-1,-1,-1,-1,-1,-1,-1],"loss_changes":[1.5230298E1,8.366163E0,1.0721188E1,9.1683235E0,3.699915E0,1.1173487E1,0E0,0E0,0E0,0E0,0E0,0E0,0E0],"parents":[2147483647,0,0,1,1,2,2,3,3,4,4,5,5],"right_children":[2,4,6,8,10,12,-1,-1,-1,-1,-1,-1,-1],"split_conditions":[1.2E1,3.49E1,1.9E1,1.1E1,1.7E1,1.5E1,1.3057102E-1,1.161042E-3,-3.824516E-2,-2.4154074E-2,-1.0068901E-1,8.669672E-2,-1.600704E-2],"split_indices":[3,7,17,3,17,18,0,0,0,0,0,0,0],"split_type":[0,0,0,0,0,0,0,0,0,0,0,0,0],"sum_hessian":[4.04E2,3.7E2,3.4E1,3.53E2,1.7E1,2.7E1,7E0,3.11E2,4.2E1,1E1,7E0,1E1,1.7E1],"tree_param":{"num_deleted":"0","num_feature":"20","num_nodes":"13","size_leaf_vector":"1"}},{"base_weights":[4.9536177E-3,-1.462822E-1,1.6428962E-1,1.818362E-1,-2.561609E-1,7.2046006E-1,5.0102096E-2,-1.014517E-2,6.591087E-2,-1.2509606E-2,-9.3007274E-2,1.1577446E-1,3.6093257E-2,-1.9209489E-3,6.624765E-2],"categories":[],"categories_nodes":[],"categories_segments":[],"categories_sizes":[],"default_left":[0,0,0,0,0,0,0,0,0,0,0,0,0,0,0],"id":75,"left_children":[1,3,5,7,9,11,13,-1,-1,-1,-1,-1,-1,-1,-1],"loss_changes":[1.0193277E1,7.8708725E0,1.303879E1,1.1010756E1,1.4548921E1,6.177662E0,9.945476E0,0E0,0E0,0E0,0E0,0E0,0E0,0E0,0E0],"parents":[2147483647,0,0,1,1,2,2,3,3,4,4,5,5,6,6],"right_children":[2,4,6,8,10,12,14,-1,-1,-1,-1,-1,-1,-1,-1],"split_conditions":[2E-1,1.8E0,1.3428572E1,6E-1,3.39E1,8.9E0,3.46E1,-1.014517E-2,6.591087E-2,-1.2509606E-2,-9.3007274E-2,1.1577446E-1,3.6093257E-2,-1.9209489E-3,6.624765E-2],"split_indices":[4,8,19,8,7,8,7,0,0,0,0,0,0,0,0],"split_type":[0,0,0,0,0,0,0,0,0,0,0,0,0,0,0],"sum_hessian":[4.21E2,2.16E2,2.05E2,5.4E1,1.62E2,3.4E1,1.71E2,3.7E1,1.7E1,1.47E2,1.5E1,8E0,2.6E1,1.57E2,1.4E1],"tree_param":{"num_deleted":"0","num_feature":"20","num_nodes":"15","size_leaf_vector":"1"}},{"base_weights":[-2.3039714E-2,1.596026E-2,-4.6346244E-1,6.669093E-2,-2.914078E-1,-8.505065E-2,-2.286425E-1,2.6039585E-2,-2.228734E-3,-6.485052E-2,-5.1884404E-3,3.023799E-2,-4.7529053E-2],"categories":[],"categories_nodes":[],"categories_segments":[],"categories_sizes":[],"default_left":[0,0,0,0,0,0,0,0,0,0,0,0,0],"id":76,"left_children":[1,3,5,7,9,-1,11,-1,-1,-1,-1,-1,-1],"loss_changes":[6.968344E0,5.8333716E0,4.3908877E0,7.866894E0,6.1731305E0,0E0,5.769243E0,0E0,0E0,0E0,0E0,0E0,0E0],"parents":[2147483647,0,0,1,1,2,2,3,3,4,4,6,6],"right_children":[2,4,6,8,10,-1,12,-1,-1,-1,-1,-1,-1],"split_conditions":[1E0,2.6E1,5E0,2.97E1,4.9E0,-8.505065E-2,1.2E1,2.6039585E-2,-2.228734E-3,-6.485052E-2,-5.1884404E-3,3.023799E-2,-4.7529053E-2],"split_indices":[14,2,3,7,8,0,18,0,0,0,0,0,0],"split_type":[0,0,0,0,0,0,0,0,0,0,0,0,0],"sum_hessian":[4.04E2,3.72E2,3.2E1,3.2E2,5.2E1,8E0,2.4E1,8.5E1,2.35E2,1.5E1,3.7E1,9E0,1.5E1],"tree_param":{"num_deleted":"0","num_feature":"20","num_nodes":"13","size_leaf_vector":"1"}},{"base_weights":[3.524695E-2,-3.1225028E-2,3.6723E-1,-1.118072E-1,2.1466067E-1,1.01477355E-1,1.2073493E0,-2.4291253E-2,3.8109096E-3,1.00999875E-2,8.2118474E-2,4.2328663E-2,-3.0490272E-2,4.29976E-2,1.3340291E-1],"categories":[],"categories_nodes":[],"categories_segments":[],"categories_sizes":[],"default_left":[0,0,0,0,0,0,0,0,0,0,0,0,0,0,0],"id":77,"left_children":[1,3,5,7,9,11,13,-1,-1,-1,-1,-1,-1,-1,-1],"loss_changes":[8.863922E0,6.6606636E0,1.4823077E1,7.755437E0,5.8160963E0,1.0934751E1,4.014015E0,0E0,0E0,0E0,0E0,0E0,0E0,0E0,0E0],"parents":[2147483647,0,0,1,1,2,2,3,3,4,4,5,5,6,6],"right_children":[2,4,6,8,10,12,14,-1,-1,-1,-1,-1,-1,-1,-1],"split_conditions":[3.34E1,2.49E1,1.7E1,1E0,1.7E1,1.5E1,7.25E1,-2.4291253E-2,3.8109096E-3,1.00999875E-2,8.2118474E-2,4.2328663E-2,-3.0490272E-2,4.29976E-2,1.3340291E-1],"split_indices":[7,8,18,12,19,2,9,0,0,0,0,0,0,0,0],"split_type":[0,0,0,0,0,0,0,0,0,0,0,0,0,0,0],"sum_hessian":[4E2,3.34E2,6.6E1,2.52E2,8.2E1,5.1E1,1.5E1,1.14E2,1.38E2,7.5E1,7E0,2.7E1,2.4E1,7E0,8E0],"tree_param":{"num_deleted":"0","num_feature":"20","num_nodes":"15","size_leaf_vector":"1"}},{"base_weights":[-9.1193E-3,-4.1085377E-2,7.322962E-2,-1.24943525E-1,3.6191198E-1,-2.4398244E-3,-2.9191248E-2,-5.077452E-3,6.646623E-2],"categories":[],"categories_nodes":[],"categories_segments":[],"categories_sizes":[],"default_left":[0,0,0,0,0,0,0,0,0],"id":78,"left_children":[1,3,-1,5,7,-1,-1,-1,-1],"loss_changes":[1.1495159E1,1.2749623E1,0E0,7.0554533E0,1.3025792E1,0E0,0E0,0E0,0E0],"parents":[2147483647,0,0,1,1,3,3,4,4],"right_children":[2,4,-1,6,8,-1,-1,-1,-1],"split_conditions":[1E0,3.34E1,7.322962E-2,3.16E1,1.5E1,-2.4398244E-3,-2.9191248E-2,-5.077452E-3,6.646623E-2],"split_indices":[5,7,0,7,18,0,0,0,0],"split_type":[0,0,0,0,0,0,0,0,0],"sum_hessian":[3.87E2,3.75E2,1.2E1,3.11E2,6.4E1,2.24E2,8.7E1,3.4E1,3E1],"tree_param":{"num_deleted":"0","num_feature":"20","num_nodes":"9","size_leaf_vector":"1"}},{"base_weights":[2.071456E-2,-2.0485198E-2,1.0719675E0,1.8828739E-1,-1.4710252E-1,1.2333187E-1,3.7363246E-2,2.1992747E-2,-4.213272E-2,-1.6303368E-2,3.6049392E-2],"categories":[],"categories_nodes":[],"categories_segments":[],"categories_sizes":[],"default_left":[0,0,0,0,0,0,0,0,0,0,0],"id":79,"left_children":[1,3,5,7,9,-1,-1,-1,-1,-1,-1],"loss_changes":[1.7227087E1,1.0151593E1,3.52174E0,9.122126E0,8.1877575E0,0E0,0E0,0E0,0E0,0E0,0E0],"parents":[2147483647,0,0,1,1,2,2,3,3,4,4],"right_children":[2,4,6,8,10,-1,-1,-1,-1,-1,-1],"split_conditions":[1E0,1.3714286E1,1.5E1,1E0,1.8285715E1,1.2333187E-1,3.7363246E-2,2.1992747E-2,-4.213272E-2,-1.6303368E-2,3.6049392E-2],"split_indices":[5,19,18,14,19,0,0,0,0,0,0],"split_type":[0,0,0,0,0,0,0,0,0,0,0],"sum_hessian":[3.96E2,3.82E2,1.4E1,1.44E2,2.38E2,7E0,7E0,1.29E2,1.5E1,2.18E2,2E1],"tree_param":{"num_deleted":"0","num_feature":"20","num_nodes":"11","size_leaf_vector":"1"}},{"base_weights":[3.1010862E-4,1.4440522E-1,-1.422574E-1,2.1776722E-1,-4.352616E-1,-3.4884748E-1,8.332179E-2,-1.2809817E-2,2.7919676E-2,3.6380016E-3,-1.02678806E-1,-7.568012E-2,-1.6050516E-2,-7.038413E-2,1.9910587E-2],"categories":[],"categories_nodes":[],"categories_segments":[],"categories_sizes":[],"default_left":[0,0,0,0,0,0,0,0,0,0,0,0,0,0,0],"id":80,"left_children":[1,3,5,7,9,11,13,-1,-1,-1,-1,-1,-1,-1,-1],"loss_changes":[7.970814E0,8.300037E0,9.119194E0,8.587254E0,9.041733E0,8.82653E0,1.5201453E1,0E0,0E0,0E0,0E0,0E0,0E0,0E0,0E0],"parents":[2147483647,0,0,1,1,2,2,3,3,4,4,5,5,6,6],"right_children":[2,4,6,8,10,12,14,-1,-1,-1,-1,-1,-1,-1,-1],"split_conditions":[1.5E1,1.5857142E1,3.1E1,1.2142858E1,1.6E1,2.8E0,3E0,-1.2809817E-2,2.7919676E-2,3.6380016E-3,-1.02678806E-1,-7.568012E-2,-1.6050516E-2,-7.038413E-2,1.9910587E-2],"split_indices":[17,19,7,19,18,8,3,0,0,0,0,0,0,0,0],"split_type":[0,0,0,0,0,0,0,0,0,0,0,0,0,0,0],"sum_hessian":[3.86E2,1.92E2,1.94E2,1.71E2,2.1E1,1.01E2,9.3E1,4.4E1,1.27E2,1.4E1,7E0,1.9E1,8.2E1,1.3E1,8E1],"tree_param":{"num_deleted":"0","num_feature":"20","num_nodes":"15","size_leaf_vector":"1"}},{"base_weights":[3.180362E-2,1.9912858E-1,-1.4260677E-1,4.2229286E-1,3.0421993E-2,9.556908E-3,-4.2678612E-1,1.0988091E-2,8.593467E-2,-1.5453127E-2,3.6378E-2,-1.5752763E-2,2.3094172E-2,-1.7842883E-2,-8.4933974E-2],"categories":[],"categories_nodes":[],"categories_segments":[],"categories_sizes":[],"default_left":[0,0,0,0,0,0,0,0,0,0,0,0,0,0,0],"id":81,"left_children":[1,3,5,7,9,11,13,-1,-1,-1,-1,-1,-1,-1,-1],"loss_changes":[1.1439598E1,7.5124817E0,8.310672E0,1.5814916E1,1.1000301E1,7.3190107E0,8.417388E0,0E0,0E0,0E0,0E0,0E0,0E0,0E0,0E0],"parents":[2147483647,0,0,1,1,2,2,3,3,4,4,5,5,6,6],"right_children":[2,4,6,8,10,12,14,-1,-1,-1,-1,-1,-1,-1,-1],"split_conditions":[1E0,7.59E1,1.5E1,7.24E1,3.15E1,2E1,2.3E1,1.0988091E-2,8.593467E-2,-1.5453127E-2,3.6378E-2,-1.5752763E-2,2.3094172E-2,-1.7842883E-2,-8.4933974E-2],"split_indices":[15,9,17,9,7,2,2,0,0,0,0,0,0,0,0],"split_type":[0,0,0,0,0,0,0,0,0,0,0,0,0,0,0],"sum_hessian":[3.9E2,1.99E2,1.91E2,8.5E1,1.14E2,1.25E2,6.6E1,6E1,2.5E1,7.5E1,3.9E1,7.2E1,5.3E1,5.1E1,1.5E1],"tree_param":{"num_deleted":"0","num_feature":"20","num_nodes":"15","size_leaf_vector":"1"}},{"base_weights":[-8.082409E-2,-1.8023662E-1,9.277414E-2,3.4636997E-3,-4.2019227E-1,2.4104328E-1,-9.9171504E-2,-2.3397608E-2,1.739764E-2,-7.357175E-2,-1.8006438E-2,4.5813043E-3,7.044206E-2,-3.0875554E-2,1.3833873E-2],"categories":[],"categories_nodes":[],"categories_segments":[],"categories_sizes":[],"default_left":[0,0,0,0,0,0,0,0,0,0,0,0,0,0,0],"id":82,"left_children":[1,3,5,7,9,11,13,-1,-1,-1,-1,-1,-1,-1,-1],"loss_changes":[6.765411E0,1.0981525E1,4.0950484E0,9.055975E0,1.0306105E1,9.459493E0,4.984725E0,0E0,0E0,0E0,0E0,0E0,0E0,0E0,0E0],"parents":[2147483647,0,0,1,1,2,2,3,3,4,4,5,5,6,6],"right_children":[2,4,6,8,10,12,14,-1,-1,-1,-1,-1,-1,-1,-1],"split_conditions":[1.3E1,4.9E0,1.9E1,1E-1,7.1E0,1E0,1.3E1,-2.3397608E-2,1.739764E-2,-7.357175E-2,-1.8006438E-2,4.5813043E-3,7.044206E-2,-3.0875554E-2,1.3833873E-2],"split_indices":[8,8,2,8,8,12,18,0,0,0,0,0,0,0,0],"split_type":[0,0,0,0,0,0,0,0,0,0,0,0,0,0,0],"sum_hessian":[3.9E2,2.48E2,1.42E2,1.41E2,1.07E2,8E1,6.2E1,5.9E1,8.2E1,2.9E1,7.8E1,6.3E1,1.7E1,3E1,3.2E1],"tree_param":{"num_deleted":"0","num_feature":"20","num_nodes":"15","size_leaf_vector":"1"}},{"base_weights":[2.5655799E-2,-4.8353198E-1,7.07836E-2,-9.8981726E-1,5.0608087E-2,-6.447348E-2,9.229331E-2,-4.210694E-2,-1.15535244E-1,6.4440824E-2,-7.184765E-2,5.2350466E-3,6.0662832E-2],"categories":[],"categories_nodes":[],"categories_segments":[],"categories_sizes":[],"default_left":[0,0,0,0,0,0,0,0,0,0,0,0,0],"id":83,"left_children":[1,3,5,7,9,-1,11,-1,-1,-1,-1,-1,-1],"loss_changes":[9.313422E0,8.983583E0,7.0822754E0,2.800249E0,1.2897533E1,0E0,6.4524155E0,0E0,0E0,0E0,0E0,0E0,0E0],"parents":[2147483647,0,0,1,1,2,2,3,3,4,4,6,6],"right_children":[2,4,6,8,10,-1,12,-1,-1,-1,-1,-1,-1],"split_conditions":[2E0,1.4E1,5.58E1,7.74E1,2.2E1,-6.447348E-2,1E0,-4.210694E-2,-1.15535244E-1,6.4440824E-2,-7.184765E-2,5.2350466E-3,6.0662832E-2],"split_indices":[3,2,9,9,2,0,5,0,0,0,0,0,0],"split_type":[0,0,0,0,0,0,0,0,0,0,0,0,0],"sum_hessian":[4.03E2,3.2E1,3.71E2,1.6E1,1.6E1,8E0,3.63E2,9E0,7E0,9E0,7E0,3.5E2,1.3E1],"tree_param":{"num_deleted":"0","num_feature":"20","num_nodes":"13","size_leaf_vector":"1"}},{"base_weights":[3.0139375E-2,-9.86909E-2,1.5758756E-1,-1.8410447E-1,4.08013E-1,-1.5055727E-2,4.740479E-1,-3.0192588E-2,3.2296106E-3,7.3869377E-3,6.3093245E-2,-6.615927E-2,1.1087934E-2,7.205079E-2,1.1176039E-2],"categories":[],"categories_nodes":[],"categories_segments":[],"categories_sizes":[],"default_left":[0,0,0,0,0,0,0,0,0,0,0,0,0,0,0],"id":84,"left_children":[1,3,5,7,9,11,13,-1,-1,-1,-1,-1,-1,-1,-1],"loss_changes":[6.5673966E0,8.685477E0,1.0993312E1,7.4385676E0,3.4030933E0,1.6464779E1,9.990383E0,0E0,0E0,0E0,0E0,0E0,0E0,0E0,0E0],"parents":[2147483647,0,0,1,1,2,2,3,3,4,4,5,5,6,6],"right_children":[2,4,6,8,10,12,14,-1,-1,-1,-1,-1,-1,-1,-1],"split_conditions":[8.5E0,1.7714285E1,1E0,1E0,4E0,1.88E1,1.6E1,-3.0192588E-2,3.2296106E-3,7.3869377E-3,6.3093245E-2,-6.615927E-2,1.1087934E-2,7.205079E-2,1.1176039E-2],"split_indices":[8,19,12,11,8,8,2,0,0,0,0,0,0,0,0],"split_type":[0,0,0,0,0,0,0,0,0,0,0,0,0,0,0],"sum_hessian":[3.98E2,1.98E2,2E2,1.7E2,2.8E1,1.3E2,7E1,9.1E1,7.9E1,1.6E1,1.2E1,2E1,1.1E2,3E1,4E1],"tree_param":{"num_deleted":"0","num_feature":"20","num_nodes":"15","size_leaf_vector":"1"}},{"base_weights":[7.1750894E-2,-1.6929454E-1,1.5823576E-1,2.9512537E-1,-3.365924E-1,-1.846235E-1,2.379849E-1,7.195667E-2,-4.5164437E-3,-5.8203978E-3,-5.9451334E-2,2.8444951E-2,-4.1846894E-2,3.120323E-2,-6.8730246E-3],"categories":[],"categories_nodes":[],"categories_segments":[],"categories_sizes":[],"default_left":[0,0,0,0,0,0,0,0,0,0,0,0,0,0,0],"id":85,"left_children":[1,3,5,7,9,11,13,-1,-1,-1,-1,-1,-1,-1,-1],"loss_changes":[7.8859143E0,7.869397E0,7.645749E0,5.795953E0,7.875229E0,9.877794E0,1.1167148E1,0E0,0E0,0E0,0E0,0E0,0E0,0E0,0E0],"parents":[2147483647,0,0,1,1,2,2,3,3,4,4,5,5,6,6],"right_children":[2,4,6,8,10,12,14,-1,-1,-1,-1,-1,-1,-1,-1],"split_conditions":[9E0,2.95E1,1.1E1,7.4E1,6E0,2.97E1,1.7E1,7.195667E-2,-4.5164437E-3,-5.8203978E-3,-5.9451334E-2,2.8444951E-2,-4.1846894E-2,3.120323E-2,-6.8730246E-3],"split_indices":[2,7,18,9,2,7,17,0,0,0,0,0,0,0,0],"split_type":[0,0,0,0,0,0,0,0,0,0,0,0,0,0,0],"sum_hessian":[3.76E2,9.9E1,2.77E2,2.6E1,7.3E1,5.2E1,2.25E2,9E0,1.7E1,4.5E1,2.8E1,2E1,3.2E1,1.53E2,7.2E1],"tree_param":{"num_deleted":"0","num_feature":"20","num_nodes":"15","size_leaf_vector":"1"}},{"base_weights":[4.846047E-2,1.1939009E-1,-1.288892E-1,2.8279343E-1,-5.044663E-2,-7.5218505E-1,9.4571255E-2,1.3292624E-2,1.279763E-1,2.5080128E-2,-1.9325806E-2,-1.902821E-2,-9.289387E-2,-1.8630807E-3,8.043362E-2],"categories":[],"categories_nodes":[],"categories_segments":[],"categories_sizes":[],"default_left":[0,0,0,0,0,0,0,0,0,0,0,0,0,0,0],"id":86,"left_children":[1,3,5,7,9,11,13,-1,-1,-1,-1,-1,-1,-1,-1],"loss_changes":[5.1476655E0,8.12014E0,1.6373703E1,2.2602741E1,1.0091648E1,6.230856E0,9.372901E0,0E0,0E0,0E0,0E0,0E0,0E0,0E0,0E0],"parents":[2147483647,0,0,1,1,2,2,3,3,4,4,5,5,6,6],"right_children":[2,4,6,8,10,12,14,-1,-1,-1,-1,-1,-1,-1,-1],"split_conditions":[1E0,3.16E1,1.88E1,3.14E1,1.5E0,1.4142858E1,3.15E1,1.3292624E-2,1.279763E-1,2.5080128E-2,-1.9325806E-2,-1.902821E-2,-9.289387E-2,-1.8630807E-3,8.043362E-2],"split_indices":[13,7,8,7,8,19,7,0,0,0,0,0,0,0,0],"split_type":[0,0,0,0,0,0,0,0,0,0,0,0,0,0,0],"sum_hessian":[4.07E2,2.91E2,1.16E2,1.48E2,1.43E2,3E1,8.6E1,1.37E2,1.1E1,4.9E1,9.4E1,1.4E1,1.6E1,7.7E1,9E0],"tree_param":{"num_deleted":"0","num_feature":"20","num_nodes":"15","size_leaf_vector":"1"}},{"base_weights":[-9.158564E-3,-2.6427233E-1,7.247504E-2,-3.530208E-1,6.038705E-2,1.956753E-1,-1.1911922E-1,1.3322107E-2,-3.9725E-2,1.6593351E-3,4.102193E-2,-5.159808E-2,-2.4168438E-3],"categories":[],"categories_nodes":[],"categories_segments":[],"categories_sizes":[],"default_left":[0,0,0,0,0,0,0,0,0,0,0,0,0],"id":87,"left_children":[1,3,5,7,-1,9,11,-1,-1,-1,-1,-1,-1],"loss_changes":[8.247284E0,8.945124E0,7.1054134E0,6.723316E0,0E0,1.0135265E1,5.490644E0,0E0,0E0,0E0,0E0,0E0,0E0],"parents":[2147483647,0,0,1,1,2,2,3,3,5,5,6,6],"right_children":[2,4,6,8,-1,10,12,-1,-1,-1,-1,-1,-1],"split_conditions":[9E0,2.1E1,1.2E1,2.95E1,6.038705E-2,8E1,1.42E1,1.3322107E-2,-3.9725E-2,1.6593351E-3,4.102193E-2,-5.159808E-2,-2.4168438E-3],"split_indices":[2,18,8,7,0,9,8,0,0,0,0,0,0],"split_type":[0,0,0,0,0,0,0,0,0,0,0,0,0],"sum_hessian":[3.94E2,9.5E1,2.99E2,8.8E1,7E0,1.82E2,1.17E2,1.9E1,6.9E1,1.18E2,6.4E1,1.6E1,1.01E2],"tree_param":{"num_deleted":"0","num_feature":"20","num_nodes":"13","size_leaf_vector":"1"}},{"base_weights":[-1.91098E-2,-1.4267467E-1,2.336628E-1,-1.054825E-1,-1.0201034E-1,-2.0631738E-1,3.9300588E-1,6.0953316E-3,-2.382944E-2,-7.402985E-2,8.435934E-3,8.057394E-2,2.0123892E-2],"categories":[],"categories_nodes":[],"categories_segments":[],"categories_sizes":[],"default_left":[0,0,0,0,0,0,0,0,0,0,0,0,0],"id":88,"left_children":[1,3,5,-1,7,9,11,-1,-1,-1,-1,-1,-1],"loss_changes":[1.2650888E1,1.2857086E1,9.4072895E0,0E0,9.2390995E0,8.176169E0,8.2481575E0,0E0,0E0,0E0,0E0,0E0,0E0],"parents":[2147483647,0,0,1,1,2,2,4,4,5,5,6,6],"right_children":[2,4,6,-1,8,10,12,-1,-1,-1,-1,-1,-1],"split_conditions":[5E0,2E0,1.3E1,-1.054825E-1,1.7E1,2.7E0,6.62E1,6.0953316E-3,-2.382944E-2,-7.402985E-2,8.435934E-3,8.057394E-2,2.0123892E-2],"split_indices":[0,2,17,0,2,8,9,0,0,0,0,0,0],"split_type":[0,0,0,0,0,0,0,0,0,0,0,0,0],"sum_hessian":[4.03E2,2.71E2,1.32E2,8E0,2.63E2,3.5E1,9.7E1,1.38E2,1.25E2,1E1,2.5E1,1.7E1,8E1],"tree_param":{"num_deleted":"0","num_feature":"20","num_nodes":"13","size_leaf_vector":"1"}},{"base_weights":[7.573835E-3,-2.3837101E-1,6.4337514E-2,-3.892197E-2,-9.0048325E-1,1.3822599E-1,-1.7168178E-1,7.3099886E-3,-5.708586E-2,-1.4632006E-2,-1.1642078E-1,2.3907017E-2,-1.3183353E-2,-3.5262447E-2,3.883017E-2],"categories":[],"categories_nodes":[],"categories_segments":[],"categories_sizes":[],"default_left":[0,0,0,0,0,0,0,0,0,0,0,0,0,0,0],"id":89,"left_children":[1,3,5,7,9,11,13,-1,-1,-1,-1,-1,-1,-1,-1],"loss_changes":[5.807301E0,1.0256054E1,5.917814E0,5.433625E0,6.8832216E0,1.2606989E1,1.4535416E1,0E0,0E0,0E0,0E0,0E0,0E0,0E0,0E0],"parents":[2147483647,0,0,1,1,2,2,3,3,4,4,5,5,6,6],"right_children":[2,4,6,8,10,12,14,-1,-1,-1,-1,-1,-1,-1,-1],"split_conditions":[3E0,8.58E1,1.1E1,1.6E1,2.9E1,1.5285714E1,2.33E1,7.3099886E-3,-5.708586E-2,-1.4632006E-2,-1.1642078E-1,2.3907017E-2,-1.3183353E-2,-3.5262447E-2,3.883017E-2],"split_indices":[3,9,3,17,7,19,8,0,0,0,0,0,0,0,0],"split_type":[0,0,0,0,0,0,0,0,0,0,0,0,0,0,0],"sum_hessian":[4.14E2,7.7E1,3.37E2,6E1,1.7E1,2.57E2,8E1,5.1E1,9E0,8E0,9E0,1.68E2,8.9E1,5.7E1,2.3E1],"tree_param":{"num_deleted":"0","num_feature":"20","num_nodes":"15","size_leaf_vector":"1"}},{"base_weights":[3.2518473E-2,1.1641426E-1,-1.785111E-1,-1.5965275E-1,2.322738E-1,-4.3326154E-1,1.9906957E-1,3.6081225E-2,-3.4556735E-2,-9.369963E-3,3.1726085E-2,-2.3482854E-2,-9.818324E-2,-4.26509E-3,8.246454E-2],"categories":[],"categories_nodes":[],"categories_segments":[],"categories_sizes":[],"default_left":[0,0,0,0,0,0,0,0,0,0,0,0,0,0,0],"id":90,"left_children":[1,3,5,7,9,11,13,-1,-1,-1,-1,-1,-1,-1,-1],"loss_changes":[7.15507E0,9.281475E0,1.1150309E1,1.4495468E1,1.176026E1,7.2798386E0,9.930805E0,0E0,0E0,0E0,0E0,0E0,0E0,0E0,0E0],"parents":[2147483647,0,0,1,1,2,2,3,3,4,4,5,5,6,6],"right_children":[2,4,6,8,10,12,14,-1,-1,-1,-1,-1,-1,-1,-1],"split_conditions":[1E0,9E0,2.2E1,1.2E1,1.3E1,1.9E1,5E0,3.6081225E-2,-3.4556735E-2,-9.369963E-3,3.1726085E-2,-2.3482854E-2,-9.818324E-2,-4.26509E-3,8.246454E-2],"split_indices":[13,2,2,18,18,17,0,0,0,0,0,0,0,0,0],"split_type":[0,0,0,0,0,0,0,0,0,0,0,0,0,0,0],"sum_hessian":[4.02E2,2.88E2,1.14E2,8.5E1,2.03E2,6.8E1,4.6E1,2.6E1,5.9E1,6.5E1,1.38E2,5.9E1,9E0,3.6E1,1E1],"tree_param":{"num_deleted":"0","num_feature":"20","num_nodes":"15","size_leaf_vector":"1"}},{"base_weights":[3.2836042E-2,1.1176394E-1,-2.2045688E-1,3.1168884E-2,5.6359214E-1,-3.136825E-1,4.288044E-2,-4.5082755E-2,6.3546156E-3,1.973453E-2,1.17321946E-1,-1.4382132E-2,-6.831169E-2],"categories":[],"categories_nodes":[],"categories_segments":[],"categories_sizes":[],"default_left":[0,0,0,0,0,0,0,0,0,0,0,0,0],"id":91,"left_children":[1,3,5,7,9,11,-1,-1,-1,-1,-1,-1,-1],"loss_changes":[8.160247E0,1.1301588E1,7.006514E0,7.646123E0,1.3070093E1,6.1295385E0,0E0,0E0,0E0,0E0,0E0,0E0,0E0],"parents":[2147483647,0,0,1,1,2,2,3,3,4,4,5,5],"right_children":[2,4,6,8,10,12,-1,-1,-1,-1,-1,-1,-1],"split_conditions":[8.6E1,8.22E1,1.775E1,9E0,1E0,1.5714286E1,4.288044E-2,-4.5082755E-2,6.3546156E-3,1.973453E-2,1.17321946E-1,-1.4382132E-2,-6.831169E-2],"split_indices":[9,9,19,18,1,19,0,0,0,0,0,0,0],"split_type":[0,0,0,0,0,0,0,0,0,0,0,0,0],"sum_hessian":[4.06E2,3.1E2,9.6E1,2.64E2,4.6E1,8.6E1,1E1,1.9E1,2.45E2,3.5E1,1.1E1,7E1,1.6E1],"tree_param":{"num_deleted":"0","num_feature":"20","num_nodes":"13","size_leaf_vector":"1"}},{"base_weights":[-3.2333296E-2,-5.9893776E-2,6.4035125E-2,1.592471E-2,-2.4967146E-1,1.175503E-2,-2.766005E-2,1.8939992E-2,-2.8136086E-2],"categories":[],"categories_nodes":[],"categories_segments":[],"categories_sizes":[],"default_left":[0,0,0,0,0,0,0,0,0],"id":92,"left_children":[1,3,-1,5,7,-1,-1,-1,-1],"loss_changes":[9.312985E0,5.6466665E0,0E0,1.3363785E1,5.6429057E0,0E0,0E0,0E0,0E0],"parents":[2147483647,0,0,1,1,3,3,4,4],"right_children":[2,4,-1,6,8,-1,-1,-1,-1],"split_conditions":[1.8857143E1,1E0,6.4035125E-2,2.2E1,6E0,1.175503E-2,-2.766005E-2,1.8939992E-2,-2.8136086E-2],"split_indices":[19,13,0,2,2,0,0,0,0],"split_type":[0,0,0,0,0,0,0,0,0],"sum_hessian":[4.03E2,3.91E2,1.2E1,2.8E2,1.11E2,2.06E2,7.4E1,1.9E1,9.2E1],"tree_param":{"num_deleted":"0","num_feature":"20","num_nodes":"9","size_leaf_vector":"1"}},{"base_weights":[3.7967153E-2,1.6797946E-1,-1.744881E-1,9.9611185E-2,6.817103E-1,1.3876748E-1,-3.8620225E-1,1.19778775E-2,-8.414336E-2,1.00207545E-1,3.1218156E-2,-1.7067164E-2,3.6307238E-2,-4.806456E-2,1.4258714E-2],"categories":[],"categories_nodes":[],"categories_segments":[],"categories_sizes":[],"default_left":[0,0,0,0,0,0,0,0,0,0,0,0,0,0,0],"id":93,"left_children":[1,3,5,7,9,11,13,-1,-1,-1,-1,-1,-1,-1,-1],"loss_changes":[1.0691259E1,8.353775E0,9.8052025E0,1.243844E1,4.154065E0,6.755593E0,1.0770809E1,0E0,0E0,0E0,0E0,0E0,0E0,0E0,0E0],"parents":[2147483647,0,0,1,1,2,2,3,3,4,4,5,5,6,6],"right_children":[2,4,6,8,10,12,14,-1,-1,-1,-1,-1,-1,-1,-1],"split_conditions":[9E0,3.42E1,1.4E1,3.39E1,1.3714286E1,1.3428572E1,2.61E1,1.19778775E-2,-8.414336E-2,1.00207545E-1,3.1218156E-2,-1.7067164E-2,3.6307238E-2,-4.806456E-2,1.4258714E-2],"split_indices":[3,7,17,7,19,19,8,0,0,0,0,0,0,0,0],"split_type":[0,0,0,0,0,0,0,0,0,0,0,0,0,0,0],"sum_hessian":[3.85E2,2.39E2,1.46E2,2.12E2,2.7E1,5.9E1,8.7E1,2.04E2,8E0,8E0,1.9E1,2.8E1,3.1E1,6.3E1,2.4E1],"tree_param":{"num_deleted":"0","num_feature":"20","num_nodes":"15","size_leaf_vector":"1"}},{"base_weights":[1.1980341E-2,-2.3339483E-1,1.08215906E-1,6.73179E-2,-3.3658397E-1,5.733003E-1,2.0153081E-2,-3.485877E-2,3.5401918E-2,6.3283294E-2,-3.075565E-2,-5.6084804E-2,4.9129045E-3],"categories":[],